{"learner":{"attributes":{"scikit_learn":"{\"_estimator_type\": \"classifier\"}"},"feature_names":["Close","Volume","EMA_20","RSI","MACD","ATR"],"feature_types":["float","float","float","float","float","float"],"gradient_booster":{"model":{"gbtree_model_param":{"num_parallel_tree":"1","num_trees":"100"},"iteration_indptr":[0,1,2,3,4,5,6,7,8,9,10,11,12,13,14,15,16,17,18,19,20,21,22,23,24,25,26,27,28,29,30,31,32,33,34,35,36,37,38,39,40,41,42,43,44,45,46,47,48,49,50,51,52,53,54,55,56,57,58,59,60,61,62,63,64,65,66,67,68,69,70,71,72,73,74,75,76,77,78,79,80,81,82,83,84,85,86,87,88,89,90,91,92,93,94,95,96,97,98,99,100],"tree_info":[0,0,0,0,0,0,0,0,0,0,0,0,0,0,0,0,0,0,0,0,0,0,0,0,0,0,0,0,0,0,0,0,0,0,0,0,0,0,0,0,0,0,0,0,0,0,0,0,0,0,0,0,0,0,0,0,0,0,0,0,0,0,0,0,0,0,0,0,0,0,0,0,0,0,0,0,0,0,0,0,0,0,0,0,0,0,0,0,0,0,0,0,0,0,0,0,0,0,0,0],"trees":[{"base_weights":[-7.380858E-6,-2.4825314E-1,1.7655231E-2,-3.4515756E-1,-2.166588E-2,1.2721658E-1,-1.1772666E-2,-6.268219E-1,-2.919485E-1,2.3287952E-2,-1.3837859E-1,4.6440113E-2,1.6437554E-1,1.080935E-2,-9.0352714E-2,-8.100093E-1,-4.885858E-1,-2.690504E-1,-9.699011E-1,1.4829248E-1,-1.7512379E-3,8.998938E-2,-1.8030852E-1,-9.562375E-2,9.869445E-2,2.2032629E-1,1.16629645E-1,-7.6546624E-2,2.2031378E-2,-6.764859E-2,-1.2741996E-1,-6.9222234E-2,-9.4842374E-2,-6.1001163E-2,-2.7833028E-2,-3.8322423E-2,-1.738769E-2,-1.0942189E-1,-7.601186E-2,3.1724654E-2,1.1407142E-2,3.5264503E-4,-1.839689E-2,-1.5991174E-2,1.657669E-2,-3.5229724E-2,-6.140241E-3,-2.6821264E-3,-2.8973013E-2,4.7673373E-3,1.3021461E-2,2.8769666E-2,1.9995837E-2,1.2364454E-2,-4.175155E-4,-6.031677E-3,-4.770267E-2,3.1864175E-3,-1.4551964E-3,-5.6273094E-3,-1.1017687E-2,-1.5817555E-2,-9.191687E-3],"categories":[],"categories_nodes":[],"categories_segments":[],"categories_sizes":[],"default_left":[0,0,0,0,0,0,0,0,0,0,0,0,0,0,0,0,0,0,0,0,0,0,0,0,0,0,0,0,0,0,0,0,0,0,0,0,0,0,0,0,0,0,0,0,0,0,0,0,0,0,0,0,0,0,0,0,0,0,0,0,0,0,0],"id":0,"left_children":[1,3,5,7,9,11,13,15,17,19,21,23,25,27,29,31,33,35,37,39,41,43,45,47,49,51,53,55,57,59,61,-1,-1,-1,-1,-1,-1,-1,-1,-1,-1,-1,-1,-1,-1,-1,-1,-1,-1,-1,-1,-1,-1,-1,-1,-1,-1,-1,-1,-1,-1,-1,-1],"loss_changes":[2.1356963E3,7.103955E2,1.4661204E3,3.3945337E2,5.0858833E1,2.8898022E2,6.360709E2,9.0766235E1,2.9566968E2,2.1905659E1,2.582594E1,2.252135E2,1.7613574E2,2.7295593E2,6.733099E1,2.4560425E1,5.227545E1,2.0032495E2,1.5401245E1,6.7164574E0,5.6088142E0,7.957109E0,4.655668E1,1.0894797E2,3.566255E1,4.1604492E1,3.0154236E1,2.0599428E2,8.875694E1,2.400087E1,3.3171967E1,0E0,0E0,0E0,0E0,0E0,0E0,0E0,0E0,0E0,0E0,0E0,0E0,0E0,0E0,0E0,0E0,0E0,0E0,0E0,0E0,0E0,0E0,0E0,0E0,0E0,0E0,0E0,0E0,0E0,0E0,0E0,0E0],"parents":[2147483647,0,0,1,1,2,2,3,3,4,4,5,5,6,6,7,7,8,8,9,9,10,10,11,11,12,12,13,13,14,14,15,15,16,16,17,17,18,18,19,19,20,20,21,21,22,22,23,23,24,24,25,25,26,26,27,27,28,28,29,29,30,30],"right_children":[2,4,6,8,10,12,14,16,18,20,22,24,26,28,30,32,34,36,38,40,42,44,46,48,50,52,54,56,58,60,62,-1,-1,-1,-1,-1,-1,-1,-1,-1,-1,-1,-1,-1,-1,-1,-1,-1,-1,-1,-1,-1,-1,-1,-1,-1,-1,-1,-1,-1,-1,-1,-1],"split_conditions":[5.3952513E0,1.810009E1,4.12111E1,1.6262116E0,2.567455E4,2.13882E1,6.0439335E1,4.5540394E1,6.097879E4,4.0297974E1,-5.2576404E0,1.3918174E1,3.504872E1,1.0616943E1,6.6804985E1,-1.6236328E0,4.08138E0,4.8681694E1,5.4647682E1,3.0114689E1,7.092758E1,3.4971104E0,4.9142605E1,4.2272004E4,2.7173218E1,2.6433762E1,6.358834E4,5.441359E4,5.768495E4,6.158705E1,4.1725766E4,-6.9222234E-2,-9.4842374E-2,-6.1001163E-2,-2.7833028E-2,-3.8322423E-2,-1.738769E-2,-1.0942189E-1,-7.601186E-2,3.1724654E-2,1.1407142E-2,3.5264503E-4,-1.839689E-2,-1.5991174E-2,1.657669E-2,-3.5229724E-2,-6.140241E-3,-2.6821264E-3,-2.8973013E-2,4.7673373E-3,1.3021461E-2,2.8769666E-2,1.9995837E-2,1.2364454E-2,-4.175155E-4,-6.031677E-3,-4.770267E-2,3.1864175E-3,-1.4551964E-3,-5.6273094E-3,-1.1017687E-2,-1.5817555E-2,-9.191687E-3],"split_indices":[5,1,3,5,0,1,3,3,0,3,4,5,3,5,3,4,1,3,3,3,3,5,3,2,5,3,0,0,0,5,2,0,0,0,0,0,0,0,0,0,0,0,0,0,0,0,0,0,0,0,0,0,0,0,0,0,0,0,0,0,0,0,0],"split_type":[0,0,0,0,0,0,0,0,0,0,0,0,0,0,0,0,0,0,0,0,0,0,0,0,0,0,0,0,0,0,0,0,0,0,0,0,0,0,0,0,0,0,0,0,0,0,0,0,0,0,0,0,0,0,0,0,0,0,0,0,0,0,0],"sum_hessian":[4.8708075E5,3.2352826E4,4.5472794E5,2.2660922E4,9.691905E3,9.627787E4,3.5845006E5,3.598951E3,1.906197E4,6.997502E3,2.694403E3,3.0335834E4,6.594203E4,2.784353E5,8.001475E4,1.5457273E3,2.0532236E3,1.8440531E4,6.2143933E2,1.1669166E3,5.830585E3,4.1779114E2,2.2766118E3,8.157422E3,2.2178412E4,3.0360572E4,3.558146E4,3.1696154E4,2.4673916E5,4.962294E4,3.0391807E4,8.3833093E2,7.0739636E2,1.30035E3,7.5287366E2,8.38206E3,1.0058472E4,3.8755624E2,2.3388307E2,1.9515244E2,9.717642E2,5.667417E3,1.6316843E2,9.695153E1,3.208396E2,9.2978516E2,1.3468267E3,6.023489E3,2.133933E3,8.470266E3,1.3708147E4,7.044978E3,2.3315594E4,3.3628688E4,1.9527738E3,3.0462771E4,1.2333834E3,1.9447003E5,5.226912E4,3.9152676E4,1.0470266E4,1.628286E4,1.4108946E4],"tree_param":{"num_deleted":"0","num_feature":"6","num_nodes":"63","size_leaf_vector":"1"}},{"base_weights":[-9.944701E-6,-1.8211131E-1,1.9695573E-2,-2.9714635E-1,-3.929167E-2,1.3937657E-1,-3.2234292E-3,-5.1891345E-1,-2.4679035E-1,2.5690727E-2,-1.2782064E-1,7.120377E-2,1.660919E-1,2.0245368E-2,-7.127908E-2,-6.778024E-1,-4.0459052E-1,-2.2027749E-1,-7.685114E-1,1.2404959E-1,-8.35532E-3,-1.886902E-1,-4.420167E-2,9.8656E-3,1.3897637E-1,2.2237273E-1,1.3655248E-1,-2.9830975E-2,3.0696884E-2,-5.2309953E-2,-1.13544695E-1,-5.7386376E-2,-8.250599E-2,-2.7471622E-2,-5.380087E-2,-2.6898107E-2,-9.44304E-3,-9.603074E-2,-6.76313E-2,3.270159E-2,9.49685E-3,1.407842E-3,-5.742319E-3,-6.241921E-3,-3.4922242E-2,8.308375E-3,-1.0591312E-2,-9.379947E-3,4.8091267E-3,1.8657265E-2,1.1198497E-2,2.0574223E-2,2.8950084E-2,1.463629E-2,6.3739903E-3,-6.5002026E-4,-2.2192417E-2,4.090939E-3,-2.8133212E-4,-4.1429307E-3,-9.158383E-3,-1.4445324E-2,-7.970857E-3],"categories":[],"categories_nodes":[],"categories_segments":[],"categories_sizes":[],"default_left":[0,0,0,0,0,0,0,0,0,0,0,0,0,0,0,0,0,0,0,0,0,0,0,0,0,0,0,0,0,0,0,0,0,0,0,0,0,0,0,0,0,0,0,0,0,0,0,0,0,0,0,0,0,0,0,0,0,0,0,0,0,0,0],"id":1,"left_children":[1,3,5,7,9,11,13,15,17,19,21,23,25,27,29,31,33,35,37,39,41,43,45,47,49,51,53,55,57,59,61,-1,-1,-1,-1,-1,-1,-1,-1,-1,-1,-1,-1,-1,-1,-1,-1,-1,-1,-1,-1,-1,-1,-1,-1,-1,-1,-1,-1,-1,-1,-1,-1],"loss_changes":[1.7477794E3,7.813563E2,1.2055463E3,2.9404053E2,1.2207002E2,1.2863843E2,5.891497E2,8.825354E1,2.9680103E2,4.0980934E1,4.570938E1,8.2680626E1,8.434094E1,1.435531E2,7.582715E1,3.0717285E1,4.9006897E1,1.2520923E2,1.770337E1,1.8542564E1,1.0008725E1,1.0534195E2,2.9741926E1,4.138066E1,1.2118286E1,1.9439575E1,2.3766235E1,2.122583E2,7.7658035E1,2.7894958E1,3.0630707E1,0E0,0E0,0E0,0E0,0E0,0E0,0E0,0E0,0E0,0E0,0E0,0E0,0E0,0E0,0E0,0E0,0E0,0E0,0E0,0E0,0E0,0E0,0E0,0E0,0E0,0E0,0E0,0E0,0E0,0E0,0E0,0E0],"parents":[2147483647,0,0,1,1,2,2,3,3,4,4,5,5,6,6,7,7,8,8,9,9,10,10,11,11,12,12,13,13,14,14,15,15,16,16,17,17,18,18,19,19,20,20,21,21,22,22,23,23,24,24,25,25,26,26,27,27,28,28,29,29,30,30],"right_children":[2,4,6,8,10,12,14,16,18,20,22,24,26,28,30,32,34,36,38,40,42,44,46,48,50,52,54,56,58,60,62,-1,-1,-1,-1,-1,-1,-1,-1,-1,-1,-1,-1,-1,-1,-1,-1,-1,-1,-1,-1,-1,-1,-1,-1,-1,-1,-1,-1,-1,-1,-1,-1],"split_conditions":[6.972078E0,1.195244E1,3.912949E1,2.045949E0,2.5680123E4,2.163747E1,5.8893726E1,4.5540394E1,6.037179E4,-1.461505E0,5.347929E1,2.6864943E1,3.1606867E1,1.4521901E1,6.6804985E1,-1.6236328E0,2.7978709E4,5.751365E1,4.388708E0,3.1606867E1,1.739654E0,-2.4948394E0,2.7723458E0,6.84139E0,3.4773647E1,-2.0084673E1,5.878294E4,4.2765066E4,5.749E4,6.158705E1,4.1725766E4,-5.7386376E-2,-8.250599E-2,-2.7471622E-2,-5.380087E-2,-2.6898107E-2,-9.44304E-3,-9.603074E-2,-6.76313E-2,3.270159E-2,9.49685E-3,1.407842E-3,-5.742319E-3,-6.241921E-3,-3.4922242E-2,8.308375E-3,-1.0591312E-2,-9.379947E-3,4.8091267E-3,1.8657265E-2,1.1198497E-2,2.0574223E-2,2.8950084E-2,1.463629E-2,6.3739903E-3,-6.5002026E-4,-2.2192417E-2,4.090939E-3,-2.8133212E-4,-4.1429307E-3,-9.158383E-3,-1.4445324E-2,-7.970857E-3],"split_indices":[5,1,3,5,2,1,3,3,0,4,3,5,3,5,3,4,2,3,5,3,4,4,4,1,3,4,0,2,0,5,2,0,0,0,0,0,0,0,0,0,0,0,0,0,0,0,0,0,0,0,0,0,0,0,0,0,0,0,0,0,0,0,0],"split_type":[0,0,0,0,0,0,0,0,0,0,0,0,0,0,0,0,0,0,0,0,0,0,0,0,0,0,0,0,0,0,0,0,0,0,0,0,0,0,0,0,0,0,0,0,0,0,0,0,0,0,0,0,0,0,0,0,0,0,0,0,0,0,0],"sum_hessian":[4.870615E5,4.755852E4,4.3950297E5,2.6340943E4,2.1217576E4,7.063712E4,3.6886588E5,4.8726343E3,2.1468309E4,1.2236442E4,8.981134E3,1.9888604E4,5.074851E4,2.742814E5,9.458446E4,2.0368456E3,2.8357888E3,2.0431445E4,1.0368644E3,3.1457478E3,9.090694E3,5.1968696E3,3.7842637E3,1.0440492E4,9.448112E3,1.746545E4,3.3283066E4,4.736062E4,2.2692078E5,6.5285902E4,2.9298557E4,1.1969214E3,8.3992426E2,1.4385294E3,1.3972594E3,1.4729791E4,5.7016533E3,3.3356003E2,7.033044E2,3.929536E2,2.7527942E3,6.2389644E3,2.85173E3,2.909619E3,2.287251E3,1.2355287E3,2.548735E3,2.8122993E3,7.628193E3,3.4168918E3,6.03122E3,1.4000893E4,3.4645557E3,2.9330238E4,3.9528264E3,4.223231E4,5.1283125E3,1.7391772E5,5.300307E4,5.112423E4,1.4161673E4,1.5309972E4,1.3988586E4],"tree_param":{"num_deleted":"0","num_feature":"6","num_nodes":"63","size_leaf_vector":"1"}},{"base_weights":[-1.2342904E-5,-2.5629604E-1,1.1466845E-2,-3.2856986E-1,-3.5318304E-2,1.2210819E-1,-7.356295E-3,-4.4266915E-1,-2.142131E-1,1.0983052E-2,-1.611715E-1,-2.1190057E-2,1.4146975E-1,9.820235E-3,-7.33161E-2,-3.0410165E-1,-5.296374E-1,-4.204453E-1,-1.4555714E-1,2.156398E-1,3.853703E-3,-2.7753782E-1,-4.6378516E-2,-1.5005411E-1,8.1816785E-2,1.9336763E-1,1.13793895E-1,-7.4017204E-2,2.2814294E-2,-5.639674E-2,-1.0644559E-1,-2.7881337E-2,-9.8983034E-2,-7.7023886E-2,-4.8841465E-2,-3.799971E-2,-8.864074E-2,9.583999E-3,-1.9421441E-2,-8.3153985E-2,2.6090672E-2,8.476369E-4,-2.0203715E-2,-1.4516602E-2,-5.6608506E-2,9.479449E-3,-1.812213E-2,-9.343456E-3,-4.5802683E-2,3.651751E-3,1.7738E-2,2.3376962E-2,1.6875338E-2,2.6479226E-3,1.2553009E-2,2.7343556E-3,-1.3913591E-2,6.228293E-3,1.5181748E-3,-4.66103E-3,-9.39991E-3,-3.8833518E-2,-1.0359716E-2],"categories":[],"categories_nodes":[],"categories_segments":[],"categories_sizes":[],"default_left":[0,0,0,0,0,0,0,0,0,0,0,0,0,0,0,0,0,0,0,0,0,0,0,0,0,0,0,0,0,0,0,0,0,0,0,0,0,0,0,0,0,0,0,0,0,0,0,0,0,0,0,0,0,0,0,0,0,0,0,0,0,0,0],"id":2,"left_children":[1,3,5,7,9,11,13,15,17,19,21,23,25,27,29,31,33,35,37,39,41,43,45,47,49,51,53,55,57,59,61,-1,-1,-1,-1,-1,-1,-1,-1,-1,-1,-1,-1,-1,-1,-1,-1,-1,-1,-1,-1,-1,-1,-1,-1,-1,-1,-1,-1,-1,-1,-1,-1],"loss_changes":[1.4327684E3,3.3344116E2,9.707879E2,2.0518884E2,2.9993244E1,1.8803766E2,4.5133374E2,9.473291E1,1.11222595E2,5.490398E0,1.8478867E1,1.0710528E2,8.573474E1,3.4431583E2,4.612851E1,5.2419067E1,4.7594727E1,3.665036E1,6.929576E1,6.22158E0,3.464082E0,2.6167542E1,1.330574E1,6.2460716E1,1.9406559E1,2.0610046E1,3.990277E1,2.7995236E2,8.243494E1,2.0045212E1,2.2299866E1,0E0,0E0,0E0,0E0,0E0,0E0,0E0,0E0,0E0,0E0,0E0,0E0,0E0,0E0,0E0,0E0,0E0,0E0,0E0,0E0,0E0,0E0,0E0,0E0,0E0,0E0,0E0,0E0,0E0,0E0,0E0,0E0],"parents":[2147483647,0,0,1,1,2,2,3,3,4,4,5,5,6,6,7,7,8,8,9,9,10,10,11,11,12,12,13,13,14,14,15,15,16,16,17,17,18,18,19,19,20,20,21,21,22,22,23,23,24,24,25,25,26,26,27,27,28,28,29,29,30,30],"right_children":[2,4,6,8,10,12,14,16,18,20,22,24,26,28,30,32,34,36,38,40,42,44,46,48,50,52,54,56,58,60,62,-1,-1,-1,-1,-1,-1,-1,-1,-1,-1,-1,-1,-1,-1,-1,-1,-1,-1,-1,-1,-1,-1,-1,-1,-1,-1,-1,-1,-1,-1,-1,-1],"split_conditions":[4.1753983E0,1.745999E1,3.8394184E1,5.0280064E1,2.6150566E4,1.043597E1,6.0439335E1,-3.126091E0,2.65721E0,2.9538027E1,4.8451584E1,1.3918174E1,3.1606867E1,1.0616943E1,6.752426E1,6.037179E4,3.2443573E1,4.321801E4,5.5657618E-2,1.6262116E0,3.9310536E0,-1.7523874E0,2.9298155E0,6.097879E4,3.213061E1,2.6433762E1,1.1393238E1,2.5680123E4,4.275378E1,6.158705E1,2.88374E0,-2.7881337E-2,-9.8983034E-2,-7.7023886E-2,-4.8841465E-2,-3.799971E-2,-8.864074E-2,9.583999E-3,-1.9421441E-2,-8.3153985E-2,2.6090672E-2,8.476369E-4,-2.0203715E-2,-1.4516602E-2,-5.6608506E-2,9.479449E-3,-1.812213E-2,-9.343456E-3,-4.5802683E-2,3.651751E-3,1.7738E-2,2.3376962E-2,1.6875338E-2,2.6479226E-3,1.2553009E-2,2.7343556E-3,-1.3913591E-2,6.228293E-3,1.5181748E-3,-4.66103E-3,-9.39991E-3,-3.8833518E-2,-1.0359716E-2],"split_indices":[5,1,3,3,2,1,3,4,1,3,3,5,3,5,3,0,3,0,4,5,4,4,4,0,5,3,5,2,3,5,1,0,0,0,0,0,0,0,0,0,0,0,0,0,0,0,0,0,0,0,0,0,0,0,0,0,0,0,0,0,0,0,0],"split_type":[0,0,0,0,0,0,0,0,0,0,0,0,0,0,0,0,0,0,0,0,0,0,0,0,0,0,0,0,0,0,0,0,0,0,0,0,0,0,0,0,0,0,0,0,0,0,0,0,0,0,0,0,0,0,0,0,0,0,0,0,0,0,0],"sum_hessian":[4.8701475E5,2.087776E4,4.66137E5,1.5731929E4,5.1458306E3,6.777194E4,3.9836506E5,7.8733916E3,7.858537E3,3.762515E3,1.3833156E3,8.06695E3,5.9704984E4,3.160608E5,8.230425E4,3.0377715E3,4.83562E3,1.9614656E3,5.8970713E3,1.256729E2,3.636842E3,6.862461E2,6.9706946E2,3.583477E3,4.483473E3,2.076339E4,3.8941598E4,4.241235E4,2.7364847E5,5.4482523E4,2.7821727E4,2.9310854E3,1.0668593E2,7.0472504E2,4.130895E3,1.8064691E3,1.5499652E2,9.890844E2,4.907987E3,4.487682E0,1.2118521E2,3.5579182E3,7.892363E1,4.7146387E2,2.1478223E2,3.4068643E2,3.5638306E2,3.02808E3,5.5539703E2,3.0425928E3,1.4408804E3,7.8575205E3,1.2905869E4,4.614442E3,3.4327152E4,1.6589885E4,2.5822467E4,4.434241E4,2.2930606E5,4.3232906E4,1.1249615E4,2.7696643E2,2.754476E4],"tree_param":{"num_deleted":"0","num_feature":"6","num_nodes":"63","size_leaf_vector":"1"}},{"base_weights":[-1.4742137E-5,-1.8468866E-1,1.3081024E-2,-2.9786983E-1,-7.3098406E-2,9.413632E-2,-8.699873E-3,-2.7874005E-1,-8.397534E-1,1.6296804E-2,-1.4156708E-1,3.508677E-2,1.2364889E-1,7.874127E-3,-6.641581E-2,-4.953642E-1,-2.2577858E-1,-1.006419E0,-7.119643E-1,1.15944006E-1,-3.476143E-3,-2.4030162E-1,-3.4430552E-2,-7.227438E-2,7.3162064E-2,1.6396141E-1,8.877618E-2,-4.547045E-2,1.7817073E-2,-8.724869E-2,-4.359573E-2,-5.5673312E-2,-2.3621766E-2,-3.0568717E-2,-1.6038775E-2,-1.03857994E-1,-1.4765582E-2,-5.743559E-2,-9.082589E-2,-1.0820214E-2,1.2970092E-2,3.9594714E-3,-2.139419E-3,-1.1097276E-2,-3.929798E-2,1.4182086E-2,-1.0958654E-2,-1.5797894E-3,-2.360752E-2,1.3675243E-2,5.6421785E-3,2.5623653E-2,1.5465821E-2,9.649701E-3,-1.06291685E-4,-3.1114293E-3,-3.7142158E-2,3.1541914E-3,1.0099834E-4,-7.537873E-3,-1.4774156E-2,-3.7016816E-2,-4.1595483E-3],"categories":[],"categories_nodes":[],"categories_segments":[],"categories_sizes":[],"default_left":[0,0,0,0,0,0,0,0,0,0,0,0,0,0,0,0,0,0,0,0,0,0,0,0,0,0,0,0,0,0,0,0,0,0,0,0,0,0,0,0,0,0,0,0,0,0,0,0,0,0,0,0,0,0,0,0,0,0,0,0,0,0,0],"id":3,"left_children":[1,3,5,7,9,11,13,15,17,19,21,23,25,27,29,31,33,35,37,39,41,43,45,47,49,51,53,55,57,59,61,-1,-1,-1,-1,-1,-1,-1,-1,-1,-1,-1,-1,-1,-1,-1,-1,-1,-1,-1,-1,-1,-1,-1,-1,-1,-1,-1,-1,-1,-1,-1,-1],"loss_changes":[1.1776722E3,4.0722705E2,8.027706E2,1.6570605E2,9.939029E1,1.6783258E2,3.42842E2,1.7729773E2,1.0898407E1,1.387846E1,9.725993E1,1.3120483E2,9.0257935E1,1.47688E2,3.800943E1,4.816864E1,6.488837E1,6.3165283E0,7.9086E0,3.6102753E0,4.537396E0,9.44415E1,5.84473E1,7.773218E1,2.5214256E1,2.5527527E1,2.3883453E1,2.0469324E2,5.413903E1,3.0002228E1,2.491278E1,0E0,0E0,0E0,0E0,0E0,0E0,0E0,0E0,0E0,0E0,0E0,0E0,0E0,0E0,0E0,0E0,0E0,0E0,0E0,0E0,0E0,0E0,0E0,0E0,0E0,0E0,0E0,0E0,0E0,0E0,0E0,0E0],"parents":[2147483647,0,0,1,1,2,2,3,3,4,4,5,5,6,6,7,7,8,8,9,9,10,10,11,11,12,12,13,13,14,14,15,15,16,16,17,17,18,18,19,19,20,20,21,21,22,22,23,23,24,24,25,25,26,26,27,27,28,28,29,29,30,30],"right_children":[2,4,6,8,10,12,14,16,18,20,22,24,26,28,30,32,34,36,38,40,42,44,46,48,50,52,54,56,58,60,62,-1,-1,-1,-1,-1,-1,-1,-1,-1,-1,-1,-1,-1,-1,-1,-1,-1,-1,-1,-1,-1,-1,-1,-1,-1,-1,-1,-1,-1,-1,-1,-1],"split_conditions":[5.3952513E0,8.14642E0,4.12111E1,6.4277316E4,2.352782E4,2.267759E1,6.0439335E1,1.6262116E0,6.520002E4,4.0297974E1,5.0851048E1,1.3918174E1,3.504872E1,1.2553041E1,4.0876367E4,6.8331985E1,4.8681694E1,8.2096275E1,6.926895E4,1.6551223E4,1.675767E4,-2.6488569E0,1.5936596E0,4.2272004E4,3.387216E1,2.1955278E1,6.114412E4,5.899137E4,3.5905542E0,7.159273E1,6.7777953E0,-5.5673312E-2,-2.3621766E-2,-3.0568717E-2,-1.6038775E-2,-1.03857994E-1,-1.4765582E-2,-5.743559E-2,-9.082589E-2,-1.0820214E-2,1.2970092E-2,3.9594714E-3,-2.139419E-3,-1.1097276E-2,-3.929798E-2,1.4182086E-2,-1.0958654E-2,-1.5797894E-3,-2.360752E-2,1.3675243E-2,5.6421785E-3,2.5623653E-2,1.5465821E-2,9.649701E-3,-1.06291685E-4,-3.1114293E-3,-3.7142158E-2,3.1541914E-3,1.0099834E-4,-7.537873E-3,-1.4774156E-2,-3.7016816E-2,-4.1595483E-3],"split_indices":[5,1,3,2,0,1,3,5,0,3,3,5,3,5,2,3,3,3,2,2,0,4,4,2,3,3,0,2,4,3,5,0,0,0,0,0,0,0,0,0,0,0,0,0,0,0,0,0,0,0,0,0,0,0,0,0,0,0,0,0,0,0,0],"split_type":[0,0,0,0,0,0,0,0,0,0,0,0,0,0,0,0,0,0,0,0,0,0,0,0,0,0,0,0,0,0,0,0,0,0,0,0,0,0,0,0,0,0,0,0,0,0,0,0,0,0,0,0,0,0,0,0,0,0,0,0,0,0,0],"sum_hessian":[4.8695203E5,3.2243764E4,4.5470828E5,1.6006942E4,1.623682E4,9.630736E4,3.584009E5,1.5462591E4,5.443522E2,7.042559E3,9.194261E3,3.2094334E4,6.4213027E4,2.7844275E5,7.995817E4,3.036064E3,1.2426526E4,2.3325713E2,3.1109506E2,1.1652639E3,5.8772954E3,4.784101E3,4.41016E3,8.402068E3,2.3692266E4,2.978182E4,3.4431207E4,4.3744895E4,2.3469786E5,4.1797555E4,3.8160613E4,2.4538215E3,5.822423E2,5.590804E3,6.835722E3,2.2463507E2,8.622059E0,1.8519429E2,1.25900764E2,6.698524E1,1.0982787E3,1.7263464E3,4.1509487E3,2.5910396E3,2.1930615E3,1.3181127E3,3.0920474E3,6.2486934E3,2.1533752E3,4.935789E3,1.8756477E4,2.7251824E3,2.7056639E4,3.1706271E4,2.7249338E3,4.1900527E4,1.8443672E3,1.29195016E5,1.0550284E5,3.4943215E4,6.8543413E3,2.3118967E2,3.792942E4],"tree_param":{"num_deleted":"0","num_feature":"6","num_nodes":"63","size_leaf_vector":"1"}},{"base_weights":[-1.6948046E-5,-1.3890819E-1,1.4307214E-2,-2.499288E-1,-5.1207505E-2,8.569157E-2,-6.708269E-3,-2.282459E-1,-6.6940796E-1,2.3802906E-2,-1.0939088E-1,1.3093476E-1,5.7873316E-2,1.1140171E-2,-5.296621E-2,-4.485606E-1,-1.8686672E-1,-8.2700336E-1,-5.9295785E-1,1.1035268E-1,-4.8087803E-3,-1.869229E-1,-4.2869158E-2,-2.4220074E-2,1.4107151E-1,-7.6668665E-2,6.458165E-2,-7.4374795E-2,1.573119E-2,-3.9687216E-2,-8.8112146E-2,-5.04574E-2,-2.130993E-2,-2.2336377E-2,-9.350242E-3,-5.852251E-2,-9.52335E-2,-1.784526E-2,-6.504329E-2,2.8311959E-2,8.506114E-3,1.5274741E-3,-5.016851E-3,-3.5369385E-3,-2.615637E-2,1.5496683E-2,-8.385993E-3,-1.9914776E-2,5.888226E-3,1.886287E-2,1.282608E-2,2.9802439E-3,-1.7469626E-2,7.881324E-3,-4.3043747E-4,-1.3651318E-2,-1.953291E-4,2.6703689E-3,3.0149185E-4,-2.7732477E-3,-7.109011E-3,-1.1657878E-2,-5.672724E-3],"categories":[],"categories_nodes":[],"categories_segments":[],"categories_sizes":[],"default_left":[0,0,0,0,0,0,0,0,0,0,0,0,0,0,0,0,0,0,0,0,0,0,0,0,0,0,0,0,0,0,0,0,0,0,0,0,0,0,0,0,0,0,0,0,0,0,0,0,0,0,0,0,0,0,0,0,0,0,0,0,0,0,0],"id":4,"left_children":[1,3,5,7,9,11,13,15,17,19,21,23,25,27,29,31,33,35,37,39,41,43,45,47,49,51,53,55,57,59,61,-1,-1,-1,-1,-1,-1,-1,-1,-1,-1,-1,-1,-1,-1,-1,-1,-1,-1,-1,-1,-1,-1,-1,-1,-1,-1,-1,-1,-1,-1,-1,-1],"loss_changes":[9.686355E2,4.4317688E2,6.6211206E2,1.8255786E2,1.109927E2,1.26332275E2,2.8151996E2,1.7406006E2,1.1398712E1,2.7512403E1,7.3859116E1,6.011444E1,5.6110657E1,9.659721E1,4.430243E1,3.9719666E1,5.4783813E1,9.133408E0,1.5798096E1,1.2037094E1,7.608052E0,7.4802246E1,6.2534264E1,3.4097084E1,2.1833008E1,3.0823402E1,5.804889E1,5.6415047E1,3.2580864E1,2.5865196E1,2.3250793E1,0E0,0E0,0E0,0E0,0E0,0E0,0E0,0E0,0E0,0E0,0E0,0E0,0E0,0E0,0E0,0E0,0E0,0E0,0E0,0E0,0E0,0E0,0E0,0E0,0E0,0E0,0E0,0E0,0E0,0E0,0E0,0E0],"parents":[2147483647,0,0,1,1,2,2,3,3,4,4,5,5,6,6,7,7,8,8,9,9,10,10,11,11,12,12,13,13,14,14,15,15,16,16,17,17,18,18,19,19,20,20,21,21,22,22,23,23,24,24,25,25,26,26,27,27,28,28,29,29,30,30],"right_children":[2,4,6,8,10,12,14,16,18,20,22,24,26,28,30,32,34,36,38,40,42,44,46,48,50,52,54,56,58,60,62,-1,-1,-1,-1,-1,-1,-1,-1,-1,-1,-1,-1,-1,-1,-1,-1,-1,-1,-1,-1,-1,-1,-1,-1,-1,-1,-1,-1,-1,-1,-1,-1],"split_conditions":[6.7777953E0,8.14642E0,4.1792053E1,6.037179E4,2.216312E4,3.504872E1,5.8893726E1,1.6262116E0,4.2072674E1,-1.461505E0,4.8451584E1,8.79616E0,8.907615E0,4.64109E0,6.752426E1,6.8331985E1,5.751365E1,-8.8747425E0,-3.2917383E0,3.1606867E1,1.739654E0,-5.2576404E0,-3.688102E-1,1.2553041E1,2.6433762E1,2.6828E4,5.969644E4,1.965948E1,1.739654E0,5.3861534E1,4.1725766E4,-5.04574E-2,-2.130993E-2,-2.2336377E-2,-9.350242E-3,-5.852251E-2,-9.52335E-2,-1.784526E-2,-6.504329E-2,2.8311959E-2,8.506114E-3,1.5274741E-3,-5.016851E-3,-3.5369385E-3,-2.615637E-2,1.5496683E-2,-8.385993E-3,-1.9914776E-2,5.888226E-3,1.886287E-2,1.282608E-2,2.9802439E-3,-1.7469626E-2,7.881324E-3,-4.3043747E-4,-1.3651318E-2,-1.953291E-4,2.6703689E-3,3.0149185E-4,-2.7732477E-3,-7.109011E-3,-1.1657878E-2,-5.672724E-3],"split_indices":[5,1,3,0,0,3,3,5,3,4,3,1,5,1,3,3,3,4,4,3,4,4,4,5,3,0,0,5,4,5,2,0,0,0,0,0,0,0,0,0,0,0,0,0,0,0,0,0,0,0,0,0,0,0,0,0,0,0,0,0,0,0,0],"split_type":[0,0,0,0,0,0,0,0,0,0,0,0,0,0,0,0,0,0,0,0,0,0,0,0,0,0,0,0,0,0,0,0,0,0,0,0,0,0,0,0,0,0,0,0,0,0,0,0,0,0,0,0,0,0,0,0,0,0,0,0,0,0,0],"sum_hessian":[4.868717E5,4.5516992E4,4.413547E5,2.0086973E4,2.543002E4,1.0038132E5,3.4097338E5,1.9101176E4,9.857969E2,1.1108917E4,1.4321103E4,3.8218926E4,6.216239E4,2.4604042E5,9.4932945E4,3.0187322E3,1.6082443E4,3.1879987E2,6.66997E2,2.7592834E3,8.349634E3,6.612421E3,7.708682E3,2.3437476E3,3.5875176E4,2.9517532E3,5.921064E4,1.2535307E4,2.3350511E5,6.890215E4,2.6030795E4,2.4376917E3,5.8104047E2,1.1561531E4,4.520912E3,1.1077407E2,2.0802579E2,8.172296E1,5.8527405E2,3.5105142E2,2.408232E3,5.7877197E3,2.5619136E3,2.1824878E3,4.429933E3,1.3225939E3,6.386088E3,7.5438837E2,1.5893593E3,7.6101797E3,2.8264998E4,1.415273E3,1.5364801E3,4.907234E4,1.01383E4,6.7461543E3,5.789153E3,1.2534632E5,1.081588E5,4.9905543E4,1.899661E4,1.3648585E4,1.2382209E4],"tree_param":{"num_deleted":"0","num_feature":"6","num_nodes":"63","size_leaf_vector":"1"}},{"base_weights":[-1.8597393E-5,-1.9269583E-1,8.561526E-3,-2.4769406E-1,-2.5680251E-2,9.079845E-2,-5.427285E-3,-3.367847E-1,-1.5301892E-1,8.354348E-3,-1.1845405E-1,3.2637253E-2,1.1661555E-1,8.873173E-3,-4.774636E-2,-2.204522E-1,-4.070767E-1,-3.688433E-1,-1.068073E-1,1.6836004E-1,1.5359081E-3,-1.8221544E-1,1.0597313E-2,-1.07331E-1,6.251528E-2,1.517524E-1,9.5211804E-2,-5.6709956E-2,1.9030765E-2,-3.3658996E-2,-7.637097E-2,-1.932791E-2,-6.2905915E-2,-5.721658E-2,-3.614593E-2,-3.3067722E-2,-7.0550926E-2,1.4306518E-2,-1.3999226E-2,-2.1195574E-2,2.6200179E-2,7.1545516E-4,-1.9189507E-2,-3.2840986E-2,-3.6764469E-3,1.319723E-2,-9.384187E-3,-6.4970846E-3,-4.546018E-2,3.064961E-3,1.0838462E-2,1.3254404E-2,2.1349235E-2,1.0222446E-2,2.0290618E-3,3.0781012E-3,-1.1342337E-2,2.7842203E-3,-1.2679923E-3,-3.933656E-2,-3.2862348E-3,-9.165911E-3,-4.536978E-3],"categories":[],"categories_nodes":[],"categories_segments":[],"categories_sizes":[],"default_left":[0,0,0,0,0,0,0,0,0,0,0,0,0,0,0,0,0,0,0,0,0,0,0,0,0,0,0,0,0,0,0,0,0,0,0,0,0,0,0,0,0,0,0,0,0,0,0,0,0,0,0,0,0,0,0,0,0,0,0,0,0,0,0],"id":5,"left_children":[1,3,5,7,9,11,13,15,17,19,21,23,25,27,29,31,33,35,37,39,41,43,45,47,49,51,53,55,57,59,61,-1,-1,-1,-1,-1,-1,-1,-1,-1,-1,-1,-1,-1,-1,-1,-1,-1,-1,-1,-1,-1,-1,-1,-1,-1,-1,-1,-1,-1,-1,-1,-1],"loss_changes":[8.0475134E2,1.9062103E2,5.3612305E2,1.3162885E2,1.6237343E1,1.0172577E2,2.4103491E2,6.567407E1,7.546594E1,4.1050725E0,1.1358742E1,8.711451E1,3.527307E1,1.983122E2,4.056198E1,3.353537E1,3.7538147E1,1.691655E1,5.17358E1,5.532521E0,3.9249592E0,1.9632202E1,5.809994E0,5.3876926E1,2.508725E1,2.1034393E1,1.5319336E1,1.9810019E2,7.202488E1,1.9306503E1,1.5720444E1,0E0,0E0,0E0,0E0,0E0,0E0,0E0,0E0,0E0,0E0,0E0,0E0,0E0,0E0,0E0,0E0,0E0,0E0,0E0,0E0,0E0,0E0,0E0,0E0,0E0,0E0,0E0,0E0,0E0,0E0,0E0,0E0],"parents":[2147483647,0,0,1,1,2,2,3,3,4,4,5,5,6,6,7,7,8,8,9,9,10,10,11,11,12,12,13,13,14,14,15,15,16,16,17,17,18,18,19,19,20,20,21,21,22,22,23,23,24,24,25,25,26,26,27,27,28,28,29,29,30,30],"right_children":[2,4,6,8,10,12,14,16,18,20,22,24,26,28,30,32,34,36,38,40,42,44,46,48,50,52,54,56,58,60,62,-1,-1,-1,-1,-1,-1,-1,-1,-1,-1,-1,-1,-1,-1,-1,-1,-1,-1,-1,-1,-1,-1,-1,-1,-1,-1,-1,-1,-1,-1,-1,-1],"split_conditions":[4.1753983E0,1.745999E1,3.8394184E1,5.0976334E1,2.6150566E4,2.294318E1,5.8893726E1,-3.126091E0,2.16194E0,-3.126091E0,3.4971104E0,8.528818E0,3.1606867E1,1.0616943E1,6.646478E1,4.159787E4,3.5830784E1,4.321801E4,-3.688102E-1,2.2148277E1,1.6276144E2,4.8451584E1,-7.808966E-1,4.379999E4,3.184925E1,-2.1185366E1,6.114412E4,2.5680123E4,5.749E4,1.18139E0,4.7283805E4,-1.932791E-2,-6.2905915E-2,-5.721658E-2,-3.614593E-2,-3.3067722E-2,-7.0550926E-2,1.4306518E-2,-1.3999226E-2,-2.1195574E-2,2.6200179E-2,7.1545516E-4,-1.9189507E-2,-3.2840986E-2,-3.6764469E-3,1.319723E-2,-9.384187E-3,-6.4970846E-3,-4.546018E-2,3.064961E-3,1.0838462E-2,1.3254404E-2,2.1349235E-2,1.0222446E-2,2.0290618E-3,3.0781012E-3,-1.1342337E-2,2.7842203E-3,-1.2679923E-3,-3.933656E-2,-3.2862348E-3,-9.165911E-3,-4.536978E-3],"split_indices":[5,1,3,3,2,1,3,4,1,4,5,5,3,5,3,0,3,0,4,1,1,3,4,0,5,4,0,2,0,1,2,0,0,0,0,0,0,0,0,0,0,0,0,0,0,0,0,0,0,0,0,0,0,0,0,0,0,0,0,0,0,0,0],"split_type":[0,0,0,0,0,0,0,0,0,0,0,0,0,0,0,0,0,0,0,0,0,0,0,0,0,0,0,0,0,0,0,0,0,0,0,0,0,0,0,0,0,0,0,0,0,0,0,0,0,0,0,0,0,0,0,0,0,0,0,0,0,0,0],"sum_hessian":[4.8678366E5,2.0751938E4,4.6603172E5,1.5610813E4,5.1411245E3,6.774854E4,3.982832E5,8.04129E3,7.569523E3,3.7619438E3,1.3791808E3,2.0828346E4,4.692019E4,2.9768897E5,1.00594234E5,3.0303057E3,5.0109844E3,1.3336998E3,6.235823E3,1.5278992E2,3.609154E3,9.228227E2,4.5635803E2,3.6635032E3,1.7164842E4,1.7759584E4,2.916061E4,3.992247E4,2.5776648E5,6.741747E4,3.317677E4,2.842732E3,1.8757385E2,1.0823657E3,3.9286187E3,1.1996804E3,1.3401935E2,7.3068414E2,5.5051387E3,2.9937708E1,1.2285221E2,3.508213E3,1.0094102E2,4.5960782E2,4.6321487E2,2.1094392E2,2.4541412E2,3.2662703E3,3.972331E2,1.0129496E4,7.035346E3,1.3547782E4,4.2118013E3,2.6664441E4,2.4961675E3,1.5701085E4,2.4221383E4,2.0171589E5,5.605059E4,1.4789185E2,6.726958E4,2.2218053E4,1.0958718E4],"tree_param":{"num_deleted":"0","num_feature":"6","num_nodes":"63","size_leaf_vector":"1"}},{"base_weights":[-1.9765906E-5,-2.061475E-1,6.5508094E-3,-2.944059E-1,-1.1507208E-1,8.268641E-2,-5.237246E-3,-4.877959E-1,-2.4933861E-1,-2.2248816E-1,-2.6299404E-2,-7.4257955E-2,9.334423E-2,5.5805803E-3,-4.8594918E-2,-5.61671E-1,-2.241374E-1,-2.3453245E-1,-7.5326955E-1,5.909225E-3,-3.120465E-1,6.4118996E-2,-1.1058177E-1,-1.0245564E-1,1.7906539E-1,4.8760235E-2,1.0887478E-1,-5.4856565E-2,1.5711416E-2,-2.2167626E-1,-4.677634E-2,-6.609891E-2,-4.862952E-2,-3.805592E-3,-3.775293E-2,-2.9889736E-2,-1.4265716E-2,-7.820143E-2,5.642436E-2,2.9766703E-2,-1.6341275E-3,-1.8150292E-2,-4.5893934E-2,4.8904303E-3,5.1454235E-2,-3.6841966E-2,-1.6794695E-3,-4.3363813E-3,-2.510479E-2,-2.9757788E-2,2.1851737E-2,-9.660314E-3,7.171145E-3,1.5783224E-2,9.712627E-3,-3.8033228E-3,-2.8750762E-2,2.3301754E-3,-1.1607304E-3,-3.3586524E-2,-1.075534E-2,-6.22974E-3,-2.7159385E-3],"categories":[],"categories_nodes":[],"categories_segments":[],"categories_sizes":[],"default_left":[0,0,0,0,0,0,0,0,0,0,0,0,0,0,0,0,0,0,0,0,0,0,0,0,0,0,0,0,0,0,0,0,0,0,0,0,0,0,0,0,0,0,0,0,0,0,0,0,0,0,0,0,0,0,0,0,0,0,0,0,0,0,0],"id":6,"left_children":[1,3,5,7,9,11,13,15,17,19,21,23,25,27,29,31,33,35,37,39,41,43,45,47,49,51,53,55,57,59,61,-1,-1,-1,-1,-1,-1,-1,-1,-1,-1,-1,-1,-1,-1,-1,-1,-1,-1,-1,-1,-1,-1,-1,-1,-1,-1,-1,-1,-1,-1,-1,-1],"loss_changes":[6.5916797E2,1.2081781E2,4.2331052E2,6.641992E1,7.056648E1,1.05781006E2,1.915659E2,2.7959076E1,4.6037903E1,6.849872E1,3.0895535E1,2.874616E1,4.0996277E1,2.0013684E2,2.5659988E1,8.105377E0,9.040978E0,3.554843E1,7.1194763E0,6.134389E0,4.604393E1,1.3379909E1,5.0731438E1,3.17709E1,7.646802E0,5.1052055E1,2.5244324E1,1.836567E2,5.804928E1,1.101107E1,2.4571976E1,0E0,0E0,0E0,0E0,0E0,0E0,0E0,0E0,0E0,0E0,0E0,0E0,0E0,0E0,0E0,0E0,0E0,0E0,0E0,0E0,0E0,0E0,0E0,0E0,0E0,0E0,0E0,0E0,0E0,0E0,0E0,0E0],"parents":[2147483647,0,0,1,1,2,2,3,3,4,4,5,5,6,6,7,7,8,8,9,9,10,10,11,11,12,12,13,13,14,14,15,15,16,16,17,17,18,18,19,19,20,20,21,21,22,22,23,23,24,24,25,25,26,26,27,27,28,28,29,29,30,30],"right_children":[2,4,6,8,10,12,14,16,18,20,22,24,26,28,30,32,34,36,38,40,42,44,46,48,50,52,54,56,58,60,62,-1,-1,-1,-1,-1,-1,-1,-1,-1,-1,-1,-1,-1,-1,-1,-1,-1,-1,-1,-1,-1,-1,-1,-1,-1,-1,-1,-1,-1,-1,-1,-1],"split_conditions":[3.4971104E0,5.85232E0,3.7819336E1,1.0937791E0,4.810932E1,6.84139E0,6.0601227E1,6.8331985E1,6.4277316E4,2.579734E4,1.4494574E0,3.213061E1,2.294318E1,1.0616943E1,2.41556E0,3.876407E1,2.797602E4,5.4178226E1,5.3352E0,2.9538027E1,-2.4948394E0,7.031668E1,5.9645775E1,6.114412E4,4.1990336E4,7.557529E0,2.7370825E1,4.2765066E4,5.749E4,8.907615E0,4.1725766E4,-6.609891E-2,-4.862952E-2,-3.805592E-3,-3.775293E-2,-2.9889736E-2,-1.4265716E-2,-7.820143E-2,5.642436E-2,2.9766703E-2,-1.6341275E-3,-1.8150292E-2,-4.5893934E-2,4.8904303E-3,5.1454235E-2,-3.6841966E-2,-1.6794695E-3,-4.3363813E-3,-2.510479E-2,-2.9757788E-2,2.1851737E-2,-9.660314E-3,7.171145E-3,1.5783224E-2,9.712627E-3,-3.8033228E-3,-2.8750762E-2,2.3301754E-3,-1.1607304E-3,-3.3586524E-2,-1.075534E-2,-6.22974E-3,-2.7159385E-3],"split_indices":[5,1,3,5,3,1,3,3,2,2,4,5,1,5,1,3,0,3,1,3,4,3,3,0,2,5,3,2,0,5,2,0,0,0,0,0,0,0,0,0,0,0,0,0,0,0,0,0,0,0,0,0,0,0,0,0,0,0,0,0,0,0,0],"split_type":[0,0,0,0,0,0,0,0,0,0,0,0,0,0,0,0,0,0,0,0,0,0,0,0,0,0,0,0,0,0,0,0,0,0,0,0,0,0,0,0,0,0,0,0,0,0,0,0,0,0,0,0,0,0,0,0,0,0,0,0,0,0,0],"sum_hessian":[4.8669228E5,1.5033729E4,4.7165856E5,7.633808E3,7.3999204E3,6.3235156E4,4.084234E5,1.4408966E3,6.1929116E3,3.347679E3,4.0522415E3,4.0207402E3,5.9214418E4,3.2686966E5,8.1553766E4,1.1246482E3,3.1624835E2,6.0175728E3,1.7533888E2,9.432012E2,2.4044778E3,1.9550725E3,2.097169E3,3.6185513E3,4.021891E2,1.5299076E4,4.391534E4,4.6925215E4,2.7994444E5,8.4672516E2,8.070704E4,4.8190396E2,6.4274426E2,1.4346156E2,1.7278679E2,3.5372412E3,2.4803315E3,1.7199289E2,3.3459935E0,6.5957756E1,8.7724347E2,1.2742703E3,1.1302075E3,1.892263E3,6.2809525E1,5.585859E2,1.5385831E3,2.5898984E3,1.028653E3,3.0244469E1,3.719446E2,2.0857295E3,1.3213346E4,8.496592E3,3.541875E4,4.3761895E4,3.1633228E3,2.1907573E5,6.08687E4,4.222688E2,4.2445636E2,4.5056145E4,3.565089E4],"tree_param":{"num_deleted":"0","num_feature":"6","num_nodes":"63","size_leaf_vector":"1"}},{"base_weights":[-2.0806901E-5,-1.452844E-1,7.6604527E-3,-2.436788E-1,-7.833193E-2,5.751888E-2,-8.712414E-3,-4.490399E-1,-2.0993E-1,-1.18934415E-1,2.5429618E-2,-7.316332E-2,6.661776E-2,9.2796766E-4,-5.0554067E-2,-5.173506E-1,-2.0721707E-1,-1.9194612E-1,-6.6184926E-1,-1.7795406E-3,-1.8188718E-1,8.6001396E-2,-1.2914498E-1,5.112085E-4,-1.5259784E-1,1.0204088E-1,4.806898E-2,-1.0824087E-1,3.7343244E-3,-5.8686677E-2,-4.53008E-3,-4.185305E-2,-5.9314895E-2,-8.40036E-3,-4.097439E-2,-2.190039E-2,-6.8009645E-3,-7.91192E-2,-4.6293765E-2,1.8265176E-3,-9.589785E-3,-1.1886355E-2,-2.8357852E-2,4.3578092E-2,7.181351E-3,-4.6857975E-2,-9.057548E-3,-1.1881652E-2,3.4138144E-3,1.169428E-4,-2.2074511E-2,7.174252E-3,1.1931171E-2,-3.1232361E-3,5.5732504E-3,-1.6416607E-2,9.311195E-4,-2.0739057E-3,1.004575E-3,-5.5445223E-3,-1.4445459E-2,-4.1987155E-2,4.352635E-5],"categories":[],"categories_nodes":[],"categories_segments":[],"categories_sizes":[],"default_left":[0,0,0,0,0,0,0,0,0,0,0,0,0,0,0,0,0,0,0,0,0,0,0,0,0,0,0,0,0,0,0,0,0,0,0,0,0,0,0,0,0,0,0,0,0,0,0,0,0,0,0,0,0,0,0,0,0,0,0,0,0,0,0],"id":7,"left_children":[1,3,5,7,9,11,13,15,17,19,21,23,25,27,29,31,33,35,37,39,41,43,45,47,49,51,53,55,57,59,61,-1,-1,-1,-1,-1,-1,-1,-1,-1,-1,-1,-1,-1,-1,-1,-1,-1,-1,-1,-1,-1,-1,-1,-1,-1,-1,-1,-1,-1,-1,-1,-1],"loss_changes":[5.4295557E2,1.6097485E2,3.7727744E2,6.848602E1,6.1277565E1,1.3585599E2,1.4033841E2,2.2949463E1,6.8957855E1,7.709909E1,3.831832E1,4.3526493E1,7.017798E1,8.663066E1,2.4384949E1,7.8987427E0,7.678896E0,2.740445E1,7.993042E0,6.8970423E0,4.3546646E1,1.4559435E1,1.5043047E1,1.54913435E1,3.7502335E1,1.9200134E1,4.260756E1,4.6591118E1,4.258238E1,1.5384476E1,2.0178894E1,0E0,0E0,0E0,0E0,0E0,0E0,0E0,0E0,0E0,0E0,0E0,0E0,0E0,0E0,0E0,0E0,0E0,0E0,0E0,0E0,0E0,0E0,0E0,0E0,0E0,0E0,0E0,0E0,0E0,0E0,0E0,0E0],"parents":[2147483647,0,0,1,1,2,2,3,3,4,4,5,5,6,6,7,7,8,8,9,9,10,10,11,11,12,12,13,13,14,14,15,15,16,16,17,17,18,18,19,19,20,20,21,21,22,22,23,23,24,24,25,25,26,26,27,27,28,28,29,29,30,30],"right_children":[2,4,6,8,10,12,14,16,18,20,22,24,26,28,30,32,34,36,38,40,42,44,46,48,50,52,54,56,58,60,62,-1,-1,-1,-1,-1,-1,-1,-1,-1,-1,-1,-1,-1,-1,-1,-1,-1,-1,-1,-1,-1,-1,-1,-1,-1,-1,-1,-1,-1,-1,-1,-1],"split_conditions":[4.587334E0,5.51157E0,4.2484398E1,1.0937791E0,5.8466747E1,6.35183E0,6.2035034E1,6.8331985E1,6.4277316E4,2.352782E4,5.1999383E0,-1.2458187E1,3.4773647E1,3.09445E0,6.083015E4,2.797602E4,2.6163247E0,6.304417E1,6.660401E4,5.4178226E1,-7.808966E-1,-7.808966E-1,2.38683E0,1.3918174E1,3.0281678E4,3.746762E1,9.481037E0,1.965948E1,1.4521901E1,1.1965968E2,6.7777953E0,-4.185305E-2,-5.9314895E-2,-8.40036E-3,-4.097439E-2,-2.190039E-2,-6.8009645E-3,-7.91192E-2,-4.6293765E-2,1.8265176E-3,-9.589785E-3,-1.1886355E-2,-2.8357852E-2,4.3578092E-2,7.181351E-3,-4.6857975E-2,-9.057548E-3,-1.1881652E-2,3.4138144E-3,1.169428E-4,-2.2074511E-2,7.174252E-3,1.1931171E-2,-3.1232361E-3,5.5732504E-3,-1.6416607E-2,9.311195E-4,-2.0739057E-3,1.004575E-3,-5.5445223E-3,-1.4445459E-2,-4.1987155E-2,4.352635E-5],"split_indices":[5,1,3,5,3,1,3,3,2,0,4,4,3,1,0,0,4,3,0,3,4,4,5,5,2,1,5,5,5,5,5,0,0,0,0,0,0,0,0,0,0,0,0,0,0,0,0,0,0,0,0,0,0,0,0,0,0,0,0,0,0,0,0],"split_type":[0,0,0,0,0,0,0,0,0,0,0,0,0,0,0,0,0,0,0,0,0,0,0,0,0,0,0,0,0,0,0,0,0,0,0,0,0,0,0,0,0,0,0,0,0,0,0,0,0,0,0,0,0,0,0,0,0,0,0,0,0,0,0],"sum_hessian":[4.8660128E5,2.4437393E4,4.621639E5,9.894151E3,1.4543241E4,1.1424972E5,3.479142E5,1.3947579E3,8.499393E3,1.045284E4,4.0904016E3,7.4364863E3,1.0681323E5,2.8276553E5,6.514864E4,1.086657E3,3.0810095E2,8.175479E3,3.2391394E2,3.6539255E3,6.7989146E3,2.939119E3,1.151283E3,3.8586394E3,3.5778467E3,3.670746E4,7.0105766E4,7.085815E3,2.7567972E5,5.5365137E4,9.783506E3,4.7452667E2,6.121303E2,1.924393E2,1.1566165E2,6.709825E3,1.465654E3,1.9447711E2,1.2943683E2,3.0130347E3,6.40891E2,4.1988364E3,2.6000781E3,1.1341205E2,2.8257068E3,1.1633305E2,1.0349498E3,8.477611E2,3.0108782E3,1.0990151E3,2.4788318E3,1.3329159E4,2.33783E4,6.177593E3,6.3928176E4,4.801238E3,2.2845774E3,5.651871E4,2.1916102E5,5.335049E4,2.0146467E3,1.1459144E2,9.668914E3],"tree_param":{"num_deleted":"0","num_feature":"6","num_nodes":"63","size_leaf_vector":"1"}},{"base_weights":[-2.1706694E-5,-8.8900775E-2,1.0379185E-2,-1.5457852E-1,-1.1687513E-2,5.687027E-2,-5.5300803E-3,-1.3938986E-1,-4.4664344E-1,2.2824515E-2,-5.8904953E-2,2.1996817E-2,7.3505156E-2,7.043097E-3,-3.651856E-2,-2.7469113E-1,-1.1022303E-1,-5.267676E-1,-3.140556E-1,9.328448E-2,2.0272664E-3,-2.0060988E-1,-3.9538827E-2,-1.5194343E-2,5.9345156E-2,9.4789885E-2,5.3473808E-2,-5.0682314E-2,1.0302915E-2,-5.298151E-2,-1.9607916E-2,-3.903059E-2,-2.0950407E-2,-1.7181648E-2,-6.010232E-3,-6.370324E-2,-4.402342E-2,4.8136567E-3,-3.82619E-2,3.2845654E-2,8.270387E-3,4.186302E-2,2.4763027E-5,-3.3153664E-2,-7.905069E-3,1.4386385E-2,-5.5230604E-3,2.0304217E-3,-9.703193E-3,6.1436924E-3,-2.4159936E-2,1.0243595E-2,2.9866162E-3,9.317485E-3,4.140335E-3,-8.8741155E-3,1.3722042E-3,2.1645008E-3,-1.790918E-4,-6.349545E-3,-1.0653982E-3,7.8301405E-4,-4.275498E-3],"categories":[],"categories_nodes":[],"categories_segments":[],"categories_sizes":[],"default_left":[0,0,0,0,0,0,0,0,0,0,0,0,0,0,0,0,0,0,0,0,0,0,0,0,0,0,0,0,0,0,0,0,0,0,0,0,0,0,0,0,0,0,0,0,0,0,0,0,0,0,0,0,0,0,0,0,0,0,0,0,0,0,0],"id":8,"left_children":[1,3,5,7,9,11,13,15,17,19,21,23,25,27,29,31,33,35,37,39,41,43,45,47,49,51,53,55,57,59,61,-1,-1,-1,-1,-1,-1,-1,-1,-1,-1,-1,-1,-1,-1,-1,-1,-1,-1,-1,-1,-1,-1,-1,-1,-1,-1,-1,-1,-1,-1,-1,-1],"loss_changes":[4.4974335E2,2.584704E2,3.2214612E2,1.221145E2,3.8179066E1,6.441687E1,1.2643367E2,1.03290405E2,1.42934265E1,1.9834812E1,2.7142006E1,4.9816643E1,3.204947E1,4.343898E1,2.6074043E1,3.4905884E1,6.648657E1,7.8001404E0,1.2811146E1,7.6485043E0,7.749067E0,1.890128E1,2.5060291E1,5.22083E1,1.1279388E1,1.8090668E1,1.8557571E1,3.0246626E1,2.9972002E1,2.1119537E1,2.9344837E1,0E0,0E0,0E0,0E0,0E0,0E0,0E0,0E0,0E0,0E0,0E0,0E0,0E0,0E0,0E0,0E0,0E0,0E0,0E0,0E0,0E0,0E0,0E0,0E0,0E0,0E0,0E0,0E0,0E0,0E0,0E0,0E0],"parents":[2147483647,0,0,1,1,2,2,3,3,4,4,5,5,6,6,7,7,8,8,9,9,10,10,11,11,12,12,13,13,14,14,15,15,16,16,17,17,18,18,19,19,20,20,21,21,22,22,23,23,24,24,25,25,26,26,27,27,28,28,29,29,30,30],"right_children":[2,4,6,8,10,12,14,16,18,20,22,24,26,28,30,32,34,36,38,40,42,44,46,48,50,52,54,56,58,60,62,-1,-1,-1,-1,-1,-1,-1,-1,-1,-1,-1,-1,-1,-1,-1,-1,-1,-1,-1,-1,-1,-1,-1,-1,-1,-1,-1,-1,-1,-1,-1,-1],"split_conditions":[7.3596687E0,1.195244E1,4.275378E1,5.216433E4,2.5680123E4,2.13882E1,5.8893726E1,2.045949E0,5.4647682E1,-1.7523874E0,2.6961615E0,2.7173218E1,3.6544952E1,4.81184E0,4.0876367E4,4.275378E1,4.8681694E1,5.1941113E0,1.4494574E0,2.6433762E1,1.645955E4,4.7769157E1,2.9538027E1,4.784588E4,7.11628E4,6.083015E4,2.282517E4,2.34725E1,1.739654E0,1.9619914E2,3.3677666E1,-3.903059E-2,-2.0950407E-2,-1.7181648E-2,-6.010232E-3,-6.370324E-2,-4.402342E-2,4.8136567E-3,-3.82619E-2,3.2845654E-2,8.270387E-3,4.186302E-2,2.4763027E-5,-3.3153664E-2,-7.905069E-3,1.4386385E-2,-5.5230604E-3,2.0304217E-3,-9.703193E-3,6.1436924E-3,-2.4159936E-2,1.0243595E-2,2.9866162E-3,9.317485E-3,4.140335E-3,-8.8741155E-3,1.3722042E-3,2.1645008E-3,-1.790918E-4,-6.349545E-3,-1.0653982E-3,7.8301405E-4,-4.275498E-3],"split_indices":[5,1,3,0,2,1,3,5,3,4,5,5,3,1,2,3,3,5,4,3,0,3,3,0,2,0,2,5,4,1,4,0,0,0,0,0,0,0,0,0,0,0,0,0,0,0,0,0,0,0,0,0,0,0,0,0,0,0,0,0,0,0,0],"split_type":[0,0,0,0,0,0,0,0,0,0,0,0,0,0,0,0,0,0,0,0,0,0,0,0,0,0,0,0,0,0,0,0,0,0,0,0,0,0,0,0,0,0,0,0,0,0,0,0,0,0,0,0,0,0,0,0,0,0,0,0,0,0,0],"sum_hessian":[4.865113E5,5.0967715E4,4.355436E5,2.7540617E4,2.3427098E4,1.1104324E5,3.2450034E5,2.6180588E4,1.3600288E3,1.35348E4,9.892298E3,3.586274E4,7.518051E4,2.3084053E5,9.365981E4,4.64138E3,2.1539207E4,8.458815E2,5.141474E2,3.0837463E3,1.0451054E4,1.1882598E3,8.704038E3,1.7969479E4,1.7893262E4,3.644809E4,3.8732418E4,1.2338246E4,2.185023E5,4.7457027E4,4.6202785E4,1.6716249E3,2.9697551E3,9.662508E3,1.18767E4,3.691422E2,4.7673926E2,8.188435E1,4.3226306E2,1.3147394E2,2.9522725E3,4.3458366E1,1.0407596E4,5.712553E2,6.170045E2,6.8537146E2,8.018667E3,1.2533564E4,5.435913E3,1.7770541E4,1.2272139E2,3.2607348E4,3.8407402E3,9.028847E3,2.970357E4,7.755101E3,4.583145E3,1.12755125E5,1.05747164E5,3.8014035E4,9.442992E3,2.1142066E4,2.5060719E4],"tree_param":{"num_deleted":"0","num_feature":"6","num_nodes":"63","size_leaf_vector":"1"}},{"base_weights":[-2.177366E-5,-1.5538268E-1,4.8912526E-3,-2.790756E-1,-1.1531172E-1,2.6538497E-2,-1.8916516E-2,-3.949566E-1,-2.092006E-1,-1.5436044E-1,-6.5096314E-3,7.0156515E-2,1.6437598E-2,-8.329431E-2,-1.3911653E-2,-3.011684E-1,-5.2748525E-1,-2.9515278E-1,-8.247661E-2,-8.378902E-3,-1.9781727E-1,4.126856E-2,-1.8809313E-1,-2.6947334E-2,8.195903E-2,-1.4101109E-2,2.5564441E-2,-1.8688363E-1,-4.861745E-2,-2.9244528E-3,-4.1210108E-2,-4.9344733E-2,-2.3560826E-2,-4.9741235E-2,-1.2882668E-1,-1.7507594E-2,-4.1616693E-2,1.2158877E-2,-1.9784851E-2,1.0300527E-1,-1.1620478E-3,-1.646308E-2,-3.7017588E-2,-1.34654045E-2,8.908273E-3,-8.210212E-2,-1.5959037E-2,-1.19023565E-2,4.47935E-3,1.2613584E-2,7.1496028E-3,4.529615E-3,-4.9796E-3,2.8171267E-3,-6.7631984E-3,-1.5677877E-2,-4.9306747E-2,-3.8940941E-3,-3.6536727E-2,7.6531977E-3,-5.728732E-4,-5.004169E-3,5.2186445E-4],"categories":[],"categories_nodes":[],"categories_segments":[],"categories_sizes":[],"default_left":[0,0,0,0,0,0,0,0,0,0,0,0,0,0,0,0,0,0,0,0,0,0,0,0,0,0,0,0,0,0,0,0,0,0,0,0,0,0,0,0,0,0,0,0,0,0,0,0,0,0,0,0,0,0,0,0,0,0,0,0,0,0,0],"id":9,"left_children":[1,3,5,7,9,11,13,15,17,19,21,23,25,27,29,31,33,35,37,39,41,43,45,47,49,51,53,55,57,59,61,-1,-1,-1,-1,-1,-1,-1,-1,-1,-1,-1,-1,-1,-1,-1,-1,-1,-1,-1,-1,-1,-1,-1,-1,-1,-1,-1,-1,-1,-1,-1,-1],"loss_changes":[3.7127914E2,7.387225E1,2.4300256E2,2.9453766E1,4.7854553E1,1.088047E2,7.2348885E1,1.6882462E1,2.478495E1,5.2582596E1,2.58262E1,5.3221268E1,5.589099E1,5.81746E1,6.249173E1,1.0033821E1,1.232785E1,1.9642738E1,2.1729086E1,6.41613E0,3.647502E1,1.9836792E1,1.1055624E1,3.3252636E1,1.9128784E1,9.7828064E1,3.7509285E1,3.736406E1,3.718456E1,3.3102394E1,2.451764E1,0E0,0E0,0E0,0E0,0E0,0E0,0E0,0E0,0E0,0E0,0E0,0E0,0E0,0E0,0E0,0E0,0E0,0E0,0E0,0E0,0E0,0E0,0E0,0E0,0E0,0E0,0E0,0E0,0E0,0E0,0E0,0E0],"parents":[2147483647,0,0,1,1,2,2,3,3,4,4,5,5,6,6,7,7,8,8,9,9,10,10,11,11,12,12,13,13,14,14,15,15,16,16,17,17,18,18,19,19,20,20,21,21,22,22,23,23,24,24,25,25,26,26,27,27,28,28,29,29,30,30],"right_children":[2,4,6,8,10,12,14,16,18,20,22,24,26,28,30,32,34,36,38,40,42,44,46,48,50,52,54,56,58,60,62,-1,-1,-1,-1,-1,-1,-1,-1,-1,-1,-1,-1,-1,-1,-1,-1,-1,-1,-1,-1,-1,-1,-1,-1,-1,-1,-1,-1,-1,-1,-1,-1],"split_conditions":[3.4971104E0,1.6262116E0,1.1642562E0,4.275378E1,5.9645775E1,3.5830784E1,7.7507896E0,-1.6236328E0,4.08138E0,2.579835E4,5.9830155E0,1.043597E1,1.3720838E1,5.3711254E1,6.2035034E1,1.8802029E1,8.795758E-1,2.797602E4,5.838769E-1,-7.3921084E0,1.739654E0,2.045949E0,6.165202E1,1.1202729E1,2.6433762E1,2.302828E4,5.751365E1,3.776228E4,6.098193E4,4.3546627E1,6.0641273E4,-4.9344733E-2,-2.3560826E-2,-4.9741235E-2,-1.2882668E-1,-1.7507594E-2,-4.1616693E-2,1.2158877E-2,-1.9784851E-2,1.0300527E-1,-1.1620478E-3,-1.646308E-2,-3.7017588E-2,-1.34654045E-2,8.908273E-3,-8.210212E-2,-1.5959037E-2,-1.19023565E-2,4.47935E-3,1.2613584E-2,7.1496028E-3,4.529615E-3,-4.9796E-3,2.8171267E-3,-6.7631984E-3,-1.5677877E-2,-4.9306747E-2,-3.8940941E-3,-3.6536727E-2,7.6531977E-3,-5.728732E-4,-5.004169E-3,5.2186445E-4],"split_indices":[5,5,4,3,3,3,5,4,1,0,4,1,5,3,3,3,4,0,4,4,4,5,3,5,3,0,3,2,2,3,2,0,0,0,0,0,0,0,0,0,0,0,0,0,0,0,0,0,0,0,0,0,0,0,0,0,0,0,0,0,0,0,0],"split_type":[0,0,0,0,0,0,0,0,0,0,0,0,0,0,0,0,0,0,0,0,0,0,0,0,0,0,0,0,0,0,0,0,0,0,0,0,0,0,0,0,0,0,0,0,0,0,0,0,0,0,0,0,0,0,0,0,0,0,0,0,0,0,0],"sum_hessian":[4.8641612E5,1.4909629E4,4.715065E5,3.6467383E3,1.1262891E4,2.4695878E5,2.245477E5,1.3700271E3,2.2767112E3,8.287952E3,2.974938E3,4.643515E4,2.0052364E5,1.6196443E4,2.0835127E5,8.041892E2,5.658379E2,1.355796E3,9.2091516E2,1.9015155E3,6.386437E3,2.3558423E3,6.1909576E2,5.0321797E3,4.140297E4,4.6139355E4,1.5438428E5,4.0609321E3,1.2135512E4,1.485595E5,5.9791766E4,2.0281989E2,6.013693E2,5.4591235E2,1.9925545E1,6.8176154E2,6.740345E2,3.325896E2,5.8832556E2,4.9315796E0,1.8965839E3,5.356948E3,1.0294886E3,5.0307236E2,1.8527699E3,2.5480246E1,5.936155E2,2.203467E3,2.8287126E3,7.926158E3,3.3476812E4,1.7319303E4,2.8820053E4,1.5018414E5,4.2001455E3,3.6987705E3,3.621616E2,1.1776859E4,3.5865268E2,5.0635186E3,1.4349598E5,5.0235918E4,9.555847E3],"tree_param":{"num_deleted":"0","num_feature":"6","num_nodes":"63","size_leaf_vector":"1"}},{"base_weights":[-2.2291593E-5,-9.543712E-2,6.704723E-3,-1.5299648E-1,-2.6096646E-2,3.5578962E-2,-8.505275E-3,-1.2528321E-1,-3.499812E-1,1.8481027E-2,-6.2398046E-2,6.852957E-2,2.1302456E-2,-8.654948E-2,-5.914123E-3,-2.6270822E-1,-8.977258E-2,-5.0790167E-1,-2.8278813E-1,1.8696222E-1,8.384137E-3,-1.3920508E-1,-1.8236551E-2,3.8325906E-4,7.3300794E-2,2.5377199E-2,-6.748813E-2,-1.702874E-1,-2.1636527E-2,1.3637195E-3,-3.9172243E-2,-4.952867E-2,-2.3620432E-2,-6.4668492E-3,-1.2289824E-2,-5.90126E-2,-3.746862E-2,-3.4094516E-2,-1.8213723E-2,1.629971E-2,9.520283E-2,-3.445643E-5,1.0369926E-2,-2.1788005E-2,-8.205294E-3,-6.301476E-3,1.2618606E-3,3.7884407E-3,-1.5008192E-2,9.507596E-3,5.981718E-3,2.7690893E-3,-8.008457E-3,-1.1194895E-2,-6.664342E-5,-1.0692092E-3,-2.3313895E-2,3.1195348E-3,-1.1470385E-2,2.7901726E-3,-8.1758335E-4,-4.718087E-3,8.8975346E-4],"categories":[],"categories_nodes":[],"categories_segments":[],"categories_sizes":[],"default_left":[0,0,0,0,0,0,0,0,0,0,0,0,0,0,0,0,0,0,0,0,0,0,0,0,0,0,0,0,0,0,0,0,0,0,0,0,0,0,0,0,0,0,0,0,0,0,0,0,0,0,0,0,0,0,0,0,0,0,0,0,0,0,0],"id":10,"left_children":[1,3,5,7,9,11,13,15,17,19,21,23,25,27,29,31,33,35,37,39,41,43,45,47,49,51,53,55,57,59,61,-1,-1,-1,-1,-1,-1,-1,-1,-1,-1,-1,-1,-1,-1,-1,-1,-1,-1,-1,-1,-1,-1,-1,-1,-1,-1,-1,-1,-1,-1,-1,-1],"loss_changes":[3.1215497E2,1.2783209E2,1.9951918E2,9.549762E1,2.3512766E1,7.373392E1,6.0173126E1,7.485765E1,2.2755066E1,1.1093227E1,2.7160608E1,1.540596E1,3.9568916E1,5.197081E1,6.97092E1,1.930217E1,1.0133331E1,6.8206024E0,8.812538E0,6.6050787E0,5.120258E0,1.3126907E1,7.0275803E0,1.7505632E1,1.2995834E1,2.551664E1,1.42571335E1,4.187893E1,2.6493277E1,5.9819996E1,1.9906319E1,0E0,0E0,0E0,0E0,0E0,0E0,0E0,0E0,0E0,0E0,0E0,0E0,0E0,0E0,0E0,0E0,0E0,0E0,0E0,0E0,0E0,0E0,0E0,0E0,0E0,0E0,0E0,0E0,0E0,0E0,0E0,0E0],"parents":[2147483647,0,0,1,1,2,2,3,3,4,4,5,5,6,6,7,7,8,8,9,9,10,10,11,11,12,12,13,13,14,14,15,15,16,16,17,17,18,18,19,19,20,20,21,21,22,22,23,23,24,24,25,25,26,26,27,27,28,28,29,29,30,30],"right_children":[2,4,6,8,10,12,14,16,18,20,22,24,26,28,30,32,34,36,38,40,42,44,46,48,50,52,54,56,58,60,62,-1,-1,-1,-1,-1,-1,-1,-1,-1,-1,-1,-1,-1,-1,-1,-1,-1,-1,-1,-1,-1,-1,-1,-1,-1,-1,-1,-1,-1,-1,-1,-1],"split_conditions":[4.81184E0,1.178175E1,-6.713454E0,6.037179E4,5.918898E4,3.677419E1,3.7393248E0,2.045949E0,5.9951286E0,3.7619057E1,1.965948E1,9.481037E0,5.4295815E1,4.810932E1,6.34791E1,2.6433762E1,1.1642562E0,6.660401E4,2.88374E0,4.287586E1,3.941225E1,4.7998695E1,2.6315899E1,3.089045E4,3.6024758E4,6.926601E4,5.076479E4,2.579835E4,2.6163247E0,2.4546158E4,6.0641273E4,-4.952867E-2,-2.3620432E-2,-6.4668492E-3,-1.2289824E-2,-5.90126E-2,-3.746862E-2,-3.4094516E-2,-1.8213723E-2,1.629971E-2,9.520283E-2,-3.445643E-5,1.0369926E-2,-2.1788005E-2,-8.205294E-3,-6.301476E-3,1.2618606E-3,3.7884407E-3,-1.5008192E-2,9.507596E-3,5.981718E-3,2.7690893E-3,-8.008457E-3,-1.1194895E-2,-6.664342E-5,-1.0692092E-3,-2.3313895E-2,3.1195348E-3,-1.1470385E-2,2.7901726E-3,-8.1758335E-4,-4.718087E-3,8.8975346E-4],"split_indices":[1,5,4,0,0,3,5,5,5,3,5,5,3,3,3,3,4,0,1,5,5,3,5,0,2,0,0,0,4,2,2,0,0,0,0,0,0,0,0,0,0,0,0,0,0,0,0,0,0,0,0,0,0,0,0,0,0,0,0,0,0,0,0],"split_type":[0,0,0,0,0,0,0,0,0,0,0,0,0,0,0,0,0,0,0,0,0,0,0,0,0,0,0,0,0,0,0,0,0,0,0,0,0,0,0,0,0,0,0,0,0,0,0,0,0,0,0,0,0,0,0,0,0,0,0,0,0,0,0],"sum_hessian":[4.8632912E5,3.2028543E4,4.5430056E5,1.7500344E4,1.4528199E4,1.5674288E5,2.975577E5,1.5343361E4,2.1569817E3,6.5209917E3,8.0072075E3,4.73814E4,1.0936148E5,9.560735E3,2.8799697E5,3.149294E3,1.2194067E4,6.418694E2,1.5151123E3,3.677096E2,6.1532817E3,2.9223733E3,5.084834E3,3.100389E3,4.428101E4,1.045636E5,4.7978774E3,4.174279E3,5.386456E3,2.3629067E5,5.1706297E4,3.203605E2,2.8289336E3,6.9386235E3,5.2554443E3,3.9477396E2,2.4709544E2,9.587504E2,5.5636194E2,3.577174E2,9.992184E0,5.6379683E3,5.153136E2,1.2284675E3,1.6939056E3,2.073968E3,3.010866E3,2.4824294E3,6.179594E2,1.6931578E4,2.7349434E4,1.0231958E5,2.2440212E3,2.8805708E3,1.9173065E3,1.1797578E3,2.9945212E3,3.436379E3,1.9500773E3,6.2478973E4,1.738117E5,4.4322074E4,7.3842236E3],"tree_param":{"num_deleted":"0","num_feature":"6","num_nodes":"63","size_leaf_vector":"1"}},{"base_weights":[-2.2141965E-5,-6.742002E-2,7.839783E-3,-1.324392E-1,-2.024484E-2,4.3738343E-2,-3.9329226E-3,-1.1606297E-1,-3.6415255E-1,1.746691E-2,-5.2722346E-2,6.808801E-2,2.6609303E-2,5.5064363E-3,-2.7556868E-2,-3.0086955E-1,-1.0090398E-1,-6.4248E-1,-3.2612503E-1,7.447854E-2,-1.4957051E-3,-1.09306484E-1,1.0538618E-2,1.1530736E-1,6.1082672E-2,-8.993904E-2,3.8910232E-2,8.133509E-3,-4.529168E-2,-4.180211E-2,-1.2928379E-2,-3.5103496E-2,-1.0915589E-2,-1.4928284E-2,-5.8466922E-3,-4.3393143E-2,-7.9882234E-2,-4.8446275E-2,-2.7015114E-2,9.0483455E-3,-7.4131363E-3,9.791069E-3,-7.2572543E-4,-4.6449145E-3,-2.0077622E-2,2.0000508E-2,-1.5009915E-3,1.370499E-2,4.971105E-3,1.6574098E-3,7.095118E-3,-3.5665964E-3,-1.6152265E-2,1.009894E-3,5.61266E-3,-9.419367E-4,1.309764E-3,-1.8222608E-2,-1.2905264E-3,-5.149435E-3,-2.7891097E-4,1.8278919E-3,-3.0233113E-3],"categories":[],"categories_nodes":[],"categories_segments":[],"categories_sizes":[],"default_left":[0,0,0,0,0,0,0,0,0,0,0,0,0,0,0,0,0,0,0,0,0,0,0,0,0,0,0,0,0,0,0,0,0,0,0,0,0,0,0,0,0,0,0,0,0,0,0,0,0,0,0,0,0,0,0,0,0,0,0,0,0,0,0],"id":11,"left_children":[1,3,5,7,9,11,13,15,17,19,21,23,25,27,29,31,33,35,37,39,41,43,45,47,49,51,53,55,57,59,61,-1,-1,-1,-1,-1,-1,-1,-1,-1,-1,-1,-1,-1,-1,-1,-1,-1,-1,-1,-1,-1,-1,-1,-1,-1,-1,-1,-1,-1,-1,-1,-1],"loss_changes":[2.576517E2,1.5580139E2,1.8403262E2,8.100299E1,3.6056374E1,4.4850723E1,7.3123764E1,5.585846E1,1.4707367E1,1.4726941E1,5.6619232E1,1.4682602E1,9.051091E1,3.1267653E1,1.9508186E1,1.4501678E1,3.784735E1,5.143471E0,1.0876556E1,8.09363E0,5.8558865E0,4.7994728E1,3.6156506E1,8.174049E0,1.6985336E1,2.3410408E1,2.8324707E1,1.9411896E1,5.109256E1,1.793422E1,2.4944271E1,0E0,0E0,0E0,0E0,0E0,0E0,0E0,0E0,0E0,0E0,0E0,0E0,0E0,0E0,0E0,0E0,0E0,0E0,0E0,0E0,0E0,0E0,0E0,0E0,0E0,0E0,0E0,0E0,0E0,0E0,0E0,0E0],"parents":[2147483647,0,0,1,1,2,2,3,3,4,4,5,5,6,6,7,7,8,8,9,9,10,10,11,11,12,12,13,13,14,14,15,15,16,16,17,17,18,18,19,19,20,20,21,21,22,22,23,23,24,24,25,25,26,26,27,27,28,28,29,29,30,30],"right_children":[2,4,6,8,10,12,14,16,18,20,22,24,26,28,30,32,34,36,38,40,42,44,46,48,50,52,54,56,58,60,62,-1,-1,-1,-1,-1,-1,-1,-1,-1,-1,-1,-1,-1,-1,-1,-1,-1,-1,-1,-1,-1,-1,-1,-1,-1,-1,-1,-1,-1,-1,-1,-1],"split_conditions":[7.3596687E0,8.14642E0,4.2484398E1,4.393689E4,2.5680123E4,3.628803E4,5.8893726E1,1.0937791E0,3.2040985E1,4.328368E1,5.1193317E1,1.9447205E4,1.766212E1,6.6864E4,4.0876367E4,6.92478E1,4.935639E1,-1.0850915E1,1.18139E0,-3.688102E-1,1.655081E4,-2.4948394E0,-6.271865E-1,2.4234482E1,1.21643095E1,3.8205444E1,4.2485943E1,1.6789574E1,2.1283318E1,1.9619914E2,2.6968077E1,-3.5103496E-2,-1.0915589E-2,-1.4928284E-2,-5.8466922E-3,-4.3393143E-2,-7.9882234E-2,-4.8446275E-2,-2.7015114E-2,9.0483455E-3,-7.4131363E-3,9.791069E-3,-7.2572543E-4,-4.6449145E-3,-2.0077622E-2,2.0000508E-2,-1.5009915E-3,1.370499E-2,4.971105E-3,1.6574098E-3,7.095118E-3,-3.5665964E-3,-1.6152265E-2,1.009894E-3,5.61266E-3,-9.419367E-4,1.309764E-3,-1.8222608E-2,-1.2905264E-3,-5.149435E-3,-2.7891097E-4,1.8278919E-3,-3.0233113E-3],"split_indices":[5,1,3,0,2,0,3,5,3,3,3,2,5,0,2,3,3,4,1,4,0,4,4,5,5,3,5,5,5,1,4,0,0,0,0,0,0,0,0,0,0,0,0,0,0,0,0,0,0,0,0,0,0,0,0,0,0,0,0,0,0,0,0],"split_type":[0,0,0,0,0,0,0,0,0,0,0,0,0,0,0,0,0,0,0,0,0,0,0,0,0,0,0,0,0,0,0,0,0,0,0,0,0,0,0,0,0,0,0,0,0,0,0,0,0,0,0,0,0,0,0,0,0,0,0,0,0,0,0],"sum_hessian":[4.8624616E5,5.0794332E4,4.3545184E5,2.1357102E4,2.9437229E4,1.0753677E5,3.2791506E5,1.9948734E4,1.4083661E3,1.3621212E4,1.5816018E4,4.440714E4,6.3129633E4,2.3429798E5,9.361707E4,1.5108446E3,1.843789E4,1.673823E2,1.2409838E3,3.3990244E3,1.02221875E4,8.348196E3,7.4678213E3,5.7349995E3,3.867214E4,6.0262305E3,5.7103402E4,2.2277767E5,1.1520318E4,4.74289E4,4.6188176E4,1.1968389E3,3.1400574E2,8.614602E3,9.823288E3,7.3334816E1,9.404747E1,3.2212067E2,9.188631E2,3.0689023E3,3.3012198E2,5.5913885E2,9.663049E3,4.948873E3,3.399323E3,8.8653076E2,6.5812905E3,4.3064844E3,1.428515E3,7.018814E3,3.1653328E4,3.4283958E3,2.597835E3,2.1359777E4,3.5743625E4,4.911368E4,1.7366398E5,2.2026353E3,9.317684E3,3.799039E4,9.438506E3,1.647577E4,2.9712404E4],"tree_param":{"num_deleted":"0","num_feature":"6","num_nodes":"63","size_leaf_vector":"1"}},{"base_weights":[-2.2063767E-5,-7.481446E-2,5.9134667E-3,-1.2284492E-1,-1.4496235E-2,2.3483532E-2,-1.0639337E-2,-1.0066314E-1,-2.751326E-1,2.0225354E-2,-4.3473616E-2,5.932962E-2,1.6936172E-2,-5.517476E-3,-3.5980903E-2,-2.2159596E-1,-7.256499E-2,-4.3347818E-1,-2.2155449E-1,1.6521606E-1,1.1526179E-2,-8.583975E-2,1.7545642E-2,-1.8423706E-1,6.700927E-2,1.8499622E-2,-7.088566E-2,-7.169176E-2,-1.3150523E-3,-1.3799302E-1,-3.2800335E-2,-3.4397032E-2,-1.735597E-2,-4.785484E-3,-1.0481905E-2,-4.478585E-2,3.06294E-2,-2.9419107E-2,-1.52753685E-2,1.3754481E-2,8.842355E-2,1.7751654E-4,1.0222345E-2,-1.4150361E-2,-4.5875222E-3,2.3231774E-3,-2.7443534E-2,-4.800967E-3,-2.8895324E-2,1.2429142E-2,6.093673E-3,1.9918887E-3,-6.1679627E-3,-2.390695E-2,-4.8852977E-3,1.7082755E-4,-1.2545682E-2,3.5404653E-4,-2.9757419E-3,-4.1685086E-3,-1.8172847E-2,7.061963E-3,-3.8450107E-3],"categories":[],"categories_nodes":[],"categories_segments":[],"categories_sizes":[],"default_left":[0,0,0,0,0,0,0,0,0,0,0,0,0,0,0,0,0,0,0,0,0,0,0,0,0,0,0,0,0,0,0,0,0,0,0,0,0,0,0,0,0,0,0,0,0,0,0,0,0,0,0,0,0,0,0,0,0,0,0,0,0,0,0],"id":12,"left_children":[1,3,5,7,9,11,13,15,17,19,21,23,25,27,29,31,33,35,37,39,41,43,45,47,49,51,53,55,57,59,61,-1,-1,-1,-1,-1,-1,-1,-1,-1,-1,-1,-1,-1,-1,-1,-1,-1,-1,-1,-1,-1,-1,-1,-1,-1,-1,-1,-1,-1,-1,-1,-1],"loss_changes":[2.1582234E2,1.03555435E2,1.3099623E2,6.719229E1,1.5944908E1,5.1278946E1,3.0102365E1,5.9009964E1,2.1362915E1,9.091476E0,2.2332508E1,6.3131523E1,2.5368507E1,5.3652233E1,1.2647072E1,1.9189758E1,1.1230553E1,6.928894E0,9.410027E0,7.9960146E0,6.0159125E0,1.1335587E1,5.8847246E0,1.470364E1,1.1371841E1,2.0657406E1,1.1963539E1,4.546405E1,2.5053322E1,4.957079E0,2.2098309E1,0E0,0E0,0E0,0E0,0E0,0E0,0E0,0E0,0E0,0E0,0E0,0E0,0E0,0E0,0E0,0E0,0E0,0E0,0E0,0E0,0E0,0E0,0E0,0E0,0E0,0E0,0E0,0E0,0E0,0E0,0E0,0E0],"parents":[2147483647,0,0,1,1,2,2,3,3,4,4,5,5,6,6,7,7,8,8,9,9,10,10,11,11,12,12,13,13,14,14,15,15,16,16,17,17,18,18,19,19,20,20,21,21,22,22,23,23,24,24,25,25,26,26,27,27,28,28,29,29,30,30],"right_children":[2,4,6,8,10,12,14,16,18,20,22,24,26,28,30,32,34,36,38,40,42,44,46,48,50,52,54,56,58,60,62,-1,-1,-1,-1,-1,-1,-1,-1,-1,-1,-1,-1,-1,-1,-1,-1,-1,-1,-1,-1,-1,-1,-1,-1,-1,-1,-1,-1,-1,-1,-1,-1],"split_conditions":[5.16375E0,1.2745014E1,-3.688102E-1,6.0370004E4,5.918898E4,3.387216E1,6.5529305E1,2.045949E0,5.9951286E0,3.7619057E1,2.6315899E1,3.241122E0,6.926601E4,6.194034E0,1.6976307E4,3.912949E1,1.1642562E0,8.2096275E1,2.41556E0,4.287586E1,3.941225E1,4.810932E1,7.060399E4,2.739001E4,2.1955278E1,5.8188377E1,2.0577724E1,2.5680123E4,4.0451584E1,5.594186E0,5.1999383E0,-3.4397032E-2,-1.735597E-2,-4.785484E-3,-1.0481905E-2,-4.478585E-2,3.06294E-2,-2.9419107E-2,-1.52753685E-2,1.3754481E-2,8.842355E-2,1.7751654E-4,1.0222345E-2,-1.4150361E-2,-4.5875222E-3,2.3231774E-3,-2.7443534E-2,-4.800967E-3,-2.8895324E-2,1.2429142E-2,6.093673E-3,1.9918887E-3,-6.1679627E-3,-2.390695E-2,-4.8852977E-3,1.7082755E-4,-1.2545682E-2,3.5404653E-4,-2.9757419E-3,-4.1685086E-3,-1.8172847E-2,7.061963E-3,-3.8450107E-3],"split_indices":[1,5,4,2,0,3,3,5,5,3,5,5,0,5,2,3,4,3,1,5,5,3,2,0,3,3,5,2,4,5,4,0,0,0,0,0,0,0,0,0,0,0,0,0,0,0,0,0,0,0,0,0,0,0,0,0,0,0,0,0,0,0,0],"split_type":[0,0,0,0,0,0,0,0,0,0,0,0,0,0,0,0,0,0,0,0,0,0,0,0,0,0,0,0,0,0,0,0,0,0,0,0,0,0,0,0,0,0,0,0,0,0,0,0,0,0,0,0,0,0,0,0,0,0,0,0,0,0,0],"sum_hessian":[4.8615822E5,3.574399E4,4.5041422E5,1.9898271E4,1.5845719E4,2.1849311E5,2.3192112E5,1.7369885E4,2.5283857E3,7.208534E3,8.637185E3,3.374342E4,1.8474969E5,1.9292889E5,3.8992227E4,3.2736023E3,1.4096282E4,6.374288E2,1.8909569E3,4.0699997E2,6.801534E3,5.0975264E3,3.539658E3,1.0307062E3,3.2712715E4,1.8151898E5,3.2307063E3,1.1519457E4,1.8140944E5,1.1776731E3,3.7814555E4,9.2104443E2,2.3525579E3,7.9829507E3,6.113332E3,6.256612E2,1.1767539E1,9.182437E2,9.727132E2,3.930643E2,1.3935672E1,6.142196E3,6.593381E2,2.1292708E3,2.9682556E3,3.4729453E3,6.671281E1,4.485878E2,5.8211835E2,3.1336455E3,2.9579068E4,1.7836252E5,3.1564707E3,3.7307007E2,2.8576362E3,4.8708047E3,6.6486523E3,1.5495695E5,2.6452486E4,3.6839642E2,8.092767E2,1.9581833E3,3.585637E4],"tree_param":{"num_deleted":"0","num_feature":"6","num_nodes":"63","size_leaf_vector":"1"}},{"base_weights":[-2.1453074E-5,-1.1723268E-1,3.1702E-3,-1.8652521E-1,-5.608753E-2,1.7954454E-2,-1.4076648E-2,6.116333E-3,-2.2019899E-1,8.977069E-2,-9.243457E-2,5.135915E-2,1.1515693E-2,-5.2533977E-2,-8.309304E-3,6.7812376E-2,-7.048279E-2,-1.4094366E-1,-3.458707E-1,-1.7531024E-1,1.24914326E-1,-1.817415E-1,-4.7381544E-3,-2.7291737E-2,6.061227E-2,-9.9609755E-3,1.8377837E-2,-4.384569E-2,-2.7251935E-1,5.029701E-2,-1.1759692E-2,-1.006449E-3,1.607286E-2,-1.5242475E-2,7.029456E-3,-2.1804785E-2,-8.032451E-3,-4.2970303E-2,-2.722956E-2,-1.4187525E-2,-1.0001283E-1,2.608845E-2,4.956306E-3,-1.010867E-2,-3.1176561E-2,-1.0084123E-2,9.2850905E-3,-6.829937E-3,9.572138E-3,1.2396111E-2,5.553102E-3,-3.0059516E-4,-1.8444864E-2,2.0752489E-3,-4.5043374E-3,-9.783143E-3,-2.2602163E-3,-3.6583375E-2,-1.4620726E-2,1.5175821E-2,2.9189303E-3,-6.8350986E-4,-3.99561E-3],"categories":[],"categories_nodes":[],"categories_segments":[],"categories_sizes":[],"default_left":[0,0,0,0,0,0,0,0,0,0,0,0,0,0,0,0,0,0,0,0,0,0,0,0,0,0,0,0,0,0,0,0,0,0,0,0,0,0,0,0,0,0,0,0,0,0,0,0,0,0,0,0,0,0,0,0,0,0,0,0,0,0,0],"id":13,"left_children":[1,3,5,7,9,11,13,15,17,19,21,23,25,27,29,31,33,35,37,39,41,43,45,47,49,51,53,55,57,59,61,-1,-1,-1,-1,-1,-1,-1,-1,-1,-1,-1,-1,-1,-1,-1,-1,-1,-1,-1,-1,-1,-1,-1,-1,-1,-1,-1,-1,-1,-1,-1,-1],"loss_changes":[1.8184334E2,5.4582916E1,1.20657684E2,3.918106E1,3.6304848E1,5.4801033E1,4.844229E1,4.25634E0,5.1157578E1,1.2749894E1,4.2927227E1,2.9966873E1,3.1482258E1,5.442701E1,3.8406948E1,3.61096E0,4.646113E0,1.4726509E1,1.214267E1,4.280151E0,1.2352566E1,2.8447487E1,2.5955807E1,2.18736E1,1.1851715E1,6.2773983E1,2.4382256E1,3.1423431E1,1.2699638E1,2.2611738E1,2.4906218E1,0E0,0E0,0E0,0E0,0E0,0E0,0E0,0E0,0E0,0E0,0E0,0E0,0E0,0E0,0E0,0E0,0E0,0E0,0E0,0E0,0E0,0E0,0E0,0E0,0E0,0E0,0E0,0E0,0E0,0E0,0E0,0E0],"parents":[2147483647,0,0,1,1,2,2,3,3,4,4,5,5,6,6,7,7,8,8,9,9,10,10,11,11,12,12,13,13,14,14,15,15,16,16,17,17,18,18,19,19,20,20,21,21,22,22,23,23,24,24,25,25,26,26,27,27,28,28,29,29,30,30],"right_children":[2,4,6,8,10,12,14,16,18,20,22,24,26,28,30,32,34,36,38,40,42,44,46,48,50,52,54,56,58,60,62,-1,-1,-1,-1,-1,-1,-1,-1,-1,-1,-1,-1,-1,-1,-1,-1,-1,-1,-1,-1,-1,-1,-1,-1,-1,-1,-1,-1,-1,-1,-1,-1],"split_conditions":[3.241122E0,4.9142605E1,1.739654E0,2.579835E4,1.7671505E-1,3.504872E1,1.1009929E1,4.275378E1,-1.6236328E0,1.88328E0,6.304417E1,1.043597E1,1.3720838E1,6.037179E4,4.6137054E1,3.8394184E1,-2.333156E-1,3.2443573E1,4.1792053E1,6.3263474E1,2.045949E0,2.797602E4,2.045949E0,2.3982172E1,1.9447205E4,5.94048E4,5.6861862E1,8.14642E0,6.165202E1,2.789693E4,6.6804985E1,-1.006449E-3,1.607286E-2,-1.5242475E-2,7.029456E-3,-2.1804785E-2,-8.032451E-3,-4.2970303E-2,-2.722956E-2,-1.4187525E-2,-1.0001283E-1,2.608845E-2,4.956306E-3,-1.010867E-2,-3.1176561E-2,-1.0084123E-2,9.2850905E-3,-6.829937E-3,9.572138E-3,1.2396111E-2,5.553102E-3,-3.0059516E-4,-1.8444864E-2,2.0752489E-3,-4.5043374E-3,-9.783143E-3,-2.2602163E-3,-3.6583375E-2,-1.4620726E-2,1.5175821E-2,2.9189303E-3,-6.8350986E-4,-3.99561E-3],"split_indices":[5,3,4,0,4,3,5,3,4,1,3,1,5,0,3,3,4,3,3,3,5,0,5,5,2,0,3,1,3,0,3,0,0,0,0,0,0,0,0,0,0,0,0,0,0,0,0,0,0,0,0,0,0,0,0,0,0,0,0,0,0,0,0],"split_type":[0,0,0,0,0,0,0,0,0,0,0,0,0,0,0,0,0,0,0,0,0,0,0,0,0,0,0,0,0,0,0,0,0,0,0,0,0,0,0,0,0,0,0,0,0,0,0,0,0,0,0,0,0,0,0,0,0,0,0,0,0,0,0],"sum_hessian":[4.860834E5,1.2884206E4,4.7319922E5,6.038756E3,6.84545E3,2.5478967E5,2.1840955E5,8.98637E2,5.140119E3,1.3652648E3,5.4801855E3,4.117326E4,2.136164E5,2.8481754E4,1.8992778E5,4.978019E2,4.0083514E2,3.1534841E3,1.9866349E3,1.5934807E2,1.2059167E3,2.71463E3,2.7655557E3,4.3338525E3,3.6839406E4,5.172635E4,1.6189006E5,2.7400764E4,1.0809893E3,1.0559338E4,1.7936845E5,2.7130328E2,2.2649863E2,2.5330925E2,1.475259E2,1.3868682E3,1.766616E3,9.263269E2,1.060308E3,1.542667E2,5.081377E0,4.2911795E2,7.767987E2,1.6764774E3,1.0381523E3,1.3933695E3,1.372186E3,3.2506582E3,1.0831941E3,2.7337566E3,3.4105652E4,4.9744566E4,1.9817859E3,1.560479E5,5.8421577E3,7.7365156E3,1.9664248E4,6.2061035E2,4.6037888E2,1.8173679E3,8.74197E3,1.5270012E5,2.6668328E4],"tree_param":{"num_deleted":"0","num_feature":"6","num_nodes":"63","size_leaf_vector":"1"}},{"base_weights":[-2.1271233E-5,-6.452502E-2,4.7954395E-3,-9.179699E-2,5.2233096E-3,1.7945977E-2,-1.0195647E-2,-2.694259E-1,-8.202065E-2,1.42873395E-2,-8.618511E-2,4.7365077E-2,1.3126988E-2,-2.4029377E-1,-9.503063E-3,-3.256353E-1,-7.786255E-2,-5.7146028E-2,-1.6703929E-1,8.095091E-2,2.9910682E-3,-7.327001E-2,-9.2022383E-1,-1.7223795E-1,5.3634256E-2,1.4411638E-2,-6.199526E-2,-4.4679064E-1,-1.0289482E-1,5.0090596E-2,-1.1767139E-2,-2.5018666E-2,-4.5451023E-2,4.5860736E-3,-2.8278459E-2,-9.999195E-3,-2.7872282E-3,-2.7125657E-2,-1.23364525E-2,1.937635E-2,3.109902E-3,-2.7639976E-2,6.367283E-4,-2.2883078E-2,-3.4071428E-3,-2.496634E-2,-1.1650336E-1,-4.0416876E-3,-2.7042536E-2,7.831708E-3,4.1410197E-3,-7.8348204E-4,1.8553799E-3,-1.9440372E-2,-4.3752315E-3,-6.409722E-2,-3.8323388E-2,1.6748762E-3,-3.46458E-2,-7.184017E-4,1.0774208E-2,-9.211679E-4,-4.2478074E-3],"categories":[],"categories_nodes":[],"categories_segments":[],"categories_sizes":[],"default_left":[0,0,0,0,0,0,0,0,0,0,0,0,0,0,0,0,0,0,0,0,0,0,0,0,0,0,0,0,0,0,0,0,0,0,0,0,0,0,0,0,0,0,0,0,0,0,0,0,0,0,0,0,0,0,0,0,0,0,0,0,0,0,0],"id":14,"left_children":[1,3,5,7,9,11,13,15,17,19,21,23,25,27,29,31,33,35,37,39,41,43,45,47,49,51,53,55,57,59,61,-1,-1,-1,-1,-1,-1,-1,-1,-1,-1,-1,-1,-1,-1,-1,-1,-1,-1,-1,-1,-1,-1,-1,-1,-1,-1,-1,-1,-1,-1,-1,-1],"loss_changes":[1.5100104E2,6.423726E1,8.9154945E1,4.2137405E1,7.8669443E0,3.415309E1,3.367594E1,1.36070175E1,4.865753E1,6.5045967E0,9.159586E0,4.6690536E1,1.9977821E1,1.794632E1,2.8428934E1,9.400856E0,7.3282046E0,2.2329475E1,2.3673569E1,7.0328436E0,6.9701715E0,5.1425076E0,1.8392134E0,1.2173138E1,9.943718E0,1.875444E1,8.398897E0,2.8775787E0,1.1139936E1,2.5465609E1,1.5930145E1,0E0,0E0,0E0,0E0,0E0,0E0,0E0,0E0,0E0,0E0,0E0,0E0,0E0,0E0,0E0,0E0,0E0,0E0,0E0,0E0,0E0,0E0,0E0,0E0,0E0,0E0,0E0,0E0,0E0,0E0,0E0,0E0],"parents":[2147483647,0,0,1,1,2,2,3,3,4,4,5,5,6,6,7,7,8,8,9,9,10,10,11,11,12,12,13,13,14,14,15,15,16,16,17,17,18,18,19,19,20,20,21,21,22,22,23,23,24,24,25,25,26,26,27,27,28,28,29,29,30,30],"right_children":[2,4,6,8,10,12,14,16,18,20,22,24,26,28,30,32,34,36,38,40,42,44,46,48,50,52,54,56,58,60,62,-1,-1,-1,-1,-1,-1,-1,-1,-1,-1,-1,-1,-1,-1,-1,-1,-1,-1,-1,-1,-1,-1,-1,-1,-1,-1,-1,-1,-1,-1,-1,-1],"split_conditions":[4.98869E0,1.965948E1,1.4494574E0,1.0937791E0,2.8462751E1,3.387216E1,2.045949E0,6.8331985E1,5.9695E4,4.2659695E4,7.060399E4,2.974866E0,6.926895E4,6.583239E1,4.4804207E1,5.5657618E-2,2.6163247E0,4.587334E0,9.094823E0,3.50318E0,4.2993203E4,3.0922535E1,2.6315899E1,2.726654E4,2.939053E4,1.0056185E1,2.0116022E1,6.35183E0,4.101522E0,5.785536E0,7.092758E1,-2.5018666E-2,-4.5451023E-2,4.5860736E-3,-2.8278459E-2,-9.999195E-3,-2.7872282E-3,-2.7125657E-2,-1.23364525E-2,1.937635E-2,3.109902E-3,-2.7639976E-2,6.367283E-4,-2.2883078E-2,-3.4071428E-3,-2.496634E-2,-1.1650336E-1,-4.0416876E-3,-2.7042536E-2,7.831708E-3,4.1410197E-3,-7.8348204E-4,1.8553799E-3,-1.9440372E-2,-4.3752315E-3,-6.409722E-2,-3.8323388E-2,1.6748762E-3,-3.46458E-2,-7.184017E-4,1.0774208E-2,-9.211679E-4,-4.2478074E-3],"split_indices":[1,5,4,5,4,3,5,3,2,2,2,5,2,3,3,4,4,5,5,1,2,4,5,0,0,5,5,1,4,4,3,0,0,0,0,0,0,0,0,0,0,0,0,0,0,0,0,0,0,0,0,0,0,0,0,0,0,0,0,0,0,0,0],"split_type":[0,0,0,0,0,0,0,0,0,0,0,0,0,0,0,0,0,0,0,0,0,0,0,0,0,0,0,0,0,0,0,0,0,0,0,0,0,0,0,0,0,0,0,0,0,0,0,0,0,0,0,0,0,0,0,0,0,0,0,0,0,0,0],"sum_hessian":[4.860071E5,3.376919E4,4.522379E5,2.4276598E4,9.492592E3,2.4090772E5,2.1133019E5,1.2650474E3,2.301155E4,8.636994E3,8.5559784E2,3.3906363E4,2.0700136E5,6.331465E2,2.1069703E5,9.7751917E2,2.875282E2,1.7804121E4,5.207429E3,1.2505948E3,7.386399E3,8.436222E2,1.1975654E1,9.403509E2,3.2966016E4,2.0352178E5,3.4795757E3,2.520655E2,3.81081E2,7.7110215E3,2.0298602E5,6.18415E2,3.591042E2,1.7976804E2,1.07760155E2,7.2258047E3,1.0578316E4,1.5362943E3,3.671135E3,3.823859E2,8.682089E2,8.722744E1,7.2991714E3,1.6881943E2,6.7480273E2,3.743E0,8.232654E0,4.0202527E2,5.383256E2,1.0917002E4,2.2049012E4,3.1946207E4,1.7157558E5,4.2018564E2,3.05939E3,5.991756E1,1.9214795E2,2.5617395E2,1.24907036E2,3.868593E3,3.8424285E3,1.8739422E5,1.5591793E4],"tree_param":{"num_deleted":"0","num_feature":"6","num_nodes":"63","size_leaf_vector":"1"}},{"base_weights":[-2.1192136E-5,-4.6890136E-2,5.6553106E-3,-1.5972387E-2,-1.0671341E-1,3.2809895E-2,-2.3265164E-3,-4.364171E-2,1.9066209E-2,-1.5839085E-1,-5.4556962E-2,4.0233E-2,-1.0029829E-2,3.3766928E-3,-2.1745987E-2,-8.141517E-2,2.1667821E-2,9.126783E-2,7.0278775E-3,-8.331851E-2,-2.3836005E-1,1.398772E-1,-9.304886E-2,4.3507908E-2,-1.83482E-2,1.5625989E-2,-6.903045E-2,8.213849E-3,-1.6033664E-2,-3.674275E-2,-6.5012304E-3,-3.950349E-3,-1.5355616E-2,-3.4067057E-2,2.9047837E-3,9.419788E-3,-8.333365E-2,8.637708E-4,-3.2376964E-2,-5.3704293E-3,-2.8726637E-2,-2.07092E-2,-4.3616146E-2,2.602506E-2,1.01705855E-2,-1.8892076E-2,-5.2931868E-3,2.0894445E-3,5.3328653E-3,1.8071342E-2,-4.7262064E-3,7.3278346E-3,-4.7979844E-4,-1.2595673E-2,-1.7570195E-3,-6.88324E-4,1.1785048E-3,-1.2365599E-2,-5.1183364E-4,-4.7574798E-3,6.517356E-4,1.5190316E-3,-2.0772887E-3],"categories":[],"categories_nodes":[],"categories_segments":[],"categories_sizes":[],"default_left":[0,0,0,0,0,0,0,0,0,0,0,0,0,0,0,0,0,0,0,0,0,0,0,0,0,0,0,0,0,0,0,0,0,0,0,0,0,0,0,0,0,0,0,0,0,0,0,0,0,0,0,0,0,0,0,0,0,0,0,0,0,0,0],"id":15,"left_children":[1,3,5,7,9,11,13,15,17,19,21,23,25,27,29,31,33,35,37,39,41,43,45,47,49,51,53,55,57,59,61,-1,-1,-1,-1,-1,-1,-1,-1,-1,-1,-1,-1,-1,-1,-1,-1,-1,-1,-1,-1,-1,-1,-1,-1,-1,-1,-1,-1,-1,-1,-1,-1],"loss_changes":[1.292864E2,9.709637E1,9.394697E1,3.355597E1,4.8201843E1,3.1312653E1,3.7100643E1,4.7711647E1,1.3274008E1,5.3916153E1,6.664931E1,1.6101334E1,2.2014482E1,2.4312119E1,1.7385612E1,3.704146E1,1.8962317E1,5.991003E0,6.974147E0,2.7981739E1,2.6811676E1,6.7360134E0,2.857763E1,1.7649979E1,2.5586245E1,1.1935659E1,1.2909197E1,1.11757E1,6.0681618E1,1.7963795E1,1.1675148E1,0E0,0E0,0E0,0E0,0E0,0E0,0E0,0E0,0E0,0E0,0E0,0E0,0E0,0E0,0E0,0E0,0E0,0E0,0E0,0E0,0E0,0E0,0E0,0E0,0E0,0E0,0E0,0E0,0E0,0E0,0E0,0E0],"parents":[2147483647,0,0,1,1,2,2,3,3,4,4,5,5,6,6,7,7,8,8,9,9,10,10,11,11,12,12,13,13,14,14,15,15,16,16,17,17,18,18,19,19,20,20,21,21,22,22,23,23,24,24,25,25,26,26,27,27,28,28,29,29,30,30],"right_children":[2,4,6,8,10,12,14,16,18,20,22,24,26,28,30,32,34,36,38,40,42,44,46,48,50,52,54,56,58,60,62,-1,-1,-1,-1,-1,-1,-1,-1,-1,-1,-1,-1,-1,-1,-1,-1,-1,-1,-1,-1,-1,-1,-1,-1,-1,-1,-1,-1,-1,-1,-1,-1],"split_conditions":[7.557529E0,2.9018666E4,4.1792053E1,2.459055E1,5.0280064E1,6.083015E4,6.0439335E1,5.47666E1,-2.9638622E0,-3.2917383E0,5.5657618E-2,1.1587099E2,-2.2350319E1,5.768495E4,4.0876367E4,-7.808966E-1,1.18139E0,5.751365E1,1.1473397E1,4.366808E4,3.8802688E4,-2.8040233E0,5.7645615E1,2.267759E1,2.6433762E1,1.28224E1,2.662013E1,1.4521901E1,1.8762445E1,2.1085928E2,3.979384E1,-3.950349E-3,-1.5355616E-2,-3.4067057E-2,2.9047837E-3,9.419788E-3,-8.333365E-2,8.637708E-4,-3.2376964E-2,-5.3704293E-3,-2.8726637E-2,-2.07092E-2,-4.3616146E-2,2.602506E-2,1.01705855E-2,-1.8892076E-2,-5.2931868E-3,2.0894445E-3,5.3328653E-3,1.8071342E-2,-4.7262064E-3,7.3278346E-3,-4.7979844E-4,-1.2595673E-2,-1.7570195E-3,-6.88324E-4,1.1785048E-3,-1.2365599E-2,-5.1183364E-4,-4.7574798E-3,6.517356E-4,1.5190316E-3,-2.0772887E-3],"split_indices":[5,2,3,1,3,0,3,3,4,4,4,5,4,0,2,4,1,3,4,0,2,4,3,1,3,1,5,5,5,1,5,0,0,0,0,0,0,0,0,0,0,0,0,0,0,0,0,0,0,0,0,0,0,0,0,0,0,0,0,0,0,0,0],"split_type":[0,0,0,0,0,0,0,0,0,0,0,0,0,0,0,0,0,0,0,0,0,0,0,0,0,0,0,0,0,0,0,0,0,0,0,0,0,0,0,0,0,0,0,0,0,0,0,0,0,0,0,0,0,0,0,0,0,0,0,0,0,0,0],"sum_hessian":[4.8594266E5,5.249577E4,4.3344688E5,3.4609973E4,1.7885795E4,9.846405E4,3.3498284E5,1.9338488E4,1.5271486E4,8.983129E3,8.902666E3,8.392236E4,1.454169E4,2.5893756E5,7.604527E4,1.2251986E4,7.086501E3,2.181435E3,1.3090051E4,4.6344795E3,4.3486494E3,1.4707637E3,7.4319023E3,7.947942E4,4.4429375E3,1.0135226E4,4.406465E3,2.0728236E5,5.1655207E4,3.833373E4,3.7711547E4,7.7506475E3,4.501339E3,1.4055345E2,6.9459473E3,2.1754395E3,5.995785E0,1.3027626E4,6.242522E1,4.0479597E3,5.865199E2,3.756825E3,5.9182446E2,3.527013E2,1.1180624E3,2.191332E3,5.24057E3,2.4066498E4,5.541292E4,5.6282666E2,3.8801106E3,2.650595E3,7.484631E3,2.0914338E3,2.315031E3,3.9652438E4,1.6762992E5,4.7556265E3,4.689958E4,3.0657256E4,7.6764736E3,1.4965443E4,2.2746104E4],"tree_param":{"num_deleted":"0","num_feature":"6","num_nodes":"63","size_leaf_vector":"1"}},{"base_weights":[-2.0617388E-5,-1.0842773E-1,2.04558E-3,-1.810405E-1,-5.6861293E-2,1.3023235E-2,-1.08233E-2,-1.0173371E-1,-3.020084E-1,-2.055749E-1,-2.0425996E-2,5.2729283E-2,9.762415E-3,-4.9285363E-2,-6.8075834E-3,-1.6745208E-1,4.472118E-3,-2.6478484E-1,-5.2377164E-1,-8.282231E-2,-3.1698403E-1,5.9492547E-2,-1.01308994E-1,-2.878531E-1,5.560377E-2,-8.220008E-3,1.5645303E-2,-8.001029E-2,5.2101915E-3,5.0477616E-2,-9.1082165E-3,-1.8998232E-2,2.1809233E-2,-3.090466E-4,1.2571175E-1,-4.3467097E-2,-2.285078E-2,-8.456033E-2,-4.157231E-2,-9.606898E-3,6.2809065E-2,-8.058007E-2,-2.7974015E-2,2.657622E-3,2.3811597E-2,-2.4459176E-2,-1.1043715E-3,1.51013555E-2,-4.5912024E-2,9.697544E-3,4.730883E-3,3.3870817E-3,-3.2968693E-3,1.7588836E-3,-4.201296E-3,-1.6848123E-2,-4.2176186E-3,2.3443827E-2,-1.2772721E-4,-1.0190557E-4,9.464595E-3,-4.672047E-4,-2.7505036E-3],"categories":[],"categories_nodes":[],"categories_segments":[],"categories_sizes":[],"default_left":[0,0,0,0,0,0,0,0,0,0,0,0,0,0,0,0,0,0,0,0,0,0,0,0,0,0,0,0,0,0,0,0,0,0,0,0,0,0,0,0,0,0,0,0,0,0,0,0,0,0,0,0,0,0,0,0,0,0,0,0,0,0,0],"id":16,"left_children":[1,3,5,7,9,11,13,15,17,19,21,23,25,27,29,31,33,35,37,39,41,43,45,47,49,51,53,55,57,59,61,-1,-1,-1,-1,-1,-1,-1,-1,-1,-1,-1,-1,-1,-1,-1,-1,-1,-1,-1,-1,-1,-1,-1,-1,-1,-1,-1,-1,-1,-1,-1,-1],"loss_changes":[1.0883082E2,3.4016174E1,6.735564E1,3.6167114E1,2.8795828E1,3.331316E1,3.389998E1,1.5918022E1,1.2190842E1,1.4276737E1,2.7609718E1,1.9132545E1,2.5153887E1,3.474266E1,2.6192616E1,1.2278942E1,8.271243E0,7.795212E0,7.077862E0,4.7591E0,9.749527E0,1.2626673E1,2.7451586E1,1.2364982E1,6.6406746E0,6.1057632E1,2.0077774E1,4.44058E1,1.1126582E1,1.745368E1,1.5593016E1,0E0,0E0,0E0,0E0,0E0,0E0,0E0,0E0,0E0,0E0,0E0,0E0,0E0,0E0,0E0,0E0,0E0,0E0,0E0,0E0,0E0,0E0,0E0,0E0,0E0,0E0,0E0,0E0,0E0,0E0,0E0,0E0],"parents":[2147483647,0,0,1,1,2,2,3,3,4,4,5,5,6,6,7,7,8,8,9,9,10,10,11,11,12,12,13,13,14,14,15,15,16,16,17,17,18,18,19,19,20,20,21,21,22,22,23,23,24,24,25,25,26,26,27,27,28,28,29,29,30,30],"right_children":[2,4,6,8,10,12,14,16,18,20,22,24,26,28,30,32,34,36,38,40,42,44,46,48,50,52,54,56,58,60,62,-1,-1,-1,-1,-1,-1,-1,-1,-1,-1,-1,-1,-1,-1,-1,-1,-1,-1,-1,-1,-1,-1,-1,-1,-1,-1,-1,-1,-1,-1,-1,-1],"split_conditions":[2.6961615E0,4.6491096E1,1.739654E0,-1.6236328E0,2.16194E0,3.0656761E1,6.67521E0,3.531694E1,5.838769E-1,2.739001E4,1.5936596E0,2.41556E0,1.3720838E1,2.1759104E1,4.505045E1,2.770954E1,8.794037E1,3.1606867E1,4.0135788E1,2.717046E4,2.809504E4,6.34791E1,6.444414E1,4.05814E4,2.1955278E1,2.302828E4,5.6861862E1,5.405835E1,2.4662843E0,5.785536E0,6.5529305E1,-1.8998232E-2,2.1809233E-2,-3.090466E-4,1.2571175E-1,-4.3467097E-2,-2.285078E-2,-8.456033E-2,-4.157231E-2,-9.606898E-3,6.2809065E-2,-8.058007E-2,-2.7974015E-2,2.657622E-3,2.3811597E-2,-2.4459176E-2,-1.1043715E-3,1.51013555E-2,-4.5912024E-2,9.697544E-3,4.730883E-3,3.3870817E-3,-3.2968693E-3,1.7588836E-3,-4.201296E-3,-1.6848123E-2,-4.2176186E-3,2.3443827E-2,-1.2772721E-4,-1.0190557E-4,9.464595E-3,-4.672047E-4,-2.7505036E-3],"split_indices":[5,3,4,4,1,3,1,3,4,0,4,1,5,5,3,1,1,3,3,0,0,3,3,0,3,0,3,3,4,4,3,0,0,0,0,0,0,0,0,0,0,0,0,0,0,0,0,0,0,0,0,0,0,0,0,0,0,0,0,0,0,0,0],"split_type":[0,0,0,0,0,0,0,0,0,0,0,0,0,0,0,0,0,0,0,0,0,0,0,0,0,0,0,0,0,0,0,0,0,0,0,0,0,0,0,0,0,0,0,0,0,0,0,0,0,0,0,0,0,0,0,0,0,0,0,0,0,0,0],"sum_hessian":[4.858705E5,9.086338E3,4.7678416E5,3.7721345E3,5.3142036E3,2.5729852E5,2.1948564E5,2.2795186E3,1.4926161E3,1.0448641E3,4.2693394E3,1.952562E4,2.3777289E5,2.0748422E4,1.9873722E5,1.4078116E3,8.7170685E2,1.2799646E3,2.1265149E2,4.9795346E2,5.4691064E2,2.1476062E3,2.1217334E3,1.6258554E2,1.9363033E4,5.8611805E4,1.791611E5,1.3267601E4,7.480821E3,7.672516E3,1.910647E5,1.3305641E3,7.724752E1,8.674672E2,4.2396183E0,2.2329366E2,1.056671E3,5.1733322E1,1.6091817E2,4.896937E2,8.259758E0,3.725906E1,5.096516E2,1.8144011E3,3.3320502E2,8.193797E2,1.3023538E3,4.5671642E1,1.169139E2,3.2320803E3,1.6130953E4,2.1702072E4,3.6909734E4,1.7331956E5,5.8415264E3,3.9732153E3,9.294386E3,2.0492328E2,7.2758975E3,3.5428352E3,4.1296807E3,1.5394419E5,3.7120516E4],"tree_param":{"num_deleted":"0","num_feature":"6","num_nodes":"63","size_leaf_vector":"1"}},{"base_weights":[-1.9859293E-5,-5.4035544E-2,3.4984278E-3,-4.888377E-2,-3.740424E-1,3.0599019E-2,-1.685709E-3,-7.190453E-2,1.5020271E-2,-4.798099E-1,-2.2137304E-1,4.27656E-2,1.2528727E-2,1.7554499E-3,-2.3765258E-2,-4.898136E-2,-1.818887E-1,-1.5270023E-1,3.3935893E-2,-1.4380112E-1,-5.3779113E-1,-5.229119E-1,-8.052155E-2,4.894423E-2,-2.1473898E-3,-1.3747986E-1,2.1332027E-2,2.0757902E-2,-3.055403E-3,-3.4899283E-2,4.693399E-3,-8.070351E-3,1.6381243E-3,-2.6734242E-2,-1.2906717E-2,-3.3113513E-2,-1.0794937E-2,6.9862106E-3,-5.2785375E-3,-6.0528934E-2,1.9838594E-2,-6.413885E-2,-3.9623152E-2,-6.534688E-2,3.6891162E-2,-1.9314218E-2,2.327746E-2,1.368955E-3,5.861157E-3,5.0808406E-3,-3.8081647E-3,-1.3124341E-2,-9.905308E-2,-1.2994652E-3,3.3345707E-3,4.020259E-3,-5.3359446E-4,-2.8136172E-3,3.8681572E-4,-1.03226565E-2,-3.1501357E-3,-1.1449424E-3,5.998494E-3],"categories":[],"categories_nodes":[],"categories_segments":[],"categories_sizes":[],"default_left":[0,0,0,0,0,0,0,0,0,0,0,0,0,0,0,0,0,0,0,0,0,0,0,0,0,0,0,0,0,0,0,0,0,0,0,0,0,0,0,0,0,0,0,0,0,0,0,0,0,0,0,0,0,0,0,0,0,0,0,0,0,0,0],"id":17,"left_children":[1,3,5,7,9,11,13,15,17,19,21,23,25,27,29,31,33,35,37,39,41,43,45,47,49,51,53,55,57,59,61,-1,-1,-1,-1,-1,-1,-1,-1,-1,-1,-1,-1,-1,-1,-1,-1,-1,-1,-1,-1,-1,-1,-1,-1,-1,-1,-1,-1,-1,-1,-1,-1],"loss_changes":[9.2325E1,4.8958603E1,6.407952E1,4.301451E1,7.491829E0,1.6101364E1,2.908988E1,5.4184845E1,2.457406E1,5.321415E0,8.21575E0,1.2146065E1,3.8921555E1,3.0281528E1,1.635799E1,3.68864E1,1.6698303E1,6.2330685E0,2.1688568E1,6.7755647E0,3.2063522E0,7.4275856E0,4.76265E0,1.3112556E1,1.0076143E1,8.561735E0,1.1480654E1,3.395393E1,4.5899483E1,8.612007E0,1.2959369E1,0E0,0E0,0E0,0E0,0E0,0E0,0E0,0E0,0E0,0E0,0E0,0E0,0E0,0E0,0E0,0E0,0E0,0E0,0E0,0E0,0E0,0E0,0E0,0E0,0E0,0E0,0E0,0E0,0E0,0E0,0E0,0E0],"parents":[2147483647,0,0,1,1,2,2,3,3,4,4,5,5,6,6,7,7,8,8,9,9,10,10,11,11,12,12,13,13,14,14,15,15,16,16,17,17,18,18,19,19,20,20,21,21,22,22,23,23,24,24,25,25,26,26,27,27,28,28,29,29,30,30],"right_children":[2,4,6,8,10,12,14,16,18,20,22,24,26,28,30,32,34,36,38,40,42,44,46,48,50,52,54,56,58,60,62,-1,-1,-1,-1,-1,-1,-1,-1,-1,-1,-1,-1,-1,-1,-1,-1,-1,-1,-1,-1,-1,-1,-1,-1,-1,-1,-1,-1,-1,-1,-1,-1],"split_conditions":[5.1941113E0,6.4277316E4,3.912949E1,5.9191956E1,5.4647682E1,4.309813E4,6.34791E1,1.4494574E0,2.16194E0,-8.8747425E0,2.6961615E0,2.745498E2,1.471771E1,2.4546158E4,5.0760508E4,4.7769157E1,5.255885E1,6.165202E1,5.588392E0,6.520002E4,6.660401E4,8.2096275E1,4.08138E0,1.1393238E1,2.8895906E1,5.9204773E1,3.6510567E1,5.232826E1,1.8762445E1,1.7945861E4,6.327395E1,-8.070351E-3,1.6381243E-3,-2.6734242E-2,-1.2906717E-2,-3.3113513E-2,-1.0794937E-2,6.9862106E-3,-5.2785375E-3,-6.0528934E-2,1.9838594E-2,-6.413885E-2,-3.9623152E-2,-6.534688E-2,3.6891162E-2,-1.9314218E-2,2.327746E-2,1.368955E-3,5.861157E-3,5.0808406E-3,-3.8081647E-3,-1.3124341E-2,-9.905308E-2,-1.2994652E-3,3.3345707E-3,4.020259E-3,-5.3359446E-4,-2.8136172E-3,3.8681572E-4,-1.03226565E-2,-3.1501357E-3,-1.1449424E-3,5.998494E-3],"split_indices":[5,2,3,3,3,0,3,4,1,4,5,1,5,2,2,3,3,3,4,0,0,3,1,5,3,1,5,3,5,2,1,0,0,0,0,0,0,0,0,0,0,0,0,0,0,0,0,0,0,0,0,0,0,0,0,0,0,0,0,0,0,0,0],"split_type":[0,0,0,0,0,0,0,0,0,0,0,0,0,0,0,0,0,0,0,0,0,0,0,0,0,0,0,0,0,0,0,0,0,0,0,0,0,0,0,0,0,0,0,0,0,0,0,0,0,0,0,0,0,0,0,0,0,0,0,0,0,0,0],"sum_hessian":[4.858099E5,2.9707113E4,4.561028E5,2.9237572E4,4.6954132E2,7.323816E4,3.8286466E5,2.1494338E4,7.7432354E3,2.7611166E2,1.9342966E2,4.376809E4,2.9470064E4,3.3124078E5,5.162387E4,1.77883E4,3.7060361E3,7.840622E2,6.959173E3,4.1145905E1,2.3496576E2,6.072193E1,1.3270773E2,3.847503E4,5.2930586E3,1.632782E3,2.7837283E4,6.691783E4,2.6432294E5,3.710634E4,1.451753E4,1.197587E4,5.812431E3,1.4141648E3,2.2918713E3,1.5592877E2,6.281334E2,4.920812E3,2.0383612E3,1.7191637E1,2.3954268E1,1.3363617E2,1.0132959E2,5.320094E1,7.5209904E0,9.7899345E1,3.4808384E1,8.28045E3,3.0194582E4,2.1395786E3,3.1534797E3,1.6220771E3,1.0704761E1,7.21676E3,2.0620523E4,3.8344E4,2.857383E4,5.718085E4,2.071421E5,1.7564939E3,3.5349848E4,1.1237455E4,3.280075E3],"tree_param":{"num_deleted":"0","num_feature":"6","num_nodes":"63","size_leaf_vector":"1"}},{"base_weights":[-1.9507488E-5,-1.05474696E-1,1.5635842E-3,-5.4385252E-2,-1.6054623E-1,2.6934387E-2,-2.2475126E-3,-1.4267601E-1,-1.740888E-3,-1.4286456E-1,-3.7982216E-1,-1.9967962E-2,3.4226E-2,-3.4742728E-2,1.6117946E-4,-6.0897775E-2,-3.880183E-1,9.918388E-1,-6.583675E-3,-1.9671181E-1,5.1565096E-2,-2.2631475E-1,-4.658701E-1,9.6328305E-3,-1.934371E-1,1.3349006E-1,3.2197766E-2,-7.34802E-2,-1.3259894E-2,3.908634E-3,-1.7115872E-2,1.30685335E-2,-1.2299308E-2,-4.6007816E-2,-1.7480657E-2,2.5189644E-2,1.21830024E-1,-3.0105968E-3,1.518133E-2,-2.23055E-2,-7.152566E-3,-3.8187788E-3,2.8661055E-2,-4.8626084E-2,8.303131E-3,-5.0884217E-2,1.4431432E-2,9.355504E-3,-2.5154382E-3,-1.5536864E-2,-3.6960173E-2,3.405797E-2,1.1375762E-2,6.2286225E-4,3.8032015E-3,-1.5071689E-4,-1.0811812E-2,3.7823599E-3,-4.575952E-3,4.8937014E-4,-6.5890886E-3,8.856774E-3,-2.4911668E-3],"categories":[],"categories_nodes":[],"categories_segments":[],"categories_sizes":[],"default_left":[0,0,0,0,0,0,0,0,0,0,0,0,0,0,0,0,0,0,0,0,0,0,0,0,0,0,0,0,0,0,0,0,0,0,0,0,0,0,0,0,0,0,0,0,0,0,0,0,0,0,0,0,0,0,0,0,0,0,0,0,0,0,0],"id":18,"left_children":[1,3,5,7,9,11,13,15,17,19,21,23,25,27,29,31,33,35,37,39,41,43,45,47,49,51,53,55,57,59,61,-1,-1,-1,-1,-1,-1,-1,-1,-1,-1,-1,-1,-1,-1,-1,-1,-1,-1,-1,-1,-1,-1,-1,-1,-1,-1,-1,-1,-1,-1,-1,-1],"loss_changes":[8.109427E1,2.0204765E1,4.627322E1,1.7329353E1,1.3348656E1,2.1375378E1,3.256622E1,2.7918562E1,1.1250089E1,3.3518173E1,3.2938805E0,4.3184856E1,1.0885975E1,2.3893463E1,2.5079584E1,1.2456171E1,5.2658653E0,1.5934553E0,8.672315E0,8.25032E0,1.4671344E1,7.6300955E0,4.3727264E0,2.097812E1,8.163967E0,4.3859367E0,8.031284E0,2.5534779E1,3.0667215E1,2.1886824E1,5.6886555E1,0E0,0E0,0E0,0E0,0E0,0E0,0E0,0E0,0E0,0E0,0E0,0E0,0E0,0E0,0E0,0E0,0E0,0E0,0E0,0E0,0E0,0E0,0E0,0E0,0E0,0E0,0E0,0E0,0E0,0E0,0E0,0E0],"parents":[2147483647,0,0,1,1,2,2,3,3,4,4,5,5,6,6,7,7,8,8,9,9,10,10,11,11,12,12,13,13,14,14,15,15,16,16,17,17,18,18,19,19,20,20,21,21,22,22,23,23,24,24,25,25,26,26,27,27,28,28,29,29,30,30],"right_children":[2,4,6,8,10,12,14,16,18,20,22,24,26,28,30,32,34,36,38,40,42,44,46,48,50,52,54,56,58,60,62,-1,-1,-1,-1,-1,-1,-1,-1,-1,-1,-1,-1,-1,-1,-1,-1,-1,-1,-1,-1,-1,-1,-1,-1,-1,-1,-1,-1,-1,-1,-1,-1],"split_conditions":[2.38683E0,2.7978709E4,3.7619057E1,4.5660248E1,3.719435E4,9.094823E0,5.16375E0,-7.808966E-1,-3.126091E0,2.981848E4,-1.3210557E0,3.491018E4,1.7324102E4,4.810932E1,2.6968077E1,-3.4566967E0,2.045949E0,4.7192432E1,2.698127E4,1.195244E1,6.283373E1,3.3539074E1,8.2096275E1,3.0114689E1,-4.871261E0,1.0794237E2,-7.742372E1,-9.974485E0,3.0927362E0,7.159273E1,5.130546E1,1.30685335E-2,-1.2299308E-2,-4.6007816E-2,-1.7480657E-2,2.5189644E-2,1.21830024E-1,-3.0105968E-3,1.518133E-2,-2.23055E-2,-7.152566E-3,-3.8187788E-3,2.8661055E-2,-4.8626084E-2,8.303131E-3,-5.0884217E-2,1.4431432E-2,9.355504E-3,-2.5154382E-3,-1.5536864E-2,-3.6960173E-2,3.405797E-2,1.1375762E-2,6.2286225E-4,3.8032015E-3,-1.5071689E-4,-1.0811812E-2,3.7823599E-3,-4.575952E-3,4.8937014E-4,-6.5890886E-3,8.856774E-3,-2.4911668E-3],"split_indices":[5,2,3,3,0,5,1,4,4,0,4,2,2,3,4,4,5,3,0,1,3,3,3,3,4,1,4,4,4,3,3,0,0,0,0,0,0,0,0,0,0,0,0,0,0,0,0,0,0,0,0,0,0,0,0,0,0,0,0,0,0,0,0],"split_type":[0,0,0,0,0,0,0,0,0,0,0,0,0,0,0,0,0,0,0,0,0,0,0,0,0,0,0,0,0,0,0,0,0,0,0,0,0,0,0,0,0,0,0,0,0,0,0,0,0,0,0,0,0,0,0,0,0,0,0,0,0,0,0],"sum_hessian":[4.8575172E5,7.183277E3,4.7856844E5,3.7273914E3,3.4558855E3,6.2499273E4,4.160692E5,1.3916766E3,2.3357148E3,3.199537E3,2.5634833E2,8.408828E3,5.4090445E4,2.8711691E4,3.8735747E5,1.0447017E3,3.4697495E2,1.0340685E1,2.325374E3,2.5055999E3,6.9393713E2,9.33839E1,1.6296443E2,7.183909E3,1.2249186E3,1.0817863E3,5.300866E4,1.024167E4,1.8470021E4,3.1831466E5,6.904282E4,2.5545128E2,7.8925037E2,2.5846338E2,8.851155E1,2.9181635E0,7.422522E0,2.0254067E3,2.9996735E2,2.0693586E3,4.362412E2,5.027847E2,1.9115247E2,5.0432858E1,4.295105E1,1.5239793E2,1.0566497E1,2.1047144E3,5.079195E3,1.0088025E3,2.1611613E2,9.2695755E1,9.890905E2,9.724682E3,4.3283977E4,3.3278599E3,6.9138096E3,7.1816353E3,1.1288387E4,3.1388578E5,4.4288804E3,4.742384E3,6.4300438E4],"tree_param":{"num_deleted":"0","num_feature":"6","num_nodes":"63","size_leaf_vector":"1"}},{"base_weights":[-1.8440955E-5,-8.643712E-2,1.6524959E-3,-2.8565928E-1,-7.2071545E-2,-2.7979622E-2,4.393904E-3,-2.7145612E-1,-1.0796436E0,-4.633542E-2,-1.7102152E-1,-2.2233678E-2,-1.9002214E-1,2.1526422E-2,-1.4847432E-3,-4.2352715E-1,-2.2903657E-1,-1.0924218E-2,-1.2167039E0,3.3983495E-2,-7.5128905E-2,-4.3699673E-1,-1.40141E-1,-3.7085976E-2,2.0973975E-2,-2.7245584E-1,-6.433066E-2,3.933727E-2,8.543544E-3,2.5883373E-3,-1.632677E-2,-8.786041E-2,-3.5964884E-2,-1.6207684E-2,-3.30175E-2,-1.3291855E-1,-4.6971858E-2,3.034666E-2,1.7318834E-3,-1.095711E-2,-7.0827245E-4,-4.7907423E-2,2.5209922E-2,-9.7926315E-3,-2.779126E-2,-1.4928855E-3,-1.0941195E-2,1.0402615E-2,-1.7172545E-3,-1.1740607E-2,-4.6591055E-2,3.99165E-3,-4.2509194E-2,-1.115231E-3,4.48057E-3,-5.252108E-3,2.1681515E-3,3.6312608E-4,-7.895167E-3,7.545698E-3,-2.2827683E-3],"categories":[],"categories_nodes":[],"categories_segments":[],"categories_sizes":[],"default_left":[0,0,0,0,0,0,0,0,0,0,0,0,0,0,0,0,0,0,0,0,0,0,0,0,0,0,0,0,0,0,0,0,0,0,0,0,0,0,0,0,0,0,0,0,0,0,0,0,0,0,0,0,0,0,0,0,0,0,0,0,0],"id":19,"left_children":[1,3,5,7,9,11,13,15,17,19,21,23,25,27,29,31,33,-1,35,37,39,41,43,45,47,49,51,53,55,57,59,-1,-1,-1,-1,-1,-1,-1,-1,-1,-1,-1,-1,-1,-1,-1,-1,-1,-1,-1,-1,-1,-1,-1,-1,-1,-1,-1,-1,-1,-1],"loss_changes":[7.013587E1,2.6346886E1,3.8707325E1,6.6910934E0,2.187955E1,3.756489E1,4.3926636E1,3.8365288E0,1.270031E0,1.5779898E1,1.4506657E1,2.5008518E1,1.4298054E1,2.5764278E1,1.9630438E1,3.5159054E0,3.1900845E0,0E0,1.4396095E-1,8.082649E0,1.1769508E1,5.456917E0,9.223854E0,4.6473133E1,3.1586056E1,2.4964245E1,2.0647009E1,1.2970459E1,5.1704277E1,2.1668442E1,4.1724E1,0E0,0E0,0E0,0E0,0E0,0E0,0E0,0E0,0E0,0E0,0E0,0E0,0E0,0E0,0E0,0E0,0E0,0E0,0E0,0E0,0E0,0E0,0E0,0E0,0E0,0E0,0E0,0E0,0E0,0E0],"parents":[2147483647,0,0,1,1,2,2,3,3,4,4,5,5,6,6,7,7,8,8,9,9,10,10,11,11,12,12,13,13,14,14,15,15,16,16,18,18,19,19,20,20,21,21,22,22,23,23,24,24,25,25,26,26,27,27,28,28,29,29,30,30],"right_children":[2,4,6,8,10,12,14,16,18,20,22,24,26,28,30,32,34,-1,36,38,40,42,44,46,48,50,52,54,56,58,60,-1,-1,-1,-1,-1,-1,-1,-1,-1,-1,-1,-1,-1,-1,-1,-1,-1,-1,-1,-1,-1,-1,-1,-1,-1,-1,-1,-1,-1,-1],"split_conditions":[2.41556E0,3.3539074E1,6.7777953E0,6.950976E4,6.4277316E4,3.951432E4,4.275378E1,2.1955278E1,2.1955278E1,-2.9638622E0,6.4524E4,5.8751957E1,5.4647682E1,3.628803E4,2.6968077E1,-1.388072E1,3.951572E4,-1.0924218E-2,1.5943825E1,2.630288E4,8.528818E0,2.8820236E1,6.926895E4,1.0046233E0,2.6163247E0,-3.126091E0,1.0868764E1,-5.6159626E1,2.4489079E1,7.159273E1,5.130546E1,-8.786041E-2,-3.5964884E-2,-1.6207684E-2,-3.30175E-2,-1.3291855E-1,-4.6971858E-2,3.034666E-2,1.7318834E-3,-1.095711E-2,-7.0827245E-4,-4.7907423E-2,2.5209922E-2,-9.7926315E-3,-2.779126E-2,-1.4928855E-3,-1.0941195E-2,1.0402615E-2,-1.7172545E-3,-1.1740607E-2,-4.6591055E-2,3.99165E-3,-4.2509194E-2,-1.115231E-3,4.48057E-3,-5.252108E-3,2.1681515E-3,3.6312608E-4,-7.895167E-3,7.545698E-3,-2.2827683E-3],"split_indices":[1,3,5,2,2,2,3,3,3,4,0,3,3,0,4,4,0,0,5,0,5,5,2,4,4,4,4,4,5,3,3,0,0,0,0,0,0,0,0,0,0,0,0,0,0,0,0,0,0,0,0,0,0,0,0,0,0,0,0,0,0],"split_type":[0,0,0,0,0,0,0,0,0,0,0,0,0,0,0,0,0,0,0,0,0,0,0,0,0,0,0,0,0,0,0,0,0,0,0,0,0,0,0,0,0,0,0,0,0,0,0,0,0,0,0,0,0,0,0,0,0,0,0,0,0],"sum_hessian":[4.8570297E5,9.212145E3,4.764908E5,6.1832404E2,8.59382E3,4.0348723E4,4.361421E5,6.087758E2,9.548172E0,6.8211577E3,1.7726624E3,3.8968074E4,1.3806505E3,1.1142024E5,3.2472184E5,1.3081812E2,4.7795773E2,1.4040922E0,8.144079E0,1.7999762E3,5.0211816E3,1.8303383E2,1.5896285E3,2.8999768E4,9.968305E3,8.3310077E2,5.475497E2,4.69748E4,6.4445445E4,2.547986E5,6.992326E4,1.4532497E1,1.1628562E2,2.8913528E2,1.8882245E2,6.4008374E0,1.7432425E0,1.0382466E2,1.6961515E3,3.3333608E3,1.6878209E3,1.7278786E2,1.0245977E1,1.2181005E3,3.7152814E2,2.219999E4,6.799778E3,3.1369172E3,6.8313877E3,4.6334595E2,3.6975482E2,4.2548813E2,1.2206157E2,4.5904546E3,4.2384344E4,1.1409884E4,5.3035562E4,2.5158173E5,3.216858E3,4.6242827E3,6.5298977E4],"tree_param":{"num_deleted":"0","num_feature":"6","num_nodes":"61","size_leaf_vector":"1"}},{"base_weights":[-1.8436487E-5,-6.859178E-2,1.8270223E-3,-2.5946654E-2,-1.2383098E-1,2.4442896E-2,-1.55254E-3,-5.3630255E-2,8.919106E-2,-1.11568436E-1,-3.4365827E-1,8.306716E-2,2.0963205E-2,-4.8565032E-4,-5.415187E-2,-7.641141E-2,8.590113E-3,1.7684388E-1,2.645963E-2,-1.4952087E-1,-1.5214878E-3,-3.6539742E-1,3.2917774E-1,1.05169564E-1,-1.6172054E-4,-1.904996E-2,2.8413163E-2,6.226941E-3,-7.1898727E-3,-1.1276222E-1,1.9141277E-3,-1.1647849E-2,-2.4922935E-3,3.473727E-2,-8.7040645E-4,1.4157158E-2,5.9347194E-2,-1.4421371E-2,8.819968E-3,-1.7266456E-2,-7.733285E-3,-6.0363356E-3,1.6379854E-2,-3.264861E-2,-6.34711E-2,1.2856261E-1,-2.0205189E-2,8.386681E-3,2.0917205E-2,2.3893444E-3,-5.543325E-2,-5.1159906E-4,-1.4838814E-2,3.324811E-4,3.4599043E-3,6.97771E-4,-9.1032935E-3,-3.3956543E-3,-3.5595061E-4,-2.7446011E-2,-8.837096E-3,1.7008884E-3,-1.7495977E-2],"categories":[],"categories_nodes":[],"categories_segments":[],"categories_sizes":[],"default_left":[0,0,0,0,0,0,0,0,0,0,0,0,0,0,0,0,0,0,0,0,0,0,0,0,0,0,0,0,0,0,0,0,0,0,0,0,0,0,0,0,0,0,0,0,0,0,0,0,0,0,0,0,0,0,0,0,0,0,0,0,0,0,0],"id":20,"left_children":[1,3,5,7,9,11,13,15,17,19,21,23,25,27,29,31,33,35,37,39,41,43,45,47,49,51,53,55,57,59,61,-1,-1,-1,-1,-1,-1,-1,-1,-1,-1,-1,-1,-1,-1,-1,-1,-1,-1,-1,-1,-1,-1,-1,-1,-1,-1,-1,-1,-1,-1,-1,-1],"loss_changes":[6.1459324E1,2.9978783E1,3.6146736E1,2.2902632E1,1.4908226E1,1.2540546E1,2.3089329E1,8.210491E0,7.6539726E0,2.1940186E1,4.3982964E0,6.33654E0,1.730203E1,1.8148134E1,2.6878647E1,8.743708E0,9.10315E0,8.451597E0,8.579665E0,6.5125656E0,1.3124166E1,2.7667732E0,5.17818E0,6.012686E0,9.661997E0,1.641853E1,7.5935326E0,1.4714694E1,1.9605429E1,1.5748085E1,1.1167045E1,0E0,0E0,0E0,0E0,0E0,0E0,0E0,0E0,0E0,0E0,0E0,0E0,0E0,0E0,0E0,0E0,0E0,0E0,0E0,0E0,0E0,0E0,0E0,0E0,0E0,0E0,0E0,0E0,0E0,0E0,0E0,0E0],"parents":[2147483647,0,0,1,1,2,2,3,3,4,4,5,5,6,6,7,7,8,8,9,9,10,10,11,11,12,12,13,13,14,14,15,15,16,16,17,17,18,18,19,19,20,20,21,21,22,22,23,23,24,24,25,25,26,26,27,27,28,28,29,29,30,30],"right_children":[2,4,6,8,10,12,14,16,18,20,22,24,26,28,30,32,34,36,38,40,42,44,46,48,50,52,54,56,58,60,62,-1,-1,-1,-1,-1,-1,-1,-1,-1,-1,-1,-1,-1,-1,-1,-1,-1,-1,-1,-1,-1,-1,-1,-1,-1,-1,-1,-1,-1,-1,-1,-1],"split_conditions":[3.241122E0,2.7978709E4,3.7619057E1,6.34791E1,4.159787E4,1.9179047E4,6.926895E4,2.2148277E1,2.6163247E0,3.0116E4,8.2096275E1,2.3226547E1,1.21643095E1,2.7723458E0,1.427267E1,4.8681694E1,2.9538027E1,2.4662843E0,2.6064555E4,1.043597E1,6.283373E1,7.31967E1,5.9830155E0,1.8859426E4,-9.974485E0,4.366808E4,-7.742372E1,4.2511514E2,1.1202729E1,1.2745014E1,8.906564E1,-1.1647849E-2,-2.4922935E-3,3.473727E-2,-8.7040645E-4,1.4157158E-2,5.9347194E-2,-1.4421371E-2,8.819968E-3,-1.7266456E-2,-7.733285E-3,-6.0363356E-3,1.6379854E-2,-3.264861E-2,-6.34711E-2,1.2856261E-1,-2.0205189E-2,8.386681E-3,2.0917205E-2,2.3893444E-3,-5.543325E-2,-5.1159906E-4,-1.4838814E-2,3.324811E-4,3.4599043E-3,6.97771E-4,-9.1032935E-3,-3.3956543E-3,-3.5595061E-4,-2.7446011E-2,-8.837096E-3,1.7008884E-3,-1.7495977E-2],"split_indices":[5,2,3,3,0,2,2,1,4,0,3,5,5,4,1,3,3,4,2,1,3,3,4,2,4,0,4,1,5,5,4,0,0,0,0,0,0,0,0,0,0,0,0,0,0,0,0,0,0,0,0,0,0,0,0,0,0,0,0,0,0,0,0],"split_type":[0,0,0,0,0,0,0,0,0,0,0,0,0,0,0,0,0,0,0,0,0,0,0,0,0,0,0,0,0,0,0,0,0,0,0,0,0,0,0,0,0,0,0,0,0,0,0,0,0,0,0,0,0,0,0,0,0,0,0,0,0,0,0],"sum_hessian":[4.8565325E5,1.27265205E4,4.7292675E5,7.182805E3,5.5437153E3,6.14825E4,4.1144425E5,5.7909653E3,1.39184E3,5.2522393E3,2.914763E2,3.4435896E3,5.803891E4,4.032657E5,8.178563E3,4.2387686E3,1.5521967E3,5.798346E2,8.120053E2,3.905107E3,1.3471323E3,2.8279614E2,8.680138E0,2.7207886E3,7.228011E2,9.109723E3,4.8929188E4,2.015071E5,2.0175858E5,3.9980571E3,4.180506E3,2.3830642E3,1.8557045E3,7.446115E1,1.4777355E3,5.358118E2,4.402276E1,2.1535239E2,5.9665295E2,2.9560103E3,9.4909674E2,9.9398206E2,3.5315024E2,2.4902805E2,3.3768105E1,2.5924625E0,6.0876746E0,2.2597349E3,4.6105365E2,6.9364844E2,2.9152657E1,8.224692E3,8.8502997E2,9.678243E3,3.9250945E4,1.9996447E5,1.5426384E3,2.409535E4,1.7766323E5,5.226933E2,3.4753638E3,3.8526196E3,3.2788608E2],"tree_param":{"num_deleted":"0","num_feature":"6","num_nodes":"63","size_leaf_vector":"1"}},{"base_weights":[-1.725146E-5,-7.418747E-2,1.412683E-3,-2.4902372E-1,-6.1702102E-2,-3.066011E-2,3.258323E-3,-2.356303E-1,-1.0059159E0,-3.906203E-2,-1.4905724E-1,-5.3778015E-2,3.0602705E-2,2.4925122E-2,2.5538577E-5,-3.7462237E-1,-1.9727458E-1,-9.459795E-3,-1.1375744E0,1.1001637E-2,-7.825228E-2,-3.899546E-1,-1.2158374E-1,-3.230796E-2,-1.8047403E-1,5.856003E-2,-5.8492523E-2,8.140703E-2,2.1874085E-2,3.0418024E-3,-1.3834494E-2,-8.062816E-2,-3.1454496E-2,-1.8776802E-2,-8.7945E-2,-1.2437E-1,-4.4297967E-2,-2.4792444E-4,1.1420266E-2,-2.6399452E-2,-5.7851514E-3,-4.286173E-2,2.2877682E-2,-8.755243E-3,-2.3353029E-2,-6.267515E-3,2.7892224E-3,-1.5789002E-2,-3.8507607E-2,-4.1253073E-3,8.991563E-3,-1.9491808E-2,8.2058227E-4,4.7777826E-3,2.4347613E-2,-1.4777685E-3,2.766499E-3,3.9155362E-4,-7.272262E-3,7.4831448E-3,-1.98525E-3],"categories":[],"categories_nodes":[],"categories_segments":[],"categories_sizes":[],"default_left":[0,0,0,0,0,0,0,0,0,0,0,0,0,0,0,0,0,0,0,0,0,0,0,0,0,0,0,0,0,0,0,0,0,0,0,0,0,0,0,0,0,0,0,0,0,0,0,0,0,0,0,0,0,0,0,0,0,0,0,0,0],"id":21,"left_children":[1,3,5,7,9,11,13,15,17,19,21,23,25,27,29,31,33,-1,35,37,39,41,43,45,47,49,51,53,55,57,59,-1,-1,-1,-1,-1,-1,-1,-1,-1,-1,-1,-1,-1,-1,-1,-1,-1,-1,-1,-1,-1,-1,-1,-1,-1,-1,-1,-1,-1,-1],"loss_changes":[5.150312E1,2.0034615E1,2.8202007E1,5.9657593E0,1.6951546E1,3.6717445E1,3.1554993E1,3.138317E0,1.1321821E0,1.3363553E1,1.1630226E1,5.1193672E1,1.7696442E1,1.0077698E1,1.6388344E1,3.096962E0,2.9110222E0,0E0,1.0792446E-1,4.1620107E0,1.4461105E1,4.4081955E0,6.018944E0,2.9426926E1,1.2540939E1,1.6926348E1,1.5443665E1,1.6323956E1,1.1778778E1,2.1312716E1,3.738698E1,0E0,0E0,0E0,0E0,0E0,0E0,0E0,0E0,0E0,0E0,0E0,0E0,0E0,0E0,0E0,0E0,0E0,0E0,0E0,0E0,0E0,0E0,0E0,0E0,0E0,0E0,0E0,0E0,0E0,0E0],"parents":[2147483647,0,0,1,1,2,2,3,3,4,4,5,5,6,6,7,7,8,8,9,9,10,10,11,11,12,12,13,13,14,14,15,15,16,16,18,18,19,19,20,20,21,21,22,22,23,23,24,24,25,25,26,26,27,27,28,28,29,29,30,30],"right_children":[2,4,6,8,10,12,14,16,18,20,22,24,26,28,30,32,34,-1,36,38,40,42,44,46,48,50,52,54,56,58,60,-1,-1,-1,-1,-1,-1,-1,-1,-1,-1,-1,-1,-1,-1,-1,-1,-1,-1,-1,-1,-1,-1,-1,-1,-1,-1,-1,-1,-1,-1],"split_conditions":[2.41556E0,3.3539074E1,5.1941113E0,6.950976E4,6.4277316E4,5.8751957E1,3.7619057E1,2.1955278E1,2.1955278E1,-2.333156E-1,6.4524E4,1.739654E0,6.184849E0,2.1955278E1,2.6968077E1,-1.388072E1,2.7721256E1,-9.459795E-3,1.5943825E1,2.2974838E1,1.0937791E0,2.8820236E1,6.926895E4,4.7769157E1,3.0539906E4,2.045949E0,6.6804985E1,9.044125E1,-8.303464E1,7.159273E1,5.1077065E1,-8.062816E-2,-3.1454496E-2,-1.8776802E-2,-8.7945E-2,-1.2437E-1,-4.4297967E-2,-2.4792444E-4,1.1420266E-2,-2.6399452E-2,-5.7851514E-3,-4.286173E-2,2.2877682E-2,-8.755243E-3,-2.3353029E-2,-6.267515E-3,2.7892224E-3,-1.5789002E-2,-3.8507607E-2,-4.1253073E-3,8.991563E-3,-1.9491808E-2,8.2058227E-4,4.7777826E-3,2.4347613E-2,-1.4777685E-3,2.766499E-3,3.9155362E-4,-7.272262E-3,7.4831448E-3,-1.98525E-3],"split_indices":[1,3,5,2,2,3,3,3,3,4,0,4,4,3,4,4,5,0,5,5,5,5,2,3,2,5,3,5,4,3,3,0,0,0,0,0,0,0,0,0,0,0,0,0,0,0,0,0,0,0,0,0,0,0,0,0,0,0,0,0,0],"split_type":[0,0,0,0,0,0,0,0,0,0,0,0,0,0,0,0,0,0,0,0,0,0,0,0,0,0,0,0,0,0,0,0,0,0,0,0,0,0,0,0,0,0,0,0,0,0,0,0,0,0,0,0,0,0,0,0,0,0,0,0,0],"sum_hessian":[4.8560825E5,9.184045E3,4.764242E5,6.1087256E2,8.573173E3,2.592333E4,4.5050088E5,6.015394E2,9.333095E0,6.8097246E3,1.763448E3,1.8821168E4,7.102163E3,5.848895E4,3.920119E5,1.2820125E2,4.733382E2,1.3950825E0,7.938012E0,2.9903784E3,3.8193462E3,1.7917596E2,1.584272E3,1.6094953E4,2.7262144E3,5.4061133E3,1.6960497E3,2.996216E3,5.5492734E4,3.2194912E5,7.00628E4,1.4145373E1,1.1405587E2,4.680903E2,5.2479057E0,6.200163E0,1.7378492E0,2.6457473E3,3.446311E2,3.7679663E2,3.4425496E3,1.6892746E2,1.0248515E1,1.2163029E3,3.6796915E2,1.0698297E4,5.396656E3,2.4568037E3,2.6941077E2,1.2922445E3,4.113869E3,5.562885E2,1.1397612E3,2.4824124E3,5.138038E2,7.571249E3,4.7921484E4,3.182796E5,3.669529E3,4.452386E3,6.5610414E4],"tree_param":{"num_deleted":"0","num_feature":"6","num_nodes":"61","size_leaf_vector":"1"}},{"base_weights":[-1.724793E-5,-7.84524E-2,1.1509442E-3,-1.4122428E-1,-4.8912626E-2,3.5690222E-2,-3.2956986E-4,-4.175125E-2,-2.6004288E-1,8.0391854E-2,-1.0003814E-1,-2.2436745E-1,3.8018584E-2,-1.139452E-2,4.268305E-3,-9.556448E-2,4.106077E-2,-2.4437664E-1,-8.676944E-1,4.9693678E-2,2.339345E-1,-1.7772071E-1,-1.8378107E-2,5.58609E-2,-3.568723E-1,2.8277969E-2,7.6504104E-2,-4.1359216E-3,-7.0044674E-2,8.91963E-3,-1.2699044E-2,-2.1616097E-3,-2.6277516E-2,1.8724075E-2,-4.461818E-3,-7.5658686E-3,-2.7653947E-2,-1.0558601E-1,-3.652728E-2,1.6506474E-2,-1.6147116E-3,3.1138659E-2,-6.4604394E-3,-2.1148084E-2,1.1743198E-2,8.379783E-3,-9.20401E-3,-3.4194645E-2,5.5095594E-2,-2.1834254E-2,-6.937601E-2,-1.33414E-2,3.3026428E-3,1.0790625E-2,-1.1112573E-2,2.275767E-4,-3.2638707E-3,-1.32613825E-2,-1.8809179E-3,1.4779597E-3,-1.4388538E-4,6.548866E-3,-1.8465465E-3],"categories":[],"categories_nodes":[],"categories_segments":[],"categories_sizes":[],"default_left":[0,0,0,0,0,0,0,0,0,0,0,0,0,0,0,0,0,0,0,0,0,0,0,0,0,0,0,0,0,0,0,0,0,0,0,0,0,0,0,0,0,0,0,0,0,0,0,0,0,0,0,0,0,0,0,0,0,0,0,0,0,0,0],"id":22,"left_children":[1,3,5,7,9,11,13,15,17,19,21,23,25,27,29,31,33,35,37,39,41,43,45,47,49,51,53,55,57,59,61,-1,-1,-1,-1,-1,-1,-1,-1,-1,-1,-1,-1,-1,-1,-1,-1,-1,-1,-1,-1,-1,-1,-1,-1,-1,-1,-1,-1,-1,-1,-1,-1],"loss_changes":[4.4491016E1,1.3206127E1,2.446543E1,2.6933617E1,3.2050606E1,1.1915974E1,2.3340347E1,5.539038E0,9.675491E0,6.4645987E0,2.2034607E1,6.5049725E0,7.3046856E0,5.7333366E1,2.5578363E1,9.306955E0,6.144345E0,5.481144E0,2.0451832E0,8.710229E0,5.307357E0,1.7764149E1,1.2763465E1,1.1401828E1,5.3888445E0,1.19483185E1,2.3204443E1,2.1901754E1,4.7544907E1,1.5440378E1,3.1440674E1,0E0,0E0,0E0,0E0,0E0,0E0,0E0,0E0,0E0,0E0,0E0,0E0,0E0,0E0,0E0,0E0,0E0,0E0,0E0,0E0,0E0,0E0,0E0,0E0,0E0,0E0,0E0,0E0,0E0,0E0,0E0,0E0],"parents":[2147483647,0,0,1,1,2,2,3,3,4,4,5,5,6,6,7,7,8,8,9,9,10,10,11,11,12,12,13,13,14,14,15,15,16,16,17,17,18,18,19,19,20,20,21,21,22,22,23,23,24,24,25,25,26,26,27,27,28,28,29,29,30,30],"right_children":[2,4,6,8,10,12,14,16,18,20,22,24,26,28,30,32,34,36,38,40,42,44,46,48,50,52,54,56,58,60,62,-1,-1,-1,-1,-1,-1,-1,-1,-1,-1,-1,-1,-1,-1,-1,-1,-1,-1,-1,-1,-1,-1,-1,-1,-1,-1,-1,-1,-1,-1,-1,-1],"split_conditions":[2.38683E0,4.1792053E1,3.0656761E1,-2.194108E0,5.5657618E-2,2.41556E0,1.7441938E1,3.1606867E1,1.1642562E0,5.586308E1,6.3711292E1,4.05814E4,-1.4643721E1,4.2765066E4,2.6968077E1,2.939053E4,-3.624855E0,2.5883148E4,4.0135788E1,-1.461505E0,6.3711292E1,3.60094E1,2.6163247E0,2.9318E4,-1.0850915E1,1.0616943E1,3.491018E4,6.8111663E0,4.9473503E1,3.952786E1,5.130546E1,-2.1616097E-3,-2.6277516E-2,1.8724075E-2,-4.461818E-3,-7.5658686E-3,-2.7653947E-2,-1.0558601E-1,-3.652728E-2,1.6506474E-2,-1.6147116E-3,3.1138659E-2,-6.4604394E-3,-2.1148084E-2,1.1743198E-2,8.379783E-3,-9.20401E-3,-3.4194645E-2,5.5095594E-2,-2.1834254E-2,-6.937601E-2,-1.33414E-2,3.3026428E-3,1.0790625E-2,-1.1112573E-2,2.275767E-4,-3.2638707E-3,-1.32613825E-2,-1.8809179E-3,1.4779597E-3,-1.4388538E-4,6.548866E-3,-1.8465465E-3],"split_indices":[5,3,3,4,4,1,5,3,4,3,3,0,4,2,4,0,4,2,3,4,3,1,4,0,4,5,2,4,3,1,3,0,0,0,0,0,0,0,0,0,0,0,0,0,0,0,0,0,0,0,0,0,0,0,0,0,0,0,0,0,0,0,0],"split_type":[0,0,0,0,0,0,0,0,0,0,0,0,0,0,0,0,0,0,0,0,0,0,0,0,0,0,0,0,0,0,0,0,0,0,0,0,0,0,0,0,0,0,0,0,0,0,0,0,0,0,0,0,0,0,0,0,0,0,0,0,0,0,0],"sum_hessian":[4.85563E5,7.1247456E3,4.7843825E5,2.2787124E3,4.846033E3,1.9664197E4,4.5877406E5,1.2410645E3,1.0376478E3,1.3729795E3,3.4730537E3,1.7365002E2,1.9490547E4,1.3467423E5,3.240998E5,7.521473E2,4.8891724E2,1.0129349E3,2.4712934E1,1.1453169E3,2.2766252E2,1.7792708E3,1.6937828E3,5.5934708E1,1.1771531E2,1.5555271E4,3.9352764E3,1.19843375E5,1.4830858E4,2.5436911E5,6.973071E4,5.2229376E2,2.2985349E2,1.8023183E2,3.0868542E2,1.6271675E2,8.5021814E2,1.7177952E1,7.5349836E0,4.1558734E2,7.297296E2,1.8073112E2,4.6931396E1,1.5968981E3,1.8237276E2,7.095015E2,9.842813E2,3.1186104E1,2.4748606E1,8.4582664E1,3.313265E1,4.430107E2,1.5112261E4,3.3714482E3,5.6382806E2,9.783611E4,2.2007268E4,6.676221E3,8.1546367E3,1.6246152E5,9.19076E4,4.788769E3,6.494194E4],"tree_param":{"num_deleted":"0","num_feature":"6","num_nodes":"63","size_leaf_vector":"1"}},{"base_weights":[-1.688481E-5,-4.9789257E-2,1.5409694E-3,-2.5282922E-1,-4.435914E-2,1.3854636E-2,-1.6204723E-3,-1.8628173E-1,-4.6263564E-1,-1.047104E-2,-7.377143E-2,1.8054424E-2,-4.6661884E-2,1.4667282E-2,-6.690433E-3,-2.0552371E-1,4.6619073E-1,-5.0567687E-1,4.1943636E-2,-4.349463E-2,4.9742475E-2,-2.2156458E-1,-6.315018E-2,2.0046122E-2,-3.5097014E-2,-6.425444E-2,8.278076E-2,3.7784368E-2,-1.2663216E-2,-2.3959119E-2,2.250402E-3,1.1420439E-2,-2.3497611E-2,-5.2179145E-3,1.6072577E-1,-3.705911E-2,-7.0994034E-2,7.780003E-2,-8.040708E-2,-1.6626185E-3,-1.5349917E-2,4.387544E-3,7.099737E-2,-3.9447002E-2,-9.217267E-3,-5.05473E-2,-5.993554E-3,-1.5045988E-4,2.519977E-3,1.7167995E-2,-4.73406E-3,-4.6822987E-3,-1.1932333E-2,1.194414E-2,-5.207466E-2,4.8072706E-3,1.4607528E-3,-9.926355E-3,-7.6592027E-4,-7.4015143E-3,-1.2268934E-3,3.1272646E-3,-8.623986E-4],"categories":[],"categories_nodes":[],"categories_segments":[],"categories_sizes":[],"default_left":[0,0,0,0,0,0,0,0,0,0,0,0,0,0,0,0,0,0,0,0,0,0,0,0,0,0,0,0,0,0,0,0,0,0,0,0,0,0,0,0,0,0,0,0,0,0,0,0,0,0,0,0,0,0,0,0,0,0,0,0,0,0,0],"id":23,"left_children":[1,3,5,7,9,11,13,15,17,19,21,23,25,27,29,31,33,35,37,39,41,43,45,47,49,51,53,55,57,59,61,-1,-1,-1,-1,-1,-1,-1,-1,-1,-1,-1,-1,-1,-1,-1,-1,-1,-1,-1,-1,-1,-1,-1,-1,-1,-1,-1,-1,-1,-1,-1,-1],"loss_changes":[3.7646595E1,1.6235096E1,1.832731E1,5.269806E0,1.4305109E1,2.4445217E1,3.093482E1,3.7732325E0,2.0127468E0,1.3265574E1,1.204747E1,9.521645E0,1.4219341E1,5.618444E1,4.4108856E1,2.7126026E0,5.2278767E0,2.0704575E0,5.6887474E0,1.2730984E1,9.122055E0,1.1480408E1,1.01646805E1,9.628223E0,8.233063E0,5.269762E0,1.6595873E1,1.14872055E1,1.7658419E1,5.7026672E1,5.940568E1,0E0,0E0,0E0,0E0,0E0,0E0,0E0,0E0,0E0,0E0,0E0,0E0,0E0,0E0,0E0,0E0,0E0,0E0,0E0,0E0,0E0,0E0,0E0,0E0,0E0,0E0,0E0,0E0,0E0,0E0,0E0,0E0],"parents":[2147483647,0,0,1,1,2,2,3,3,4,4,5,5,6,6,7,7,8,8,9,9,10,10,11,11,12,12,13,13,14,14,15,15,16,16,17,17,18,18,19,19,20,20,21,21,22,22,23,23,24,24,25,25,26,26,27,27,28,28,29,29,30,30],"right_children":[2,4,6,8,10,12,14,16,18,20,22,24,26,28,30,32,34,36,38,40,42,44,46,48,50,52,54,56,58,60,62,-1,-1,-1,-1,-1,-1,-1,-1,-1,-1,-1,-1,-1,-1,-1,-1,-1,-1,-1,-1,-1,-1,-1,-1,-1,-1,-1,-1,-1,-1,-1,-1],"split_conditions":[3.09445E0,2.7370825E1,-1.8077934E1,-2.3439639E0,-2.333156E-1,5.0280064E1,2.454631E4,-2.4948394E0,-4.882573E-1,4.637261E1,1.0937791E0,6.834213E4,6.4524E4,5.232826E1,4.9473503E1,2.606401E4,1.0937791E0,2.9390285E4,1.56738E0,6.4277316E4,4.8276886E1,6.165202E1,3.9803802E1,3.186657E4,2.528478E1,5.4295815E1,1.0562682E2,1.539205E2,-2.194108E0,8.907615E0,5.010101E0,1.1420439E-2,-2.3497611E-2,-5.2179145E-3,1.6072577E-1,-3.705911E-2,-7.0994034E-2,7.780003E-2,-8.040708E-2,-1.6626185E-3,-1.5349917E-2,4.387544E-3,7.099737E-2,-3.9447002E-2,-9.217267E-3,-5.05473E-2,-5.993554E-3,-1.5045988E-4,2.519977E-3,1.7167995E-2,-4.73406E-3,-4.6822987E-3,-1.1932333E-2,1.194414E-2,-5.207466E-2,4.8072706E-3,1.4607528E-3,-9.926355E-3,-7.6592027E-4,-7.4015143E-3,-1.2268934E-3,3.1272646E-3,-8.623986E-4],"split_indices":[1,3,4,4,4,3,0,4,4,3,5,2,0,3,3,0,5,2,1,2,5,3,3,0,3,3,1,1,4,5,4,0,0,0,0,0,0,0,0,0,0,0,0,0,0,0,0,0,0,0,0,0,0,0,0,0,0,0,0,0,0,0,0],"split_type":[0,0,0,0,0,0,0,0,0,0,0,0,0,0,0,0,0,0,0,0,0,0,0,0,0,0,0,0,0,0,0,0,0,0,0,0,0,0,0,0,0,0,0,0,0,0,0,0,0,0,0,0,0,0,0,0,0,0,0,0,0,0,0],"sum_hessian":[4.8552178E5,1.4734475E4,4.707873E5,3.8260895E2,1.4351865E4,9.617742E4,3.746099E5,2.9190793E2,9.070102E1,6.669171E3,7.682695E3,8.993661E4,6.2408125E3,8.892561E4,2.8568428E5,2.8421127E2,7.696631E0,8.3570206E1,7.1308208E0,4.3072007E3,2.36197E3,5.137719E2,7.168923E3,8.668881E4,3.247792E3,5.4945513E3,7.462611E2,4.8176156E4,4.074945E4,9.74547E4,1.8822958E5,2.3729713E1,2.6048157E2,5.9485598E0,1.7480713E0,5.1997143E1,3.1573057E1,3.8562057E0,3.2746148E0,3.4626138E3,8.445871E2,2.3422227E3,1.9747332E1,2.190322E2,2.9473972E2,5.0597874E1,7.118325E3,1.6730117E4,6.9958695E4,1.8082855E2,3.0669634E3,4.174887E3,1.3196642E3,7.042823E2,4.19788E1,3.3364418E4,1.4811741E4,2.224966E3,3.8524484E4,1.8449734E4,7.900497E4,5.1304105E4,1.3692548E5],"tree_param":{"num_deleted":"0","num_feature":"6","num_nodes":"63","size_leaf_vector":"1"}},{"base_weights":[-1.591301E-5,-5.0434124E-2,1.3335309E-3,-1.4889335E-2,-9.670359E-2,3.068221E-2,-1.5674639E-4,-3.8377892E-2,8.238098E-2,-8.652369E-2,-2.8321573E-1,-1.5672655E-1,3.260637E-2,8.0559216E-4,-4.7535066E-2,1.7642412E-2,-6.348388E-2,-1.397681E-1,1.00953974E-1,-1.1964887E-1,8.993009E-3,-3.0362368E-1,3.3024794E-1,4.7907803E-2,-2.4768524E-1,1.9735921E-2,5.9541512E-2,-8.554665E-3,4.3805134E-3,-9.36245E-2,7.983016E-3,-7.4802013E-3,6.0583167E-3,-1.5251662E-2,-2.045086E-3,-5.533671E-2,-8.2325906E-4,1.7901788E-2,4.5977156E-3,-9.518501E-3,