tree
version=v4
num_class=1
num_tree_per_iteration=1
label_index=0
max_feature_idx=9
objective=binary sigmoid:1
feature_names=return volatility momentum ma50 ma200 rsi macd macd_signal volume_change close_open_diff
feature_infos=[-0.022801302931596101:0.0142857142857142] [0:0.1730017936618865] [-48095:2500] [0:87725] [0:83975] [0:100] [-13147.259378610155:1395.4778100885233] [-11479.745091167091:1393.3518599410963] [-0.0454545454545454:0.14285714285714279] [-945:500]
tree_sizes=545 970 868 866 962 856 764 762 652 654 657 652 550 453 557 556 565 453 452 453 448 451 347 347 346 346 347 347 347 346 346 347 347 346 347 347 347 345 347 345 350 347 346 345 347 345 347 349 347 346 347 347 350 346 346 347 351 347 350 345 351 347 351 347 350 347 351 348 351 346 350 348 349 348 346 349 348 351 348 351 348 348 351 347 351 348 351 348 348 351 348 351 347 351 349 348 348 350 348 350

Tree=0
num_leaves=4
num_cat=0
split_feature=2 7 1
split_gain=158.267 410.12 0.319815
threshold=525.00000000000011 51.058882273656302 1.5057649140879966e-06
decision_type=2 2 2
left_child=2 -2 -1
right_child=1 -3 -4
leaf_value=3.3917086746897018 3.3954483550070069 2.6088823982057412 3.4113464272564036
leaf_weight=10.184465039521454 18.870212815701965 10.218526795506476 44.654962096363306
leaf_count=299 554 300 1311
internal_value=3.30769 3.11914 3.4077
internal_weight=0 29.0887 54.8394
internal_count=2464 854 1610
is_linear=0
shrinkage=1


Tree=1
num_leaves=8
num_cat=0
split_feature=6 5 8 0 6 5 1
split_gain=130.032 433.013 2.06684 0.0509627 0.0125492 1.53429e-05 2.80148e-07
threshold=133.36518438913848 99.982750484272216 0.00066778030273305009 0.00072124062751305004 101.48101197705911 59.582882149923769 0.0064770678151425008
decision_type=2 2 2 2 2 2 2
left_child=2 -2 4 -3 5 6 -1
right_child=1 3 -4 -5 -6 -7 -8
leaf_value=0.10332118030939581 -0.70037885405866973 0.093420128939394415 0.054200074720760029 0.10329967419489612 0.10731301383839992 0.10345479834308631 0.10329967419489612
leaf_weight=10.203824784606697 10.040880702435972 10.061434023082258 10.07914102822542 10.853761687874792 10.34430295228958 10.016451016068457 14.904595822095869
leaf_count=328 200 320 304 351 164 315 482
internal_value=0 -0.160592 0.0951699 0.098547 0.104252 0.10335 0.103308
internal_weight=0 30.9561 55.5483 20.9152 45.4692 35.1249 25.1084
internal_count=2464 871 1593 671 1289 1125 810
is_linear=0
shrinkage=0.1


Tree=2
num_leaves=7
num_cat=0
split_feature=6 8 0 7 6 1
split_gain=92.2812 450.33 1.98922 0.0161019 0.00841727 1.85213e-06
threshold=133.36518438913848 0.00088534767238605014 0.0012810807706630501 349.99999999999915 101.48101197704456 8.3911668281920934e-05
decision_type=2 2 2 2 2 2
left_child=2 -2 4 -3 5 -1
right_child=1 3 -4 -5 -6 -7
leaf_value=0.10303103140260317 -0.67783896304685964 0.10447936142892361 0.054396625803533341 0.099548081295855198 0.10629844661258379 0.10298070014192205
leaf_weight=12.305501414462926 10.235341027379034 11.869965396821501 10.167750110849736 14.975407825782893 10.396544478833674 18.014966672286391
leaf_count=431 120 333 326 418 195 641
internal_value=0 -0.113454 0.0939627 0.101728 0.103843 0.103001
internal_weight=0 37.0807 50.8848 26.8454 40.717 30.3205
internal_count=2464 871 1593 751 1267 1072
is_linear=0
shrinkage=0.1


Tree=3
num_leaves=7
num_cat=0
split_feature=2 7 0 1 4 1
split_gain=75.3133 180.809 0.950479 0.292499 0.00133592 1.93121e-06
threshold=525.00000000000011 79.52253745772579 0.0012180942399337502 1.6441836511537959e-06 43785.000000000007 0.0065040873172027506
decision_type=2 2 2 2 2 2
left_child=3 2 -2 -1 -5 -6
right_child=1 -3 -4 4 5 -7
leaf_value=0.08388000497224482 0.10446429189078493 -0.33038056300768393 0.064573506029405009 0.10405123127450021 0.10268415402183946 0.10274154864820523
leaf_weight=10.225028781220315 14.542392035946252 17.753411918878555 10.136469796299933 10.71510506980121 13.848348826169969 10.166418034583328
leaf_count=349 430 116 308 325 544 392
internal_value=0 -0.0870016 0.0880798 0.098746 0.103123 0.102708
internal_weight=0 42.4323 24.6789 44.9549 34.7299 24.0148
internal_count=2464 854 738 1610 1261 936
is_linear=0
shrinkage=0.1


Tree=4
num_leaves=8
num_cat=0
split_feature=2 7 4 0 1 4 1
split_gain=62.7895 121.383 23.211 0.900807 0.287918 0.000914828 1.16545e-06
threshold=525.00000000000011 79.52253745772579 44061.500000000007 0.0012117873900714001 1.7297787957652409e-06 43915.000000000007 0.006412865235726351
decision_type=2 2 2 2 2 2 2
left_child=4 3 -3 -2 -1 -6 -7
right_child=1 2 -4 -5 5 6 -8
leaf_value=0.083406319572986387 0.1040427911505464 -0.13659867116051833 -0.346030180053433 0.063977418517611975 0.10360437419389135 0.10242161739102185 0.10246911161735749
leaf_weight=10.147734150290487 12.711239686235787 10.116977810859682 11.095687150955198 10.04731381870806 10.146120190620424 10.503472404554488 10.168609172105787
leaf_count=379 414 62 54 324 343 455 433
internal_value=0 -0.0740506 -0.246146 0.086355 0.098016 0.102827 0.102445
internal_weight=0 43.9712 21.2127 22.7586 40.9659 30.8182 20.6721
internal_count=2464 854 116 738 1610 1231 888
is_linear=0
shrinkage=0.1


Tree=5
num_leaves=7
num_cat=0
split_feature=2 7 7 4 1 4
split_gain=53.4928 89.4004 22.636 0.846289 0.284698 0.000581909
threshold=525.00000000000011 79.52253745772579 92.248826740029315 46260.000000000007 1.836455897779161e-06 44076.250000000007
decision_type=2 2 2 2 2 2
left_child=4 3 -3 -2 -1 -6
right_child=1 2 -4 -5 5 -7
leaf_value=0.08284765963802361 0.10385726331180885 -0.28838237104995562 -0.090540294427296067 0.063685006635775185 0.10316591532238387 0.10220844065038366
leaf_weight=10.011147530749438 10.923732716590168 12.895937427878382 10.485168322920797 10.08584522642195 10.026069454848768 17.300074350088835
leaf_count=409 371 57 59 367 382 819
internal_value=0 -0.0651368 -0.199661 0.0845722 0.0972744 0.10256
internal_weight=0 44.3907 23.3811 21.0096 37.3373 27.3261
internal_count=2464 854 116 738 1610 1201
is_linear=0
shrinkage=0.1


Tree=6
num_leaves=6
num_cat=0
split_feature=2 7 0 1 8
split_gain=46.1329 69.0509 21.3745 0.275317 0.000357177
threshold=525.00000000000011 79.52253745772579 0.0012524907527073502 1.9947550254110119e-06 0.00072806707864600008
decision_type=2 2 2 2 2
left_child=3 -2 -3 -1 -5
right_child=1 2 -4 4 -6
leaf_value=0.082586128517780494 0.082719318400111125 -0.24620289813784743 -0.056944036642363853 0.10199460143808006 0.10277623767922564
leaf_weight=10.015683125704525 19.418973878026009 14.672833368182184 10.0578366369009 13.968212718144061 10.054273914545773
leaf_count=449 738 61 55 729 432
internal_value=0 -0.0584128 -0.169232 0.0965146 0.102322
internal_weight=0 44.1496 24.7307 34.0382 24.0225
internal_count=2464 854 116 1610 1161
is_linear=0
shrinkage=0.1


Tree=7
num_leaves=6
num_cat=0
split_feature=2 7 0 1 8
split_gain=40.126 55.0359 17.5724 0.261286 0.000238523
threshold=525.00000000000011 79.52253745772579 0.0012552062572952001 2.2193505662761746e-06 0.0006215042798429002
decision_type=2 2 2 2 2
left_child=3 -2 -3 -1 -5
right_child=1 2 -4 4 -6
leaf_value=0.082535642822301317 0.080797476876175556 -0.21511751058507667 -0.045140433488930931 0.10178385245897595 0.10245954530729605
leaf_weight=10.116775825619699 17.967958910390735 15.36423170566559 10.067259505391119 10.830031724646689 10.093276610597966
leaf_count=499 738 62 54 629 482
internal_value=0 -0.0531756 -0.147831 0.0957301 0.10211
internal_weight=0 43.3995 25.4315 31.0401 20.9233
internal_count=2464 854 116 1610 1111
is_linear=0
shrinkage=0.1


Tree=8
num_leaves=5
num_cat=0
split_feature=2 7 7 1
split_gain=35.0978 44.7821 15.6268 0.249536
threshold=525.00000000000011 79.52253745772579 92.248826740029315 2.511352657951289e-06
decision_type=2 2 2 2
left_child=3 -2 -3 -1
right_child=1 2 -4 -5
leaf_value=0.082332708335204438 0.078801044104924681 -0.20280667348596215 -0.046048733921884223 0.10191855088173118
leaf_weight=10.12618692405522 16.649273166432977 14.036464735865595 11.627010002732275 18.19054916780442
leaf_count=549 738 57 59 1061
internal_value=0 -0.0489242 -0.131786 0.0949146
internal_weight=0 42.3127 25.6635 28.3167
internal_count=2464 854 116 1610
is_linear=0
shrinkage=0.1


Tree=9
num_leaves=5
num_cat=0
split_feature=2 7 7 1
split_gain=30.7784 36.7861 18.6266 0.239399
threshold=525.00000000000011 79.52253745772579 92.248826740032385 2.8127937731128046e-06
decision_type=2 2 2 2
left_child=3 -2 -3 -1
right_child=1 2 -4 -5
leaf_value=0.082006812565449283 0.076728006190100451 -0.18680090465927932 -0.012289390420146491 0.10174607887158189
leaf_weight=10.060386783443393 15.451426521874962 15.637267887592317 10.045345544815062 15.783483790233729
leaf_count=599 738 64 52 1011
internal_value=0 -0.0451925 -0.118544 0.0940621
internal_weight=0 41.134 25.6826 25.8439
internal_count=2464 854 116 1610
is_linear=0
shrinkage=0.1


Tree=10
num_leaves=5
num_cat=0
split_feature=2 7 0 1
split_gain=27.0842 30.6324 16.1473 0.225495
threshold=525.00000000000011 79.52253745772579 0.0012609617740742503 3.2990088602832369e-06
decision_type=2 2 2 2
left_child=3 -2 -3 -1
right_child=1 2 -4 -5
leaf_value=0.081827069991736417 0.07457775283911687 -0.1730604200562402 -0.0099972639000486287 0.10159299795051005
leaf_weight=10.060794594697656 14.363828293979166 15.268248260021211 10.083295345306395 13.538459761999546
leaf_count=659 738 64 52 951
internal_value=0 -0.0420974 -0.108204 0.0931664
internal_weight=0 39.7154 25.3515 23.5993
internal_count=2464 854 116 1610
is_linear=0
shrinkage=0.1


Tree=11
num_leaves=5
num_cat=0
split_feature=2 7 7 1
split_gain=23.8778 25.6956 15.6308 0.209367
threshold=525.00000000000011 79.52253745772579 92.248826740032385 3.6716086891953819e-06
decision_type=2 2 2 2
left_child=3 -2 -3 -1
right_child=1 2 -4 -5
leaf_value=0.08163796846129466 0.072351142382036687 -0.16511614569075536 -0.0035811970682499 0.10139597611191589
leaf_weight=10.012203669175507 13.376736721023915 14.760088115930559 10.082070171833037 11.550243263132868
leaf_count=699 738 64 52 911
internal_value=0 -0.0393892 -0.099558 0.0922216
internal_weight=0 38.2189 24.8422 21.5624
internal_count=2464 854 116 1610
is_linear=0
shrinkage=0.1


Tree=12
num_leaves=4
num_cat=0
split_feature=2 7 4
split_gain=21.0744 21.6596 13.9513
threshold=525.00000000000011 79.52253745772579 43037.500000000007
decision_type=2 2 2
left_child=-1 -2 -3
right_child=1 2 -4
leaf_value=0.091222920228527002 0.070050552327868429 -0.0022103066467892836 -0.15618507769743398
leaf_weight=19.714514358900487 12.481205851770936 10.078559473156931 14.14132186770439
leaf_count=1610 738 52 64
internal_value=0 -0.0369642 -0.0921119
internal_weight=0 36.7011 24.2199
internal_count=2464 854 116
is_linear=0
shrinkage=0.1


Tree=13
num_leaves=3
num_cat=0
split_feature=8 5
split_gain=19.7512 52.4524
threshold=0.00085726548111960006 70.538278902099535
decision_type=2 2
left_child=1 -1
right_child=-2 -3
leaf_value=0.080850462846463189 0.099171604265560084 -0.15785190241350716
leaf_weight=19.310284691862762 16.320434457622468 17.592068733647466
leaf_count=1532 843 89
internal_value=0 -0.0329436
internal_weight=0 36.9024
internal_count=2464 1621
is_linear=0
shrinkage=0.1


Tree=14
num_leaves=4
num_cat=0
split_feature=1 8 5
split_gain=18.0329 14.0933 28.6502
threshold=5.0045958910561177e-05 0.00083717051085260006 70.538278902099535
decision_type=2 2 2
left_child=1 2 -1
right_child=-2 -3 -4
leaf_value=0.063684216663227752 0.11059469808123662 0.073366524806832645 -0.14776365428090893
leaf_weight=10.491397062316539 12.628899013623593 10.033863591961561 16.463768377900124
leaf_count=718 865 801 80
internal_value=0 -0.0278045 -0.0654646
internal_weight=0 36.989 26.9552
internal_count=2464 1599 798
is_linear=0
shrinkage=0.1


Tree=15
num_leaves=4
num_cat=0
split_feature=1 7 8
split_gain=16.0931 9.38605 22.7522
threshold=5.0045958910561177e-05 79.52253745772579 0.00071022763098225008
decision_type=2 2 2
left_child=1 -1 -3
right_child=-2 2 -4
leaf_value=0.053236563698029871 0.1096992594592347 -0.14085889234431037 0.055419024770917161
leaf_weight=10.323395511135457 11.515638681128619 14.424179181456568 10.000348240137098
leaf_count=766 865 75 758
internal_value=0 -0.0267061 -0.0604951
internal_weight=0 34.7479 24.4245
internal_count=2464 1599 833
is_linear=0
shrinkage=0.1


Tree=16
num_leaves=4
num_cat=0
split_feature=1 0 8
split_gain=14.3664 7.63724 5.43168
threshold=5.0045958910561177e-05 0.0012293936892260003 0.00047766900264720002
decision_type=2 2 2
left_child=1 2 -1
right_child=-2 -3 -4
leaf_value=-0.036909350456203936 0.10886671119249572 -0.097768108602396861 0.061431344373309688
leaf_weight=12.686350681819023 10.495416407473384 10.123939277604221 10.078482109587638
leaf_count=442 865 316 841
internal_value=0 -0.0255074 0.00662819
internal_weight=0 32.8888 22.7648
internal_count=2464 1599 1283
is_linear=0
shrinkage=0.1


Tree=17
num_leaves=3
num_cat=0
split_feature=8 5
split_gain=12.9832 33.7286
threshold=0.00085726548111960006 70.538278902099535
decision_type=2 2
left_child=1 -1
right_child=-2 -3
leaf_value=0.074967695103078977 0.092109525780387669 -0.13819423588221832
leaf_weight=15.170373499393463 12.510327916592358 14.535175751894712
leaf_count=1532 843 89
internal_value=0 -0.0293342
internal_weight=0 29.7055
internal_count=2464 1621
is_linear=0
shrinkage=0.1


Tree=18
num_leaves=3
num_cat=0
split_feature=8 5
split_gain=11.4636 29.5003
threshold=0.00085726548111960006 70.538278902099535
decision_type=2 2
left_child=1 -1
right_child=-2 -3
leaf_value=0.072873551275567869 0.090176156693495713 -0.13364263779068139
leaf_weight=14.101328511722386 11.550295202527193 13.576615404337645
leaf_count=1532 843 89
internal_value=0 -0.028427
internal_weight=0 27.6779
internal_count=2464 1621
is_linear=0
shrinkage=0.1


Tree=19
num_leaves=3
num_cat=0
split_feature=8 5
split_gain=10.1171 25.8556
threshold=0.00085726548111960006 70.538278902099535
decision_type=2 2
left_child=1 -1
right_child=-2 -3
leaf_value=0.070695320650725466 0.088198107101882917 -0.12964807874006531
leaf_weight=13.132730374578387 10.673734166659413 12.643544541671872
leaf_count=1532 843 89
internal_value=0 -0.0275753
internal_weight=0 25.7763
internal_count=2464 1621
is_linear=0
shrinkage=0.1


Tree=20
num_leaves=3
num_cat=0
split_feature=2 5
split_gain=8.41895 2.99776
threshold=525.00000000000011 71.559669579809608
decision_type=2 2
left_child=-1 -2
right_child=1 -3
leaf_value=0.081425702618760601 0.014608455345386651 -0.057558231391924487
leaf_weight=10.328546338248996 10.016636070329698 13.532391582615672
leaf_count=1610 735 119
internal_value=0 -0.026862
internal_weight=0 23.549
internal_count=2464 854
is_linear=0
shrinkage=0.1


Tree=21
num_leaves=3
num_cat=0
split_feature=5 8
split_gain=5.61608 20.3277
threshold=70.538278902099535 0.00072806707864600008
decision_type=2 2
left_child=-1 -2
right_child=1 -3
leaf_value=0.059828459924159499 -0.12265326432605173 0.075665870476800734
leaf_weight=12.129575247410683 10.59116902947426 10.094467604067175
leaf_count=1584 77 803
internal_value=0 -0.0258747
internal_weight=0 20.6856
internal_count=2464 880
is_linear=0
shrinkage=0.1


Tree=22
num_leaves=2
num_cat=0
split_feature=5
split_gain=4.87578
threshold=70.538278902099535
decision_type=2
left_child=-1
right_child=-2
leaf_value=0.057279167811173676 -0.025134291825488958
leaf_weight=11.438893893267961 19.275503315962851
leaf_count=1584 880
internal_value=0
internal_weight=0
internal_count=2464
is_linear=0
shrinkage=0.1


Tree=23
num_leaves=2
num_cat=0
split_feature=6
split_gain=4.85939
threshold=148.54508498125873
decision_type=2
left_child=-1
right_child=-2
leaf_value=-0.023763349602877203 0.060940150574084709
leaf_weight=19.832891073077921 10.285480549558995
leaf_count=1667 797
internal_value=0
internal_weight=0
internal_count=2464
is_linear=0
shrinkage=0.1


Tree=24
num_leaves=2
num_cat=0
split_feature=5
split_gain=4.58752
threshold=70.538278902099535
decision_type=2
left_child=-1
right_child=-2
leaf_value=0.055786109683591191 -0.02541209453740792
leaf_weight=11.068976875860246 18.734831642825156
leaf_count=1584 880
internal_value=0
internal_weight=0
internal_count=2464
is_linear=0
shrinkage=0.1


Tree=25
num_leaves=2
num_cat=0
split_feature=6
split_gain=4.53112
threshold=148.54508498125873
decision_type=2
left_child=-1
right_child=-2
leaf_value=-0.024040507991649807 0.058877137587803198
leaf_weight=19.20724033005536 10.032883260399101
leaf_count=1667 797
internal_value=0
internal_weight=0
internal_count=2464
is_linear=0
shrinkage=0.1


Tree=26
num_leaves=2
num_cat=0
split_feature=6
split_gain=4.31486
threshold=133.36518438913848
decision_type=2
left_child=-1
right_child=-2
leaf_value=0.054328159374968946 -0.025593880454628695
leaf_weight=10.738988704979421 18.209274573251605
leaf_count=1593 871
internal_value=0
internal_weight=0
internal_count=2464
is_linear=0
shrinkage=0.1


Tree=27
num_leaves=2
num_cat=0
split_feature=5
split_gain=3.64972
threshold=70.538278902099535
decision_type=2
left_child=-1
right_child=-2
leaf_value=0.051751912306090886 -0.022999436061235626
leaf_weight=10.176306074950846 18.236935900524259
leaf_count=1584 880
internal_value=0
internal_weight=0
internal_count=2464
is_linear=0
shrinkage=0.1


Tree=28
num_leaves=2
num_cat=0
split_feature=7
split_gain=4.26424
threshold=92.248826740034261
decision_type=2
left_child=-1
right_child=-2
leaf_value=-0.025779697798660257 0.055634156446301111
leaf_weight=17.887316510081295 10.047048810636623
leaf_count=1668 796
internal_value=0
internal_weight=0
internal_count=2464
is_linear=0
shrinkage=0.1


Tree=29
num_leaves=2
num_cat=0
split_feature=7
split_gain=3.30709
threshold=90.630797864125682
decision_type=2
left_child=-1
right_child=-2
leaf_value=0.048404786951972756 -0.02322853531603886
leaf_weight=10.218307153787466 17.452680097194389
leaf_count=1598 866
internal_value=0
internal_weight=0
internal_count=2464
is_linear=0
shrinkage=0.1


Tree=30
num_leaves=2
num_cat=0
split_feature=6
split_gain=2.1853
threshold=148.51736229640667
decision_type=2
left_child=-1
right_child=-2
leaf_value=0.040118451276378912 -0.018623569043275081
leaf_weight=10.019971204921605 17.211371717508882
leaf_count=1598 866
internal_value=0
internal_weight=0
internal_count=2464
is_linear=0
shrinkage=0.1


Tree=31
num_leaves=2
num_cat=0
split_feature=7
split_gain=2.44002
threshold=92.248826740032385
decision_type=2
left_child=-1
right_child=-2
leaf_value=-0.022159356887413089 0.039163671983811203
leaf_weight=15.971936598652976 10.927933615166692
leaf_count=1661 803
internal_value=0
internal_weight=0
internal_count=2464
is_linear=0
shrinkage=0.1


Tree=32
num_leaves=2
num_cat=0
split_feature=7
split_gain=2.00473
threshold=92.248826740032385
decision_type=2
left_child=-1
right_child=-2
leaf_value=-0.019819010451844556 0.036057252842640775
leaf_weight=16.066935929702598 10.695185536518691
leaf_count=1661 803
internal_value=0
internal_weight=0
internal_count=2464
is_linear=0
shrinkage=0.1


Tree=33
num_leaves=2
num_cat=0
split_feature=6
split_gain=2.31764
threshold=148.51736229640667
decision_type=2
left_child=-1
right_child=-2
leaf_value=0.040229355013156255 -0.020637232356189302
leaf_weight=10.03570776875131 16.609814696479589
leaf_count=1598 866
internal_value=0
internal_weight=0
internal_count=2464
is_linear=0
shrinkage=0.1


Tree=34
num_leaves=2
num_cat=0
split_feature=7
split_gain=1.89919
threshold=92.248826740032385
decision_type=2
left_child=-1
right_child=-2
leaf_value=-0.019964073682890899 0.034808122181199122
leaf_weight=15.705703440587969 10.605492186732588
leaf_count=1661 803
internal_value=0
internal_weight=0
internal_count=2464
is_linear=0
shrinkage=0.1


Tree=35
num_leaves=2
num_cat=0
split_feature=7
split_gain=1.55678
threshold=92.248826740032385
decision_type=2
left_child=-1
right_child=-2
leaf_value=-0.017861577858987756 0.031950134834387252
leaf_weight=15.794090328738095 10.409493027487768
leaf_count=1661 803
internal_value=0
internal_weight=0
internal_count=2464
is_linear=0
shrinkage=0.1


Tree=36
num_leaves=2
num_cat=0
split_feature=6
split_gain=2.38444
threshold=148.51736229640667
decision_type=2
left_child=-1
right_child=-2
leaf_value=0.040070832696313896 -0.022077431207430165
leaf_weight=10.012869849102573 16.099781455937773
leaf_count=1598 866
internal_value=0
internal_weight=0
internal_count=2464
is_linear=0
shrinkage=0.1


Tree=37
num_leaves=2
num_cat=0
split_feature=7
split_gain=1.50572
threshold=92.248826740032385
decision_type=2
left_child=-1
right_child=-2
leaf_value=-0.018173940702048315 0.031124278595843533
leaf_weight=15.424877839395778 10.3546403250657
leaf_count=1661 803
internal_value=0
internal_weight=0
internal_count=2464
is_linear=0
shrinkage=0.1


Tree=38
num_leaves=2
num_cat=0
split_feature=5
split_gain=1.30849
threshold=71.559660463116089
decision_type=2
left_child=-1
right_child=-2
leaf_value=0.028977186816508235 -0.017039384943382859
leaf_weight=10.342060265364127 15.352219380903987
leaf_count=1592 872
internal_value=0
internal_weight=0
internal_count=2464
is_linear=0
shrinkage=0.1


Tree=39
num_leaves=2
num_cat=0
split_feature=7
split_gain=1.40704
threshold=92.248826740032385
decision_type=2
left_child=-1
right_child=-2
leaf_value=-0.017962137881681935 0.029939743401386939
leaf_weight=15.201835157582538 10.2777455272153
leaf_count=1661 803
internal_value=0
internal_weight=0
internal_count=2464
is_linear=0
shrinkage=0.1


Tree=40
num_leaves=2
num_cat=0
split_feature=0
split_gain=1.28585
threshold=0.0012361634022284003
decision_type=2
left_child=-1
right_child=-2
leaf_value=0.019696418433402377 -0.026187079466594085
leaf_weight=15.184096284909176 10.217662539798765
leaf_count=1827 637
internal_value=0
internal_weight=0
internal_count=2464
is_linear=0
shrinkage=0.1


Tree=41
num_leaves=2
num_cat=0
split_feature=5
split_gain=1.25778
threshold=71.559660463116089
decision_type=2
left_child=-1
right_child=-2
leaf_value=0.028273208914061456 -0.017121642536239681
leaf_weight=10.206538176629694 15.183775056619195
leaf_count=1592 872
internal_value=0
internal_weight=0
internal_count=2464
is_linear=0
shrinkage=0.1


Tree=42
num_leaves=2
num_cat=0
split_feature=7
split_gain=1.30571
threshold=92.248826740032385
decision_type=2
left_child=-1
right_child=-2
leaf_value=-0.01778368374649061 0.028585101069345684
leaf_weight=14.962581525556745 10.221459120977668
leaf_count=1661 803
internal_value=0
internal_weight=0
internal_count=2464
is_linear=0
shrinkage=0.1


Tree=43
num_leaves=2
num_cat=0
split_feature=5
split_gain=1.1914
threshold=71.559660463116089
decision_type=2
left_child=-1
right_child=-2
leaf_value=0.02745994479121714 -0.016945640035173976
leaf_weight=10.119310230948033 14.995569344377143
leaf_count=1592 872
internal_value=0
internal_weight=0
internal_count=2464
is_linear=0
shrinkage=0.1


Tree=44
num_leaves=2
num_cat=0
split_feature=7
split_gain=1.22437
threshold=92.248826740032385
decision_type=2
left_child=-1
right_child=-2
leaf_value=-0.017520939166715536 0.027587111310102743
leaf_weight=14.757672907086091 10.160067818127571
leaf_count=1661 803
internal_value=0
internal_weight=0
internal_count=2464
is_linear=0
shrinkage=0.1


Tree=45
num_leaves=2
num_cat=0
split_feature=5
split_gain=1.1282
threshold=71.559660463116089
decision_type=2
left_child=-1
right_child=-2
leaf_value=0.026682400043857274 -0.016738927121147561
leaf_weight=10.037556984229015 14.81664589839056
leaf_count=1592 872
internal_value=0
internal_weight=0
internal_count=2464
is_linear=0
shrinkage=0.1


Tree=46
num_leaves=2
num_cat=0
split_feature=7
split_gain=1.14935
threshold=92.248826740032385
decision_type=2
left_child=-1
right_child=-2
leaf_value=-0.017245162877329169 0.026650642109354219
leaf_weight=14.562124996213244 10.103515040362252
leaf_count=1661 803
internal_value=0
internal_weight=0
internal_count=2464
is_linear=0
shrinkage=0.1


Tree=47
num_leaves=2
num_cat=0
split_feature=0
split_gain=1.07784
threshold=0.0012361634022284003
decision_type=2
left_child=-1
right_child=-2
leaf_value=0.018048543479034635 -0.024536115705984296
leaf_weight=14.567152678035201 10.04003452719189
leaf_count=1827 637
internal_value=0
internal_weight=0
internal_count=2464
is_linear=0
shrinkage=0.1


Tree=48
num_leaves=2
num_cat=0
split_feature=7
split_gain=1.08882
threshold=92.248808206802138
decision_type=2
left_child=-1
right_child=-2
leaf_value=0.025591919423276512 -0.017101411552636413
leaf_weight=10.210639631142842 14.395522081758825
leaf_count=1605 859
internal_value=0
internal_weight=0
internal_count=2464
is_linear=0
shrinkage=0.1


Tree=49
num_leaves=2
num_cat=0
split_feature=7
split_gain=1.07422
threshold=92.248826740032385
decision_type=2
left_child=-1
right_child=-2
leaf_value=-0.01699620906658569 0.025606357084385991
leaf_weight=14.355097688734533 10.070950303226708
leaf_count=1661 803
internal_value=0
internal_weight=0
internal_count=2464
is_linear=0
shrinkage=0.1


Tree=50
num_leaves=2
num_cat=0
split_feature=7
split_gain=1.03246
threshold=92.248808206802138
decision_type=2
left_child=-1
right_child=-2
leaf_value=0.024904793788190493 -0.016850852308546157
leaf_weight=10.141141284257175 14.232289237435905
leaf_count=1605 859
internal_value=0
internal_weight=0
internal_count=2464
is_linear=0
shrinkage=0.1


Tree=51
num_leaves=2
num_cat=0
split_feature=4
split_gain=1.02073
threshold=45960.000000000007
decision_type=2
left_child=-1
right_child=-2
leaf_value=0.019970011714876237 -0.021161122219917922
leaf_weight=12.735990430926906 11.464730457169933
leaf_count=999 1465
internal_value=0
internal_weight=0
internal_count=2464
is_linear=0
shrinkage=0.1


Tree=52
num_leaves=2
num_cat=0
split_feature=0
split_gain=1.02701
threshold=0.0012133914327352002
decision_type=2
left_child=-1
right_child=-2
leaf_value=0.019679957337847921 -0.021618919131589087
leaf_weight=12.928039404796438 11.270999482832847
leaf_count=1685 779
internal_value=0
internal_weight=0
internal_count=2464
is_linear=0
shrinkage=0.1


Tree=53
num_leaves=2
num_cat=0
split_feature=7
split_gain=1.00056
threshold=92.248826740032385
decision_type=2
left_child=-1
right_child=-2
leaf_value=-0.01667166363276942 0.024627042387494195
leaf_weight=14.184541760711001 10.003607499646021
leaf_count=1661 803
internal_value=0
internal_weight=0
internal_count=2464
is_linear=0
shrinkage=0.1


Tree=54
num_leaves=2
num_cat=0
split_feature=7
split_gain=1.00847
threshold=92.248808206802138
decision_type=2
left_child=-1
right_child=-2
leaf_value=0.02454033158403332 -0.016911490340414795
leaf_weight=10.068488893797623 14.072146546561269
leaf_count=1605 859
internal_value=0
internal_weight=0
internal_count=2464
is_linear=0
shrinkage=0.1


Tree=55
num_leaves=2
num_cat=0
split_feature=4
split_gain=0.985996
threshold=45165.000000000007
decision_type=2
left_child=-1
right_child=-2
leaf_value=0.021661111186162815 -0.018949811618101334
leaf_weight=11.39406822784804 12.578288763063027
leaf_count=855 1609
internal_value=0
internal_weight=0
internal_count=2464
is_linear=0
shrinkage=0.1


Tree=56
num_leaves=2
num_cat=0
split_feature=0
split_gain=0.985872
threshold=0.0012133914327352002
decision_type=2
left_child=-1
right_child=-2
leaf_value=0.019323502249128779 -0.021330371614113885
leaf_weight=12.764701166190209 11.198071627877651
leaf_count=1685 779
internal_value=0
internal_weight=0
internal_count=2464
is_linear=0
shrinkage=0.1


Tree=57
num_leaves=2
num_cat=0
split_feature=4
split_gain=0.941196
threshold=45165.000000000007
decision_type=2
left_child=-1
right_child=-2
leaf_value=0.021182325898382204 -0.01851542313576891
leaf_weight=11.354202260263266 12.600164299597962
leaf_count=855 1609
internal_value=0
internal_weight=0
internal_count=2464
is_linear=0
shrinkage=0.1


Tree=58
num_leaves=2
num_cat=0
split_feature=0
split_gain=0.937001
threshold=0.0012133914327352002
decision_type=2
left_child=-1
right_child=-2
leaf_value=0.018855697326361227 -0.020784324885558966
leaf_weight=12.72419871366583 11.222403870197011
leaf_count=1685 779
internal_value=0
internal_weight=0
internal_count=2464
is_linear=0
shrinkage=0.1


Tree=59
num_leaves=2
num_cat=0
split_feature=4
split_gain=0.898141
threshold=45165.000000000007
decision_type=2
left_child=-1
right_child=-2
leaf_value=0.02071462600991333 -0.01808135950107358
leaf_weight=11.317058639135213 12.62298815557733
leaf_count=855 1609
internal_value=0
internal_weight=0
internal_count=2464
is_linear=0
shrinkage=0.1


Tree=60
num_leaves=2
num_cat=0
split_feature=0
split_gain=0.892153
threshold=0.0012105871384259002
decision_type=2
left_child=-1
right_child=-2
leaf_value=0.018648509392033632 -0.020009128393652775
leaf_weight=12.536754253786059 11.397192401811479
leaf_count=1665 799
internal_value=0
internal_weight=0
internal_count=2464
is_linear=0
shrinkage=0.1


Tree=61
num_leaves=2
num_cat=0
split_feature=4
split_gain=0.858818
threshold=45165.000000000007
decision_type=2
left_child=-1
right_child=-2
leaf_value=0.020281758438012804 -0.017670746842359596
leaf_weight=11.28138497611508 12.645987151423467
leaf_count=855 1609
internal_value=0
internal_weight=0
internal_count=2464
is_linear=0
shrinkage=0.1


Tree=62
num_leaves=2
num_cat=0
split_feature=0
split_gain=0.851332
threshold=0.0012075306326640503
decision_type=2
left_child=-1
right_child=-2
leaf_value=0.018477251595347584 -0.019271037254393303
leaf_weight=12.344676589826124 11.578036915510891
leaf_count=1645 819
internal_value=0
internal_weight=0
internal_count=2464
is_linear=0
shrinkage=0.1


Tree=63
num_leaves=2
num_cat=0
split_feature=4
split_gain=0.822837
threshold=45165.000000000007
decision_type=2
left_child=-1
right_child=-2
leaf_value=0.01988101280288801 -0.017282140546537494
leaf_weight=11.246665677288549 12.669314838014541
leaf_count=855 1609
internal_value=0
internal_weight=0
internal_count=2464
is_linear=0
shrinkage=0.1


Tree=64
num_leaves=2
num_cat=0
split_feature=0
split_gain=0.81356
threshold=0.0012075306326640503
decision_type=2
left_child=-1
right_child=-2
leaf_value=0.018089064032507384 -0.018817326407309366
leaf_weight=12.309746382525192 11.602826680988072
leaf_count=1645 819
internal_value=0
internal_weight=0
internal_count=2464
is_linear=0
shrinkage=0.1


Tree=65
num_leaves=2
num_cat=0
split_feature=4
split_gain=0.788156
threshold=45165.000000000007
decision_type=2
left_child=-1
right_child=-2
leaf_value=0.01948753557735838 -0.016896013610428098
leaf_weight=11.213795462856071 12.693407262908293
leaf_count=855 1609
internal_value=0
internal_weight=0
internal_count=2464
is_linear=0
shrinkage=0.1


Tree=66
num_leaves=2
num_cat=0
split_feature=0
split_gain=0.780781
threshold=0.0012361634022284003
decision_type=2
left_child=-1
right_child=-2
leaf_value=0.015506508820121596 -0.021122665112685762
leaf_weight=13.889037113403903 10.015910425223408
leaf_count=1827 637
internal_value=0
internal_weight=0
internal_count=2464
is_linear=0
shrinkage=0.1


Tree=67
num_leaves=2
num_cat=0
split_feature=4
split_gain=0.735189
threshold=45165.000000000007
decision_type=2
left_child=-1
right_child=-2
leaf_value=0.018851000364030673 -0.016288598466072061
leaf_weight=11.187452222220601 12.727527425391598
leaf_count=855 1609
internal_value=0
internal_weight=0
internal_count=2464
is_linear=0
shrinkage=0.1


Tree=68
num_leaves=2
num_cat=0
split_feature=0
split_gain=0.769142
threshold=0.0011929938758576503
decision_type=2
left_child=-1
right_child=-2
leaf_value=0.018743792366305783 -0.017147934118743043
leaf_weight=11.519326024688782 12.395132539095355
leaf_count=1555 909
internal_value=0
internal_weight=0
internal_count=2464
is_linear=0
shrinkage=0.1


Tree=69
num_leaves=2
num_cat=0
split_feature=4
split_gain=0.711568
threshold=45960.000000000007
decision_type=2
left_child=-1
right_child=-2
leaf_value=0.016828257617509518 -0.017695126479924803
leaf_weight=12.3454821635969 11.561109295347704
leaf_count=999 1465
internal_value=0
internal_weight=0
internal_count=2464
is_linear=0
shrinkage=0.1


Tree=70
num_leaves=2
num_cat=0
split_feature=0
split_gain=0.728033
threshold=0.0011929938758576503
decision_type=2
left_child=-1
right_child=-2
leaf_value=0.018267989220122943 -0.016653916450822533
leaf_weight=11.49086189735681 12.424544654786585
leaf_count=1555 909
internal_value=0
internal_weight=0
internal_count=2464
is_linear=0
shrinkage=0.1


Tree=71
num_leaves=2
num_cat=0
split_feature=4
split_gain=0.691666
threshold=45165.000000000007
decision_type=2
left_child=-1
right_child=-2
leaf_value=0.018338427118664364 -0.015759195632407422
leaf_weight=11.133493952685969 12.775517001049591
leaf_count=855 1609
internal_value=0
internal_weight=0
internal_count=2464
is_linear=0
shrinkage=0.1


Tree=72
num_leaves=2
num_cat=0
split_feature=0
split_gain=0.695034
threshold=0.0012075306326640503
decision_type=2
left_child=-1
right_child=-2
leaf_value=0.016817568823838249 -0.0172888868808319
leaf_weight=12.198867557104679 11.710822253953664
leaf_count=1645 819
internal_value=0
internal_weight=0
internal_count=2464
is_linear=0
shrinkage=0.1


Tree=73
num_leaves=2
num_cat=0
split_feature=5
split_gain=0.677545
threshold=71.559669579809608
decision_type=2
left_child=-1
right_child=-2
leaf_value=0.019685702207621288 -0.014367644966902647
leaf_weight=10.162259759847077 13.746007579611613
leaf_count=1596 868
internal_value=0
internal_weight=0
internal_count=2464
is_linear=0
shrinkage=0.1


Tree=74
num_leaves=2
num_cat=0
split_feature=4
split_gain=0.671442
threshold=45165.000000000007
decision_type=2
left_child=-1
right_child=-2
leaf_value=0.018096433947269029 -0.015585615890972467
leaf_weight=11.07917500450276 12.70611634920351
leaf_count=855 1609
internal_value=0
internal_weight=0
internal_count=2464
is_linear=0
shrinkage=0.1


Tree=75
num_leaves=2
num_cat=0
split_feature=0
split_gain=0.696861
threshold=0.0011929938758576503
decision_type=2
left_child=-1
right_child=-2
leaf_value=0.01799037108876465 -0.016275314822678754
leaf_weight=11.366627342533322 12.42041122028604
leaf_count=1555 909
internal_value=0
internal_weight=0
internal_count=2464
is_linear=0
shrinkage=0.1


Tree=76
num_leaves=2
num_cat=0
split_feature=4
split_gain=0.645634
threshold=44340.000000000007
decision_type=2
left_child=-1
right_child=-2
leaf_value=0.019422215256218144 -0.013951932944790496
leaf_weight=10.009039400145413 13.772553703514857
leaf_count=711 1753
internal_value=0
internal_weight=0
internal_count=2464
is_linear=0
shrinkage=0.1


Tree=77
num_leaves=2
num_cat=0
split_feature=0
split_gain=0.659326
threshold=0.0012105871384259002
decision_type=2
left_child=-1
right_child=-2
leaf_value=0.016284199417805543 -0.017032829481891172
leaf_weight=12.220247779740022 11.557217028224839
leaf_count=1665 799
internal_value=0
internal_weight=0
internal_count=2464
is_linear=0
shrinkage=0.1


Tree=78
num_leaves=2
num_cat=0
split_feature=4
split_gain=0.628749
threshold=45165.000000000007
decision_type=2
left_child=-1
right_child=-2
leaf_value=0.017571549470267765 -0.015036050367921558
leaf_weight=11.027881852351131 12.750664331018923
leaf_count=855 1609
internal_value=0
internal_weight=0
internal_count=2464
is_linear=0
shrinkage=0.1


Tree=79
num_leaves=2
num_cat=0
split_feature=0
split_gain=0.633536
threshold=0.0011929938758576503
decision_type=2
left_child=-1
right_child=-2
leaf_value=0.017228311653834667 -0.015454803363068462
leaf_weight=11.305778426351027 12.475560331949962
leaf_count=1555 909
internal_value=0
internal_weight=0
internal_count=2464
is_linear=0
shrinkage=0.1


Tree=80
num_leaves=2
num_cat=0
split_feature=5
split_gain=0.629699
threshold=71.559669579809608
decision_type=2
left_child=-1
right_child=-2
leaf_value=0.019046942429879223 -0.013882481523501715
leaf_weight=10.081991914077664 13.695965670747681
leaf_count=1596 868
internal_value=0
internal_weight=0
internal_count=2464
is_linear=0
shrinkage=0.1


Tree=81
num_leaves=2
num_cat=0
split_feature=4
split_gain=0.610202
threshold=45165.000000000007
decision_type=2
left_child=-1
right_child=-2
leaf_value=0.017343628990580784 -0.014859146408175986
leaf_weight=10.975189424469137 12.685191622702403
leaf_count=855 1609
internal_value=0
internal_weight=0
internal_count=2464
is_linear=0
shrinkage=0.1


Tree=82
num_leaves=2
num_cat=0
split_feature=0
split_gain=0.631817
threshold=0.0012075306326640503
decision_type=2
left_child=-1
right_child=-2
leaf_value=0.016263113790353195 -0.016418293196574462
leaf_weight=11.942923163529487 11.721062835305927
leaf_count=1645 819
internal_value=0
internal_weight=0
internal_count=2464
is_linear=0
shrinkage=0.1


Tree=83
num_leaves=2
num_cat=0
split_feature=4
split_gain=0.586031
threshold=45165.000000000007
decision_type=2
left_child=-1
right_child=-2
leaf_value=0.01702643377122515 -0.014534194028240348
leaf_weight=10.952713715145366 12.711672693025319
leaf_count=855 1609
internal_value=0
internal_weight=0
internal_count=2464
is_linear=0
shrinkage=0.1


Tree=84
num_leaves=2
num_cat=0
split_feature=0
split_gain=0.605314
threshold=0.0011929938758576503
decision_type=2
left_child=-1
right_child=-2
leaf_value=0.016956412068458132 -0.015075006531791691
leaf_weight=11.191343655809762 12.477244779700412
leaf_count=1555 909
internal_value=0
internal_weight=0
internal_count=2464
is_linear=0
shrinkage=0.1


Tree=85
num_leaves=2
num_cat=0
split_feature=4
split_gain=0.569143
threshold=45960.000000000007
decision_type=2
left_child=-1
right_child=-2
leaf_value=0.015224829543353588 -0.015798813079886821
leaf_weight=12.104114115238191 11.561826033284886
leaf_count=999 1465
internal_value=0
internal_weight=0
internal_count=2464
is_linear=0
shrinkage=0.1


Tree=86
num_leaves=2
num_cat=0
split_feature=0
split_gain=0.578203
threshold=0.0011802575243172002
decision_type=2
left_child=-1
right_child=-2
leaf_value=0.017561009078730861 -0.013891615913572013
leaf_weight=10.507867849082688 13.170624962542204
leaf_count=1475 989
internal_value=0
internal_weight=0
internal_count=2464
is_linear=0
shrinkage=0.1


Tree=87
num_leaves=2
num_cat=0
split_feature=5
split_gain=0.583761
threshold=71.559669579809608
decision_type=2
left_child=-1
right_child=-2
leaf_value=0.018421634895139642 -0.013369874822415582
leaf_weight=10.002651555463673 13.668194589437915
leaf_count=1596 868
internal_value=0
internal_weight=0
internal_count=2464
is_linear=0
shrinkage=0.1


Tree=88
num_leaves=2
num_cat=0
split_feature=4
split_gain=0.552685
threshold=45865.000000000007
decision_type=2
left_child=-1
right_child=-2
leaf_value=0.015211161356165633 -0.015424126083900383
leaf_weight=11.910451278788971 11.648044718429444
leaf_count=981 1483
internal_value=0
internal_weight=0
internal_count=2464
is_linear=0
shrinkage=0.1


Tree=89
num_leaves=2
num_cat=0
split_feature=0
split_gain=0.576739
threshold=0.0011802575243172002
decision_type=2
left_child=-1
right_child=-2
leaf_value=0.017615663406181467 -0.013877338736022808
leaf_weight=10.432823440642098 13.137629428645594
leaf_count=1475 989
internal_value=0
internal_weight=0
internal_count=2464
is_linear=0
shrinkage=0.1


Tree=90
num_leaves=2
num_cat=0
split_feature=4
split_gain=0.534184
threshold=45165.000000000007
decision_type=2
left_child=-1
right_child=-2
leaf_value=0.016339782442913231 -0.013865552617626753
leaf_weight=10.863713258528152 12.699063888052477
leaf_count=855 1609
internal_value=0
internal_weight=0
internal_count=2464
is_linear=0
shrinkage=0.1


Tree=91
num_leaves=2
num_cat=0
split_feature=0
split_gain=0.551938
threshold=0.0012075306326640503
decision_type=2
left_child=-1
right_child=-2
leaf_value=0.015364743670085227 -0.015241487343074504
leaf_weight=11.782154323300349 11.786259025102479
leaf_count=1645 819
internal_value=0
internal_weight=0
internal_count=2464
is_linear=0
shrinkage=0.1


Tree=92
num_leaves=2
num_cat=0
split_feature=4
split_gain=0.512492
threshold=45165.000000000007
decision_type=2
left_child=-1
right_child=-2
leaf_value=0.016031909612534503 -0.013553331494348099
leaf_weight=10.84396491001826 12.726977971149607
leaf_count=855 1609
internal_value=0
internal_weight=0
internal_count=2464
is_linear=0
shrinkage=0.1


Tree=93
num_leaves=2
num_cat=0
split_feature=0
split_gain=0.530212
threshold=0.0011929938758576503
decision_type=2
left_child=-1
right_child=-2
leaf_value=0.016038388018777387 -0.014014813531333773
leaf_weight=11.038629153626973 12.538416170049457
leaf_count=1555 909
internal_value=0
internal_weight=0
internal_count=2464
is_linear=0
shrinkage=0.1


Tree=94
num_leaves=2
num_cat=0
split_feature=8
split_gain=0.507
threshold=0.00069808036427850006
decision_type=2
left_child=-1
right_child=-2
leaf_value=-0.01256973168912923 0.017088700779925785
leaf_weight=13.540971956448631 10.035548870917408
leaf_count=1411 1053
internal_value=0
internal_weight=0
internal_count=2464
is_linear=0
shrinkage=0.1


Tree=95
num_leaves=2
num_cat=0
split_feature=4
split_gain=0.497183
threshold=45960.000000000007
decision_type=2
left_child=-1
right_child=-2
leaf_value=0.014364742595452916 -0.014754673016977735
leaf_weight=11.931395947583953 11.529157456941901
leaf_count=999 1465
internal_value=0
internal_weight=0
internal_count=2464
is_linear=0
shrinkage=0.1


Tree=96
num_leaves=2
num_cat=0
split_feature=5
split_gain=0.573012
threshold=71.559669579809608
decision_type=2
left_child=-1
right_child=-2
leaf_value=0.018176589723366984 -0.013415799595694328
leaf_weight=10.007895070593806 13.466161067364736
leaf_count=1596 868
internal_value=0
internal_weight=0
internal_count=2464
is_linear=0
shrinkage=0.1


Tree=97
num_leaves=2
num_cat=0
split_feature=0
split_gain=0.547372
threshold=0.0011802575243172002
decision_type=2
left_child=-1
right_child=-2
leaf_value=0.017344201897305966 -0.013496343066952321
leaf_weight=10.265040321741255 13.09816827950999
leaf_count=1475 989
internal_value=0
internal_weight=0
internal_count=2464
is_linear=0
shrinkage=0.1


Tree=98
num_leaves=2
num_cat=0
split_feature=4
split_gain=0.486992
threshold=45865.000000000007
decision_type=2
left_child=-1
right_child=-2
leaf_value=0.014413342632775784 -0.014466103270146718
leaf_weight=11.742837544181386 11.614173270761965
leaf_count=981 1483
internal_value=0
internal_weight=0
internal_count=2464
is_linear=0
shrinkage=0.1


Tree=99
num_leaves=2
num_cat=0
split_feature=0
split_gain=0.521051
threshold=0.0011929938758576503
decision_type=2
left_child=-1
right_child=-2
leaf_value=0.016035637571058158 -0.013897228285276312
leaf_weight=10.890593889285812 12.47921989765018
leaf_count=1555 909
internal_value=0
internal_weight=0
internal_count=2464
is_linear=0
shrinkage=0.1


end of trees

feature_importances:
macd_signal=33
return=31
ma200=27
rsi=20
volatility=17
volume_change=13
momentum=12
macd=10

parameters:
[boosting: gbdt]
[objective: binary]
[metric: binary_logloss]
[tree_learner: serial]
[device_type: cpu]
[data_sample_strategy: bagging]
[data: ]
[valid: ]
[num_iterations: 100]
[learning_rate: 0.1]
[num_leaves: 31]
[num_threads: 2]
[seed: 0]
[deterministic: 0]
[force_col_wise: 0]
[force_row_wise: 0]
[histogram_pool_size: -1]
[max_depth: -1]
[min_data_in_leaf: 20]
[min_sum_hessian_in_leaf: 10]
[bagging_fraction: 1]
[pos_bagging_fraction: 1]
[neg_bagging_fraction: 1]
[bagging_freq: 0]
[bagging_seed: 3]
[feature_fraction: 1]
[feature_fraction_bynode: 1]
[feature_fraction_seed: 2]
[extra_trees: 0]
[extra_seed: 6]
[early_stopping_round: 0]
[early_stopping_min_delta: 0]
[first_metric_only: 0]
[max_delta_step: 0]
[lambda_l1: 0]
[lambda_l2: 0]
[linear_lambda: 0]
[min_gain_to_split: 0]
[drop_rate: 0.1]
[max_drop: 50]
[skip_drop: 0.5]
[xgboost_dart_mode: 0]
[uniform_drop: 0]
[drop_seed: 4]
[top_rate: 0.2]
[other_rate: 0.1]
[min_data_per_group: 100]
[max_cat_threshold: 32]
[cat_l2: 10]
[cat_smooth: 10]
[max_cat_to_onehot: 4]
[top_k: 20]
[monotone_constraints: ]
[monotone_constraints_method: basic]
[monotone_penalty: 0]
[feature_contri: ]
[forcedsplits_filename: ]
[refit_decay_rate: 0.9]
[cegb_tradeoff: 1]
[cegb_penalty_split: 0]
[cegb_penalty_feature_lazy: ]
[cegb_penalty_feature_coupled: ]
[path_smooth: 0]
[interaction_constraints: ]
[verbosity: 1]
[saved_feature_importance_type: 0]
[use_quantized_grad: 0]
[num_grad_quant_bins: 4]
[quant_train_renew_leaf: 0]
[stochastic_rounding: 1]
[linear_tree: 0]
[max_bin: 255]
[max_bin_by_feature: ]
[min_data_in_bin: 3]
[bin_construct_sample_cnt: 200000]
[data_random_seed: 1]
[is_enable_sparse: 1]
[enable_bundle: 1]
[use_missing: 1]
[zero_as_missing: 0]
[feature_pre_filter: 1]
[pre_partition: 0]
[two_round: 0]
[header: 0]
[label_column: ]
[weight_column: ]
[group_column: ]
[ignore_column: ]
[categorical_feature: ]
[forcedbins_filename: ]
[precise_float_parser: 0]
[parser_config_file: ]
[objective_seed: 5]
[num_class: 1]
[is_unbalance: 0]
[scale_pos_weight: 1]
[sigmoid: 1]
[boost_from_average: 1]
[reg_sqrt: 0]
[alpha: 0.9]
[fair_c: 1]
[poisson_max_delta_step: 0.7]
[tweedie_variance_power: 1.5]
[lambdarank_truncation_level: 30]
[lambdarank_norm: 1]
[label_gain: ]
[lambdarank_position_bias_regularization: 0]
[eval_at: ]
[multi_error_top_k: 1]
[auc_mu_weights: ]
[num_machines: 1]
[local_listen_port: 12400]
[time_out: 120]
[machine_list_filename: ]
[machines: ]
[gpu_platform_id: -1]
[gpu_device_id: -1]
[gpu_use_dp: 0]
[num_gpu: 1]

end of parameters

pandas_categorical:[]
